<?xml version="1.0"?>
<opencv_storage>
<opencv_ml_svm>
  <format>3</format>
  <svmType>C_SVC</svmType>
  <kernel>
    <type>LINEAR</type></kernel>
  <C>1.</C>
  <term_criteria><epsilon>1.1920928955078125e-007</epsilon></term_criteria>
  <var_count>1764</var_count>
  <class_count>7</class_count>
  <class_labels type_id="opencv-matrix">
    <rows>7</rows>
    <cols>1</cols>
    <dt>i</dt>
    <data>
      -1 2 3 5 6 7 8</data></class_labels>
  <sv_total>21</sv_total>
  <support_vectors>
    <_>
      2.15437740e-001 3.27766612e-002 1.82347313e-001 8.53293464e-002
      8.48343968e-002 -5.24637066e-002 1.73697695e-001 2.11491123e-001
      2.91007966e-001 -1.21094398e-001 -1.17139503e-001 5.53101599e-002
      -5.64613305e-002 4.07892093e-002 1.10538423e-001 -9.22522247e-002
      -1.43385366e-001 -1.95498019e-001 1.96299404e-001 -1.07448407e-001
      -2.22441629e-002 3.14113349e-002 2.17570253e-002 1.12626962e-002
      6.95904493e-002 -1.21595480e-001 2.14701831e-001 -2.03703344e-001
      -1.89641193e-001 -2.45050877e-001 -4.45702463e-001
      -1.56453952e-001 -2.17233375e-001 -2.21104354e-001
      -2.54137516e-001 -1.77690282e-001 -5.79225793e-002 1.55966237e-001
      8.80844891e-002 1.16493620e-001 2.99397796e-001 1.01242900e-001
      2.30723605e-001 1.87496766e-001 1.97724313e-001 -5.69367148e-002
      2.67638974e-002 4.28760722e-002 1.42595083e-001 1.37160227e-001
      2.60040537e-003 -1.31106645e-001 -1.10385038e-001 -3.67069733e-003
      -5.62505983e-003 7.73835406e-002 -2.87052244e-002 -1.18990064e-001
      1.78023890e-001 3.91812176e-002 -1.47929758e-001 1.05553214e-003
      1.12835541e-001 -1.33767486e-001 -2.08598271e-001 -3.71167839e-001
      -2.64656663e-001 -9.29203555e-002 -2.05437168e-001
      -2.50234038e-001 -3.21142018e-001 -1.60093755e-001 1.13480963e-001
      1.66165307e-001 1.17326230e-001 3.64057899e-001 1.94335222e-001
      9.31750014e-002 -3.37838829e-002 1.69580340e-001 7.40982816e-002
      -2.52973381e-002 1.52551770e-001 6.53683767e-002 3.02743018e-001
      -1.19317941e-001 -8.56441930e-002 3.06911357e-002 1.58883765e-001
      -3.26584756e-001 1.17577508e-001 -4.89532948e-002 -3.12461108e-001
      -6.86460435e-002 -5.72442375e-002 -7.33546913e-002
      -1.53650627e-001 -3.16249020e-002 -1.30417138e-001 7.48963356e-002
      -9.95876193e-002 -2.92408288e-001 -6.58813268e-002
      -2.26121306e-001 -1.52564377e-001 4.77813147e-002 -1.73810065e-001
      -1.77867725e-001 -1.22068398e-001 2.33422384e-001 2.30400428e-001
      2.84086913e-001 -2.15865776e-001 8.60656574e-002 1.54008731e-001
      2.61297703e-001 2.04722509e-002 -4.97059561e-002 1.65254146e-001
      1.80265263e-001 1.91039443e-001 -1.20244920e-001 -2.29042284e-002
      1.17191754e-001 1.20971031e-001 8.52730051e-002 -7.56920055e-002
      -2.67213918e-002 -1.51421249e-001 -1.76063180e-002
      -4.48976070e-001 1.70181673e-002 -1.41052529e-001 -1.70037281e-002
      6.58529326e-002 -2.91321605e-001 -1.40977636e-001 -5.95394224e-002
      -2.04250701e-002 -3.44900131e-001 -8.26205537e-002
      -6.08789772e-002 -3.99266928e-002 -1.63639218e-001 1.72895435e-002
      1.80918410e-001 2.07890514e-002 2.97232065e-002 -1.67510554e-001
      6.95859417e-002 1.83382004e-001 -1.77898444e-002 -1.99262481e-002
      2.02483553e-002 -4.52539697e-002 -8.00274238e-002 -5.94436340e-002
      -2.55610406e-001 1.23736434e-001 2.23355055e-001 -7.40657672e-002
      -3.52658667e-002 -2.09983930e-001 -2.26698861e-001
      -1.13069750e-001 -1.19772084e-001 -2.80015111e-001
      -1.02384046e-001 1.93634350e-002 -8.03507492e-002 -1.90141037e-001
      -1.99278072e-001 -9.04131085e-002 6.30532159e-003 -4.79082577e-002
      -1.66983336e-001 -1.74580410e-001 1.40531406e-001 -2.25051180e-001
      -8.22709128e-002 -1.33937210e-001 -8.33589956e-002 5.29747196e-002
      -7.04157278e-002 -2.97452986e-001 9.40843821e-002 1.30153418e-001
      -9.99531895e-002 -1.32968307e-001 -1.36340186e-001 7.27364942e-002
      2.45453760e-001 1.48487166e-001 -1.82466641e-001 1.60146758e-001
      1.75271094e-001 2.96535920e-002 -2.22051904e-001 -1.17767371e-001
      -1.09068826e-001 -6.31916523e-002 2.10268851e-002 -2.18176827e-001
      -1.06832385e-001 -6.57824650e-002 -1.97962537e-001
      -6.87855855e-002 -5.58747072e-003 4.23938371e-002 7.54820332e-002
      1.15903057e-001 4.61092517e-002 2.24632621e-002 2.48233825e-001
      3.47807109e-002 1.30746916e-001 -1.46724060e-001 3.30850422e-001
      3.40606451e-001 7.26319700e-002 -4.64763969e-001 -3.41998130e-001
      -2.19341859e-001 -2.43758142e-001 -2.88152188e-001 1.89980820e-001
      3.34598750e-001 4.14925992e-001 3.69822830e-001 4.95031625e-002
      -1.42676875e-001 -8.60216767e-002 3.39152478e-002 2.31764704e-001
      -2.81193167e-001 -1.27848983e-001 -2.55041644e-002
      -3.04359272e-002 -1.69251099e-001 -3.55463982e-001
      -2.09121574e-002 -2.21630841e-001 -1.47012979e-001
      -4.29656319e-002 -1.14783615e-001 -8.54045991e-003 1.12698577e-001
      -2.70955563e-001 -1.74088076e-001 -1.67525575e-001
      -7.00205564e-002 -6.03622049e-002 5.18718176e-002 2.59852074e-002
      -1.89885721e-001 -2.47145165e-003 2.45595485e-001 2.50562757e-001
      1.91031158e-001 1.00455031e-001 -6.49450794e-002 -2.04356462e-001
      -1.73185125e-001 -1.62829936e-001 -1.57971412e-001 2.30984464e-002
      -1.29137165e-003 -2.09963564e-002 4.25823368e-002 -4.61026765e-002
      4.76384014e-002 3.38990092e-001 -9.62045789e-003 -8.50028768e-002
      -6.89026015e-003 -6.90922216e-002 -7.22201988e-002 3.77211571e-002
      -1.61355838e-001 -1.82012588e-001 -2.66079962e-001
      -1.30522534e-001 -2.53240675e-001 -6.99092597e-002
      -1.45080641e-001 -1.98776662e-001 -1.70256436e-001
      -2.50274450e-001 -6.39997646e-002 1.19732663e-001 1.62159894e-002
      -8.67935270e-002 2.21185774e-001 1.06539957e-001 2.80348938e-002
      1.22215241e-001 2.28674352e-001 -2.46020198e-001 1.66096270e-001
      -6.21573068e-002 -2.08428621e-001 -5.70673160e-002
      -1.36304274e-001 4.98545244e-002 -1.30302953e-002 -3.00220251e-001
      -2.04964504e-001 -5.90069033e-002 9.93382111e-002 1.98990852e-001
      1.42344788e-001 1.45706348e-003 -1.29944503e-001 1.93541273e-001
      9.18409005e-002 -3.10293525e-001 -1.08126692e-001 1.56192342e-002
      -1.52530849e-001 -1.50913686e-001 -2.37156719e-001
      -5.89420311e-002 -1.38293862e-001 -1.45865887e-001 2.12127700e-001
      1.11340068e-001 2.27599237e-002 -1.52137399e-001 2.13095378e-002
      1.42109636e-002 3.05952579e-002 1.64733138e-002 2.24677436e-002
      7.21598119e-002 -1.82202682e-002 5.45139536e-002 1.60716057e-001
      6.59048334e-002 1.42441779e-001 2.29706001e-002 -1.17428504e-001
      1.19062111e-001 1.14176869e-001 2.68636029e-002 -6.94575533e-002
      -1.54556826e-001 -2.45451480e-001 -8.47397670e-002
      -2.37775706e-002 -4.05023172e-002 -1.39028862e-001
      -3.52684557e-002 -2.64487173e-002 -7.79407993e-002 5.51040517e-003
      -2.44992629e-001 1.44802943e-001 -1.18384771e-001 -6.26143515e-002
      -1.21079914e-001 5.05835600e-002 -7.11483955e-002 -1.53269082e-001
      5.74882440e-002 -1.46626458e-001 1.40725495e-002 -8.86226296e-002
      -8.46358836e-002 1.04341850e-001 -3.00299644e-001 -3.53068113e-002
      -5.92352897e-002 -8.64859894e-002 2.03276016e-002 -1.74329102e-001
      1.17840432e-002 -2.05764517e-001 2.00116006e-003 7.34922364e-002
      -4.49325666e-002 -1.62146673e-001 -1.08353518e-001 9.68888551e-002
      1.35917157e-001 -1.65083766e-001 -1.25527248e-001 -7.33246654e-002
      -1.17118701e-001 -8.55234340e-002 -3.38325687e-002
      -1.33141533e-001 1.90314755e-001 3.43082175e-002 -1.43931434e-002
      -1.55581310e-001 -5.12304762e-003 -2.55146682e-001
      -6.19633123e-002 7.08014239e-003 -1.88591555e-001 2.23053191e-002
      -1.93685919e-001 -1.54618993e-001 -1.14846937e-001
      -8.84791389e-002 6.53518140e-002 -2.14045495e-002 2.72557922e-002
      3.55909355e-002 1.48207635e-001 -1.04756430e-001 2.90330988e-003
      2.65370067e-002 7.78341591e-002 -1.86405689e-001 -1.04590572e-001
      -7.81031102e-002 -8.27468559e-002 1.47316582e-003 -6.22825325e-002
      -3.23637247e-001 -1.08319208e-001 -2.84179866e-001
      -7.00156903e-003 -1.58587947e-001 -2.15070900e-002
      -6.53830320e-002 1.12373434e-001 -1.82531402e-001 -1.06740007e-002
      -5.94583564e-002 -2.47879010e-002 3.14914784e-003 -1.20179236e-001
      -8.15959349e-002 5.10050058e-002 6.26855390e-003 -3.30355525e-001
      -1.32044852e-001 -2.13478789e-001 3.94660756e-002 -5.28497919e-002
      2.67373379e-002 -4.53240098e-003 -3.97577360e-002 6.16515316e-002
      -1.07139483e-001 1.38351202e-001 -9.16664004e-002 6.40981868e-002
      -1.25806391e-001 -1.95964709e-001 -1.17444634e-001
      -1.69084340e-001 -1.48987681e-001 -2.60447919e-001
      -1.34388104e-001 -2.04390541e-001 9.91034806e-002 -7.71715865e-002
      6.45084726e-003 3.50103192e-002 4.75773402e-002 -6.41060853e-003
      -1.53000355e-001 1.19247891e-001 1.87875822e-001 3.31396013e-002
      -1.91936240e-001 -9.38864574e-002 -7.81147182e-002
      -1.11549735e-001 -1.34083062e-001 5.24328798e-002 1.46790385e-001
      -3.96579280e-002 -5.72506562e-002 -4.01471071e-002 9.06670913e-002
      -1.51152117e-002 1.17422611e-001 -3.30931544e-002 4.35883086e-003
      -1.59461752e-001 -1.52984932e-001 -1.79419726e-001
      -2.61669576e-001 -8.15366656e-002 -2.70590186e-001
      -1.58667088e-001 -1.54836506e-001 -2.66350389e-001 6.16812408e-002
      -1.39172096e-002 -1.60003290e-001 -1.03405066e-001
      -2.33130567e-002 -8.88099596e-002 7.17917755e-002 -1.67517349e-001
      -1.78619727e-001 -2.83194203e-002 -2.06228510e-001
      -5.34425005e-002 1.94288760e-001 4.71320182e-001 1.81666210e-001
      1.15215197e-001 -1.61844373e-001 -5.67894280e-002 -2.66927220e-002
      1.85403675e-001 -1.22736711e-002 1.91995531e-001 2.36654595e-001
      -3.61959301e-002 1.32633790e-001 -1.48869365e-001 -2.61574447e-001
      -8.69171470e-002 3.30237746e-002 5.22885025e-002 -8.19912180e-002
      2.03445479e-001 9.90869701e-002 6.92726858e-003 1.41750565e-002
      -2.92370059e-002 2.00230539e-001 2.57132173e-001 2.02720150e-001
      5.38344570e-002 -2.84342878e-002 -1.15152441e-001 -1.68551475e-001
      -1.56270549e-001 -3.03508878e-001 -1.60384744e-001
      -7.97871426e-002 -9.74061638e-002 2.93771122e-002 4.60310690e-002
      1.07039355e-001 2.06282273e-001 2.19788086e-002 -1.29107267e-001
      -7.74969235e-002 9.98819992e-002 2.54515320e-001 -2.19177842e-001
      -2.40676627e-001 -8.46044794e-002 2.31998004e-002 1.81542393e-002
      -5.22944815e-002 -3.27981520e-003 -6.88296324e-003 7.68271014e-002
      2.89463880e-003 4.51008603e-002 2.13173013e-002 1.96720108e-001
      5.67255244e-002 -1.34415343e-001 -4.37900424e-002 -6.20394759e-002
      7.49727264e-002 -3.73205483e-001 -4.38047767e-001 -3.14352453e-001
      -2.15816259e-001 -4.37552221e-002 -5.09958267e-002 6.61233291e-002
      -1.79654762e-001 -1.43966526e-001 -1.47991162e-002
      -1.65959239e-001 -1.40300274e-001 6.46590814e-002 -3.10309902e-002
      8.86631235e-002 1.78247392e-002 -1.12614958e-002 -1.14055425e-001
      -4.09328984e-003 -5.94672337e-002 -1.01513050e-001
      -1.52537599e-001 -1.47398174e-001 9.58660245e-003 3.90325449e-002
      -5.66571252e-003 -1.23015441e-001 -2.61258721e-001
      -1.29257143e-001 -5.95348887e-002 -1.64471641e-001 1.96477510e-002
      -3.54502499e-002 -2.66855806e-002 -1.66072786e-001
      -1.59157291e-001 -2.05973774e-001 -2.08350927e-001
      -8.17680657e-002 -4.36122447e-001 -1.25281855e-001
      -2.18026340e-001 -1.09508380e-001 -1.20909184e-001
      -1.99574441e-001 -1.29852027e-001 1.24250827e-002 -1.93300650e-001
      -1.87822983e-001 -1.63289189e-001 -6.04745485e-002
      -1.18240014e-001 -1.38960570e-001 -4.80236635e-002
      -9.99816880e-002 1.87141106e-001 2.36836113e-002 -6.91061094e-002
      -3.62920053e-002 -1.30606100e-001 -1.22081280e-001
      -1.11477360e-001 -1.36061117e-001 -1.25815332e-001 1.36878586e-003
      -1.39370725e-001 -1.92732006e-001 -7.65254721e-002
      -3.36760461e-001 -5.35160899e-002 -1.22200072e-001
      -1.34926572e-001 -2.04561219e-001 2.93970853e-002 2.24576890e-002
      -6.50492087e-002 1.47462208e-002 -2.19019637e-001 -5.07311262e-002
      -2.15305015e-003 -8.79479423e-002 -2.88726995e-003 1.14964418e-001
      1.44476637e-001 7.02479780e-002 -6.16330244e-002 -1.07855685e-001
      -2.44983613e-001 -1.91858247e-001 -1.35382399e-001 2.60431524e-002
      -1.30267799e-001 -6.62156418e-002 -1.23111993e-001
      -1.94678485e-001 -1.05190471e-001 -4.30436507e-002
      -1.19253255e-001 -3.17938812e-002 -6.75073490e-002 3.61247808e-002
      1.99923426e-001 4.21361774e-002 7.62236267e-002 -3.06458659e-002
      -1.45204708e-001 -1.31465390e-001 7.93137401e-002 1.81725528e-002
      4.28152084e-003 -7.50928223e-002 -2.23680630e-001 -1.23585850e-001
      -1.85019955e-001 -6.80613741e-002 -1.06055900e-001 4.74168286e-002
      -6.55796751e-002 -1.00142233e-001 -6.62091225e-002
      -1.66256100e-001 -5.83890006e-002 -2.51517426e-002 2.29906775e-002
      -1.53277010e-001 -7.20405544e-004 -4.66899276e-002 2.38465983e-002
      -8.88511166e-003 3.59734893e-002 -4.40448448e-002 -1.34333953e-001
      1.05546080e-001 1.50582239e-001 -1.00120502e-002 -1.83709055e-001
      -7.63980374e-002 4.85336855e-002 -9.29061249e-002 -1.17017798e-001
      -1.88252315e-001 -1.57080531e-001 -1.85492545e-001
      -1.40542090e-001 -1.02696262e-001 -6.84784576e-002 2.58879304e-001
      4.70289625e-002 3.04087624e-002 3.21898162e-002 -4.52327877e-002
      -1.17382612e-002 -1.32584825e-001 -1.60672739e-001
      -8.43781605e-002 -1.50376469e-001 -1.93104148e-001
      -3.33283842e-001 -3.13190192e-001 2.99494378e-002 4.77578156e-002
      -3.12061589e-002 4.89699617e-002 3.87317315e-002 8.29296373e-003
      6.71353415e-002 -1.56962663e-001 -1.71165839e-001 1.85112998e-001
      1.70455217e-001 1.53169677e-001 -3.44628841e-001 -1.05396830e-001
      4.28841151e-002 -3.24987173e-002 -2.28487879e-001 -7.64474720e-002
      -1.51752457e-001 -6.18042462e-002 -2.46347308e-001 1.27699226e-001
      2.88129542e-002 3.13448086e-002 -3.35826102e-004 -1.39011204e-001
      -6.17991276e-002 5.85932992e-002 3.96764539e-002 6.86656758e-002
      -9.08371955e-002 -1.07484553e-002 5.01685701e-002 -5.88478893e-002
      7.22764283e-002 5.46769463e-002 1.26837119e-001 1.54353216e-001
      1.69292986e-001 -1.50550529e-001 -1.30585894e-001 6.62229210e-002
      -2.22408220e-001 2.11905334e-002 -1.91016346e-001 -2.55538762e-001
      -1.00500569e-001 -5.20264842e-002 -1.97885826e-001
      -1.96053192e-001 -1.55175909e-001 -2.06180260e-001
      -6.22240603e-002 -3.53218615e-002 4.97638769e-002 1.94652870e-001
      2.10963994e-001 -2.02161029e-001 -2.37030119e-001 -2.36888513e-001
      -1.75435573e-001 -1.26231566e-001 -3.28920126e-001
      -4.79822069e-001 -2.58395016e-001 -9.42204520e-002 8.86548609e-002
      5.64280786e-002 7.33017847e-002 6.59805834e-002 -2.97964569e-002
      -7.64232948e-002 -8.07417035e-002 -7.77217299e-002 9.30130761e-003
      -2.53356457e-001 -5.99691011e-002 -7.18426630e-002
      -1.86468884e-001 7.96211287e-002 4.78390530e-002 -4.59707156e-002
      -1.98902376e-003 -1.01298586e-001 -3.92762311e-002 3.64321247e-002
      3.67396064e-002 7.60645494e-002 2.19405144e-002 -1.93801492e-001
      -1.53444886e-001 -1.55907825e-001 -5.37091605e-002
      -1.57503575e-001 -1.06127143e-001 -2.36056015e-001
      -3.07446569e-001 -2.13524923e-001 -2.35535875e-002 2.68659964e-002
      -1.68343797e-001 -2.00272456e-001 -1.61423370e-001 9.80116203e-002
      -1.13857128e-001 -2.19144419e-001 -6.59031272e-002
      -4.28016931e-002 -1.74047187e-001 -1.04781039e-001 5.80113791e-002
      -4.87029776e-002 8.72612000e-003 -1.61127388e-001 -3.25652748e-001
      -1.09289184e-001 -8.59654844e-002 -8.03075060e-002
      -1.04520783e-001 4.33847345e-002 -1.95447728e-001 -5.68122528e-002
      -1.07321046e-001 -2.60672331e-001 -8.75741616e-002
      -1.91558808e-001 -1.21553771e-001 -1.34639502e-001
      -7.39946067e-002 -6.78903386e-002 -1.71073377e-001
      -1.00627147e-001 -1.68104753e-001 -1.49370193e-001 3.86997685e-002
      4.59728800e-002 1.00969404e-001 7.53999054e-002 -2.75435120e-001
      -5.56221679e-002 -2.08361149e-001 -1.77877933e-001
      -2.76148673e-002 -2.15829641e-001 -4.97987345e-002
      -1.01939604e-001 -3.11330855e-001 -2.29880840e-001
      -4.81752865e-002 -6.97325766e-002 -6.80295601e-002 5.05886972e-002
      -2.71229327e-001 -8.61897618e-002 4.46697958e-002 -2.00271860e-001
      -1.91266045e-001 -2.28009447e-002 3.52410483e-003 -2.45019212e-001
      -1.32265270e-001 -3.45621295e-002 1.16231926e-001 8.55167061e-002
      -2.35637784e-001 -8.73784069e-003 7.10983500e-002 6.12791777e-002
      -9.26340148e-002 4.68527600e-002 -2.65857786e-001 1.37331977e-001
      2.22288236e-001 -1.15158215e-001 -1.39679670e-001 -1.97697446e-001
      -1.46178246e-001 -1.84154674e-001 6.28160760e-002 -5.03687896e-002
      -1.52841911e-001 -2.71686446e-002 -1.02624439e-001
      -3.34456787e-002 -1.99715737e-002 -1.46412253e-001
      -2.03819230e-001 -1.84618950e-001 -9.14876536e-002
      -1.10245496e-001 -7.97430798e-003 -1.25449985e-001 1.72111094e-002
      1.29970359e-002 -1.86085939e-001 -2.38065988e-001 -8.23676884e-002
      -1.87863201e-001 -6.70579225e-002 6.38181344e-002 -1.14402175e-001
      -1.11663014e-001 1.08350798e-001 -1.33508518e-001 -1.37693614e-001
      -1.03804126e-001 -7.07582459e-002 -1.38174161e-001 5.41808223e-003
      -6.78848252e-002 -1.55907154e-001 -1.29276901e-001
      -8.66458640e-002 -6.79197013e-002 -3.36197717e-003
      -1.10142440e-001 -1.32542819e-001 5.54945832e-003 -1.73725754e-001
      -1.52271748e-001 -2.36400530e-001 -3.97294806e-003 3.14731039e-002
      2.47095898e-001 -2.59384904e-002 -9.35331658e-002 4.06760648e-002
      -6.19565472e-002 -1.98608324e-001 -5.97419888e-002
      -1.18343070e-001 -5.14730662e-002 3.20083126e-002 -3.93716954e-002
      -4.21347655e-002 1.53478645e-002 -9.90482867e-002 -1.29110277e-001
      -5.63174635e-002 -6.24096841e-002 -8.60606283e-002 1.35767624e-001
      -1.37761652e-001 -9.43285003e-002 6.61304146e-002 3.52546982e-002
      -1.94711581e-001 -3.90118957e-001 -1.29159033e-001 6.33886829e-002
      -1.92809045e-001 -3.78212966e-002 -2.13518143e-001
      -2.17919871e-001 -2.16823909e-002 1.67592615e-001 -4.51168753e-002
      1.22516137e-002 1.58970073e-001 5.55075854e-002 1.14559688e-001
      1.11189492e-001 3.81725430e-002 4.96924371e-002 -1.02911361e-001
      -1.37574822e-001 -9.76651385e-002 -1.76252306e-001
      -2.60892481e-001 -1.68414310e-001 -2.56340414e-001
      -1.61073193e-001 7.98198581e-002 9.48073417e-002 2.61821091e-001
      2.93634832e-001 -5.70793971e-002 -2.74251793e-002 -6.72124103e-002
      -1.66023567e-001 -9.36292112e-002 -6.66335672e-002 1.57993823e-001
      9.84538347e-002 -8.15578774e-002 -1.29092172e-001 3.94243971e-002
      2.38046553e-002 6.00753762e-002 4.25951518e-002 3.45771849e-001
      -1.61411539e-001 -1.41945109e-001 -1.01401903e-001
      -1.21416800e-001 7.90060088e-002 -1.04837559e-001 -1.21738791e-001
      -1.05327085e-001 -1.09050907e-001 1.33018255e-001 -1.68752477e-001
      -1.23193478e-002 2.93060229e-003 6.86631501e-002 -3.40125784e-002
      9.14898142e-002 6.57668784e-002 1.59682259e-001 -9.13127437e-002
      -2.34019220e-001 -1.11209922e-001 -2.06816196e-001
      -5.17930202e-002 -1.55264795e-001 8.72859880e-002 3.05295084e-002
      -1.03629313e-001 -3.76139022e-002 8.04235935e-002 1.10156782e-001
      7.16226026e-002 2.02079769e-002 -7.65582323e-002 -1.21167995e-001
      -4.21156362e-002 -2.34908480e-002 -1.09863184e-001 8.17258433e-002
      -1.53604925e-001 -2.58331507e-001 -1.70119584e-001
      -1.89847589e-001 -6.91185072e-002 -1.27771243e-001
      -3.17684710e-001 -4.61961702e-003 1.48208603e-001 5.61572760e-002
      -4.02979255e-002 -9.37783346e-003 -6.58002868e-002 1.38521820e-001
      1.53008759e-001 -1.63715798e-002 1.57232106e-001 2.11535573e-001
      2.22261436e-002 -7.71706775e-002 -1.86068565e-001 -3.46363299e-002
      1.94308758e-002 -4.23100181e-002 -1.22223020e-001 -1.23412371e-001
      -2.20877305e-002 -1.46423995e-001 -3.73054534e-001
      -1.41749293e-001 -1.09905228e-001 -2.01044455e-001
      -1.63793236e-001 -1.98021218e-001 -2.09551856e-001
      -1.09503627e-001 -1.12515561e-001 -1.47897944e-001
      -6.70667440e-002 -3.65699120e-002 -1.18972659e-001 1.42545775e-002
      -9.29537322e-003 -8.01922902e-002 6.80116341e-002 5.81333041e-002
      -7.08937421e-002 -5.66462129e-002 2.35835873e-002 7.67104253e-002
      -2.99586356e-002 -9.17622000e-002 -1.05196185e-001 4.04526219e-002
      2.05318823e-001 2.09055878e-002 1.54950440e-001 6.17783517e-002
      1.62218690e-001 1.47559106e-001 -5.14225513e-002 -1.45560652e-001
      2.88258698e-002 3.99540551e-002 -2.00807661e-001 -6.46251068e-002
      -1.54004037e-001 -9.41311121e-002 -4.82087769e-002
      -1.76116988e-001 -9.51879397e-002 7.28738382e-002 1.11592554e-001
      -1.38676122e-001 1.01535641e-001 -3.13260615e-001 -3.20027284e-002
      1.39116153e-001 -1.73918366e-001 -6.21496215e-002 -8.68193153e-003
      1.54367626e-001 -1.58898264e-001 1.82583295e-002 -8.24912637e-002
      -7.00035132e-003 -6.57878742e-002 4.78875674e-002 -1.60961807e-001
      -2.02147201e-001 -5.08305617e-002 -2.52412736e-001 1.90544650e-002
      -1.84254393e-001 -1.00316495e-001 3.38513404e-002 -7.05300554e-005
      -2.67565161e-001 -1.15390986e-001 -2.20624477e-001
      -2.45459512e-001 1.15367189e-001 -2.10813224e-001 -2.01995056e-002
      5.35622984e-002 -1.55668080e-001 -1.14242263e-001 -8.69061798e-003
      -1.46212772e-001 -1.97435915e-001 3.01818475e-002 3.53309186e-003
      -1.36506751e-001 -1.18816219e-001 1.79325864e-002 -1.13110907e-001
      -1.31314620e-001 -1.54957041e-001 -2.88062692e-001
      -1.89999770e-002 -5.31939566e-002 -8.52792114e-002
      -1.56703517e-002 -7.17854276e-002 1.97662842e-002 7.50051141e-002
      -4.52796072e-002 -2.14787379e-001 -9.88380685e-002
      -6.93154484e-002 3.35748568e-002 2.12404085e-003 1.16079324e-003
      -9.27400291e-002 6.42488226e-002 -2.10240260e-001 -2.68625945e-001
      -5.97820655e-002 7.80662671e-002 -6.45021200e-002 7.99074173e-002
      -1.84864458e-002 -1.09365985e-001 5.76093905e-002 -1.05835281e-001
      -2.26024836e-001 1.56144127e-001 -1.38798552e-002 2.22789682e-002
      1.48633227e-001 3.96776609e-002 -2.67630517e-001 2.19084863e-002
      -5.57965823e-002 -1.70988783e-001 -6.79316297e-002
      -1.56242605e-002 4.49358858e-002 2.26600152e-002 -1.37299493e-001
      -2.35479847e-001 -7.76458830e-002 2.25271787e-002 -3.05902958e-002
      8.21396485e-002 2.53593400e-002 9.03966054e-002 2.68772300e-002
      -1.62642896e-001 -7.83958565e-003 -2.99465982e-003
      -9.03106108e-002 -3.62267256e-001 -1.12229154e-001
      -5.84195815e-002 -1.68756589e-001 -1.02044173e-001
      -3.90137807e-002 2.52376199e-001 2.27477685e-001 1.69422403e-001
      -2.02028424e-001 -1.85338691e-001 -2.65162382e-002
      -1.89913034e-001 -1.23999499e-001 6.34622350e-002 -9.70900282e-002
      -1.16159417e-001 3.72436196e-002 -2.03283742e-001 -1.01648211e-001
      -4.31124903e-002 -8.42116699e-002 -5.78576103e-002
      -1.32738635e-001 2.77584583e-001 1.33763149e-001 1.46518171e-001
      -1.67247847e-001 -1.92244705e-002 8.07669759e-002 1.18106000e-001
      -9.75136384e-002 1.03196219e-001 1.29651949e-001 -1.15313880e-001
      4.46606316e-002 1.11491166e-001 8.05131793e-002 -5.26189432e-002
      2.10711375e-001 -1.72259554e-001 -5.55783175e-002 -3.86088304e-002
      -1.06090277e-001 -1.54052749e-002 -7.77986124e-002
      -1.27694726e-001 -1.68287918e-001 1.14296295e-001 -8.31192285e-002
      -3.84711951e-001 1.14584714e-001 -7.79665783e-002 6.31506294e-002
      1.55552834e-001 1.55038178e-001 -6.98497146e-003 2.59242862e-001
      -8.31375457e-003 1.26793504e-001 -1.95436701e-002 7.34202145e-003
      2.92352028e-002 -7.53617138e-002 -1.22964747e-001 -5.49056716e-002
      2.85056531e-002 -7.62379318e-002 -1.87658191e-001 -3.45563963e-002
      -2.48439424e-002 4.68349755e-002 6.79863663e-003 4.78305332e-002
      -1.28532052e-001 3.72096300e-002 -2.26731941e-001 -2.36134961e-001
      5.60742952e-002 -1.41189173e-002 4.14407998e-002 1.23303216e-002
      5.72588630e-002 -3.40928808e-002 3.26951705e-002 -1.79480225e-001
      -2.10353971e-001 -9.59081352e-002 1.85234636e-001 3.09407376e-002
      3.69782783e-002 1.25756904e-001 8.92088190e-002 -8.61502532e-003
      -1.54543996e-001 -3.10113221e-001 1.30975097e-001 1.33691490e-001
      -2.35940833e-002 6.44577816e-002 -1.47867501e-002 9.84527990e-002
      4.18974496e-002 -4.54186313e-002 -1.22446388e-001 -2.00578883e-001
      1.97824705e-002 6.32014945e-002 6.07654788e-002 1.65360011e-002
      -2.77475752e-002 1.49783745e-001 -7.69934431e-002 1.24902297e-002
      -3.21626924e-002 1.14456965e-002 3.10203135e-002 4.24449258e-002
      -7.07005337e-002 -1.13077044e-001 4.42190878e-002 1.05224952e-001
      -2.96093486e-002 5.50423190e-002 1.42843068e-001 7.04808757e-002
      1.25965122e-002 -1.84636891e-001 -4.97596711e-002 1.66168958e-002
      -1.79136526e-002 -3.39022838e-003 6.15349226e-002 6.77507371e-002
      -8.17726403e-002 -9.81747136e-002 -1.03744656e-001
      -9.55520347e-002 -2.27690548e-001 -1.76919267e-001
      -6.08069636e-002 4.53101955e-002 -5.02859838e-002 -1.76510587e-001
      -2.51202807e-002 6.81769252e-002 -8.00554603e-002 -2.93002054e-002
      -3.03780884e-002 6.03601858e-002 3.78750935e-002 -2.97875796e-002
      -1.55403599e-001 -1.48590744e-001 8.22146460e-002 -2.15296417e-001
      -3.41639131e-001 -9.64749753e-002 1.31160498e-001 4.46025580e-002
      -1.53997138e-001 -2.67785579e-001 -1.41054139e-001 9.56296250e-002
      -4.64207344e-002 -4.70042275e-003 -6.96684271e-002
      -5.54730147e-002 1.51879668e-001 -1.89888820e-001 2.62841750e-002
      7.20977411e-002 8.73252526e-002 -8.71848688e-002 -1.59292668e-001
      -9.14727896e-002 5.77751584e-002 -1.79196149e-001 -7.23391473e-002
      -1.31959260e-001 -1.65118486e-001 4.00388166e-002 -1.45654649e-001
      -2.51027226e-001 -5.71734598e-003 -2.41649300e-002
      -7.23064691e-002 1.23456538e-001 4.77810390e-002 -1.68494359e-001
      -7.36483112e-002 -1.84572488e-001 2.04975363e-002 2.51479357e-001
      -7.31027797e-002 7.34275356e-002 -2.52998441e-001 -1.45222083e-001
      -7.06273541e-002 -1.24849044e-002 1.52761247e-002 -2.45655194e-001
      -2.67018622e-004 -1.70655802e-001 -1.05986767e-001 1.70936182e-001
      9.05380473e-002 -2.34587248e-002 -4.19976898e-002 -2.80847680e-002
      1.65471882e-002 2.30577171e-001 -2.88697720e-001 -1.39380187e-001
      1.80694923e-001 -9.59835052e-002 -1.67351425e-001 -2.31425837e-001
      -2.92617202e-001 3.47974263e-002 5.04822657e-003 -2.17054427e-001
      -1.18634012e-002 1.35476008e-001 -5.34645189e-003 -5.54371662e-002
      5.47719039e-002 -1.14613920e-001 2.15976965e-002 6.44491389e-002
      -5.04257455e-002 -3.08445901e-001 1.40416533e-001 1.68890968e-001
      9.54973251e-002 -1.01681046e-001 -1.75376311e-001 1.04901105e-001
      4.68993075e-002 -2.60570645e-001 -1.38895556e-001 -7.88042024e-002
      -2.45991834e-002 2.53711510e-002 1.50976777e-001 2.67472751e-002
      8.37957561e-002 1.01366438e-001 -1.86968356e-001 8.29844698e-002
      7.67861828e-002 -5.71543202e-002 -1.98899269e-001 -1.40931576e-001
      -6.11840785e-002 -4.06726338e-002 -2.71078777e-002 8.28978326e-003
      3.22729468e-001 1.20437957e-001 1.71822123e-002 -7.93573707e-002
      -4.61230474e-003 -1.12753257e-001 -1.38839006e-001
      -1.30059078e-001 1.14680775e-001 1.28472045e-001 -8.47976878e-002
      -1.26490355e-001 -8.00479800e-002 5.78136928e-003 4.39008474e-002
      -1.50280595e-001 2.61050239e-002 -3.12252417e-002 1.40002549e-001
      7.12383762e-002 -8.76839235e-002 2.00938154e-002 1.38034657e-001
      -1.16388403e-001 -1.84399877e-002 2.99523622e-002 1.02945581e-001
      -9.41495672e-002 -1.63329050e-001 -4.53305021e-002
      -6.87342435e-002 1.72405869e-001 1.07728407e-001 9.21081528e-002
      -2.49153655e-002 7.71480724e-002 -2.69444555e-001 -1.47045642e-001
      -1.46546081e-001 -2.20018759e-001 -6.83061033e-002
      -2.81896770e-001 4.64165322e-002 -9.35905725e-002 -2.21807569e-001
      1.14628926e-001 -9.05370563e-002 7.62317404e-002 9.97965634e-002
      5.59158146e-001 -5.66811897e-002 4.40572156e-003 1.23338684e-001
      3.02572310e-001 -2.35695586e-001 -3.74087021e-002 -4.94653247e-002
      2.23561004e-002 8.67607594e-002 -1.28700316e-001 -7.86720291e-002
      -1.68807685e-001 -1.62193313e-001 -5.80950342e-002 1.04359344e-001
      -7.11695701e-002 -9.71263647e-002 2.96552759e-002 -2.67719105e-002
      4.88892384e-002 1.60668325e-002 -1.70103878e-001 1.72297105e-001
      7.86829963e-002 -1.26201406e-001 -8.60803947e-002 -7.69157410e-002
      9.77137126e-003 -1.59184441e-001 4.26073335e-002 -6.02087043e-002
      -1.06889777e-001 1.02711640e-001 9.11078826e-002 6.74602538e-002
      1.34342283e-001 -8.28896537e-002 -1.29631147e-001 7.43776113e-002
      -1.45353422e-001 -2.90058069e-002 6.35534823e-002 -1.41986206e-001
      -1.03668049e-001 1.31045738e-002 -1.20727211e-001 -8.27422962e-002
      1.16029359e-001 -1.09677553e-001 1.59533337e-001 -2.04330520e-003
      -1.47266969e-001 -1.44242167e-001 -1.38957396e-001
      -1.44604728e-001 -1.36919543e-001 -1.34166732e-001
      -1.05429977e-001 -4.26171012e-002 -1.26112044e-001
      -1.52463764e-001 -1.63472399e-001 -3.80914956e-002
      -1.10448137e-001 -9.71449986e-002 -1.81916848e-001
      -1.47250742e-001 5.71844466e-002 4.84615006e-003 -1.32227346e-001
      -2.16554418e-001 -5.66011369e-002 -3.02762557e-002 6.63772449e-002
      8.54605883e-002 4.91720326e-002 -9.76920277e-002 7.49287242e-003
      -7.25021884e-002 -1.40124317e-002 1.11652255e-001 1.26521802e-002
      2.31127709e-001 -1.65722407e-002 -4.20898534e-002 -2.11649194e-001
      -2.34442666e-001 -2.02800274e-001 -1.41777201e-002 4.38625775e-002
      1.17903657e-001 2.83777621e-003 -1.21279940e-001 -1.98770374e-001
      -1.02143936e-001 -1.96169421e-001 -4.32616025e-002
      -3.02807186e-002 -3.30134928e-002 -8.35289247e-003
      -5.12715168e-002 -6.80333674e-002 -2.23888427e-001
      -3.34202237e-002 9.15123150e-003 1.29596829e-001 1.41155690e-001
      1.32106647e-001 1.71920910e-001 1.80449858e-001 1.20635614e-001
      -6.96076080e-003 -1.11767478e-001 2.29512393e-001 3.58324312e-002
      6.41473755e-002 -7.55207911e-002 1.57044649e-001 1.46393433e-001
      1.08177900e-001 -3.03204805e-001 5.59016080e-005 2.01427154e-002
      -5.05112670e-002 -6.12583086e-002 -1.44870996e-001
      -2.87512317e-002 -7.98030049e-002 9.25410762e-002 -4.44468521e-002
      -9.08379182e-002 1.03878058e-001 4.79960488e-003 -3.36805806e-002
      5.25638796e-002 1.09750099e-001 -2.93995393e-003 3.40799034e-001
      -2.38475278e-002 -2.28077948e-001 7.78639987e-002 2.03602403e-001
      -1.00168124e-001 -4.26620208e-002 3.31389281e-004 2.43300423e-002
      3.12300503e-001 -3.13476115e-001 -2.37929821e-001 -5.78104286e-004
      6.73653260e-002 -2.45940939e-001 -1.30622402e-001 -3.66394892e-002
      -4.45614718e-002 2.52453685e-001 -2.17505932e-001 -2.58602262e-001
      7.36656459e-003 -8.47883895e-003 1.33871660e-001 1.71903253e-001
      7.13936239e-003 1.40274465e-001 1.41590372e-001 -1.15600536e-002
      -7.48804212e-002 -2.18007751e-002 -7.61859268e-002 2.88530886e-001
      1.43804222e-001 -7.09391832e-002 5.15232831e-002 1.22456044e-001
      -1.41364157e-001 -1.09965310e-001 2.00473722e-002 -1.64886215e-003
      -2.75501907e-002 -5.34867160e-002 -2.03545019e-001
      -1.06994420e-001 1.75139517e-001 -1.25962675e-001 4.62062657e-002
      1.67913679e-002 -1.45847559e-001 -9.16908011e-002 -1.63870662e-001
      -2.90733099e-001 -1.12965047e-001 -4.66821603e-002
      -8.07071701e-002 -3.76228429e-002 -6.05978742e-002
      -1.92891270e-001 5.11945002e-002 -1.17699012e-001 -1.81683853e-001
      -2.00408384e-001 2.66189016e-002 -2.25317284e-001 -3.64358909e-002
      -6.23198971e-002 -1.41797125e-001 -1.99062061e-002 1.78358302e-001
      2.16415703e-001 1.41863469e-002 4.87445965e-002 -3.77619378e-002
      -6.79949299e-002 5.75935235e-003 -1.97970912e-001 -2.52526075e-001
      -2.93314636e-001 -3.57621372e-001 -1.44240975e-001
      -4.53900807e-002 -5.33358864e-002 4.08232212e-002 -3.13148722e-002
      -1.72725439e-001 -1.56413034e-001 2.40381524e-001 1.56335726e-001
      -4.35671024e-002 9.51745734e-002 1.65665567e-001</_>
    <_>
      1.57169774e-001 6.54462725e-002 2.45563723e-002 8.23851377e-002
      -9.82420966e-002 1.18647039e-001 7.64242262e-002 1.31542012e-001
      1.52606983e-002 -8.89358390e-003 -7.82355294e-002 4.99209948e-003
      -2.69514229e-003 -1.44538879e-001 -3.11267134e-002
      -4.09133211e-002 -5.62016517e-002 -2.36272842e-001 1.27008170e-001
      -4.21952922e-003 -4.03484665e-002 6.27882360e-003 -2.32924536e-001
      -8.88433978e-002 -6.83667138e-002 -9.17136949e-003
      -5.35275117e-002 3.07323225e-002 6.14927970e-002 -3.43515426e-002
      -1.00065976e-001 -1.86189860e-001 3.05942004e-003 3.79636586e-002
      -4.05177772e-002 -1.09172717e-001 -5.24897985e-002
      -6.27920479e-002 5.14177270e-002 8.31734836e-002 -2.08902046e-001
      3.30964178e-002 -1.43055961e-001 -1.60838038e-001 -2.17677400e-001
      -1.46194667e-001 -1.11957975e-002 9.21972562e-003 3.04993503e-002
      -1.42939268e-002 1.92043756e-003 3.69227082e-002 -2.78974771e-002
      -1.16076462e-001 -3.96343321e-002 8.25083554e-002 8.04255530e-002
      -4.97560836e-002 -7.97251910e-002 6.88823014e-002 -5.44709861e-002
      -1.10417875e-002 -3.94933894e-002 -1.28529221e-001
      -4.55136821e-002 7.32345060e-002 5.31885354e-003 -1.34450972e-001
      1.61048360e-002 -7.25233927e-002 -3.16049829e-002 -1.46989077e-001
      -1.25613391e-001 6.77857399e-002 -6.17723353e-003 3.54369171e-002
      -7.25216493e-002 5.05978130e-002 1.61738187e-001 1.23362675e-001
      -9.86227542e-002 -6.65756539e-002 2.24725723e-001 1.78814232e-002
      3.82109284e-002 -1.65434107e-001 -6.25208914e-002 -1.60224941e-002
      8.23056027e-002 -8.78091082e-002 -1.39482617e-001 -1.16800386e-002
      4.22869995e-002 5.19937947e-002 -1.30002275e-002 -8.00417736e-002
      -4.33968902e-002 7.55893812e-002 -2.12209225e-002 -1.93094715e-001
      -5.57214990e-002 -1.82878166e-001 -1.42308949e-002
      -2.68711913e-002 -1.15027048e-001 -1.47623107e-001
      -1.24031335e-001 -1.09372519e-001 -2.75694132e-002 1.09853595e-001
      3.65073271e-002 1.06230304e-001 7.04307184e-002 4.50849161e-002
      6.88087046e-002 1.80456582e-002 -4.71499143e-003 -1.14372574e-001
      1.42916650e-001 -7.52399564e-002 3.76887731e-002 -3.27692851e-002
      -2.13234007e-001 -1.02084845e-001 -1.04314372e-001
      -2.32592717e-001 -5.22263534e-002 1.17670096e-001 -8.70616138e-002
      2.53832079e-002 4.45126556e-002 7.66869560e-002 -4.67387438e-002
      -6.35940880e-002 3.18763591e-002 -1.15781121e-001 -1.12410255e-001
      -2.14048117e-001 -1.24888480e-001 -1.26199320e-001
      -1.41676635e-001 -6.91071525e-002 -6.94771186e-002
      -3.00387293e-001 -9.39120054e-002 1.17179811e-001 -3.22101228e-002
      -8.21063370e-002 -4.36682738e-002 -2.06361800e-001
      -1.02594316e-001 -9.20246616e-002 -2.10413367e-001
      -1.36459947e-001 3.33264330e-003 -9.03238133e-002 -6.40744865e-002
      -1.84329320e-002 1.05141560e-002 -1.83911789e-002 -1.88707083e-001
      -2.49357074e-001 8.39246064e-002 -1.17822193e-001 -1.31110162e-001
      -1.55904517e-001 -6.21546619e-002 -1.95922367e-002
      -3.26682255e-002 3.86778340e-002 -5.05082682e-002 3.21277939e-002
      5.26128279e-004 1.49597272e-001 -7.89566636e-002 8.13670233e-002
      1.44317327e-002 1.19571134e-001 5.72130047e-002 6.85290992e-003
      -4.69949506e-002 2.74882745e-002 4.59064990e-002 -4.46258448e-002
      -2.52437234e-001 4.62907292e-002 -3.07684783e-002 -1.86733708e-001
      -1.18961655e-001 -1.05177000e-001 2.25024149e-002 4.53351885e-002
      -3.98143269e-002 -3.99299949e-001 7.68540353e-002 -7.54195750e-002
      -1.46478549e-001 -1.90840721e-001 -1.03587694e-002 4.19655070e-002
      1.80574596e-001 1.19415626e-001 -9.83446557e-003 7.99426511e-002
      3.90135380e-003 -3.79053019e-002 -8.72324035e-002 7.01460987e-002
      -5.42306826e-002 2.39639893e-001 1.84914753e-001 9.42381695e-002
      8.09074938e-002 -3.10456697e-002 -5.93520477e-002 -2.34505031e-002
      -2.34914035e-001 -1.35392874e-001 1.41455576e-001 1.68962646e-002
      -4.23354506e-001 7.18436316e-002 -1.23002127e-001 -1.88812897e-001
      -2.19999030e-001 5.85568361e-002 6.36792332e-002 1.73674464e-001
      2.25000575e-001 -3.32163990e-001 -1.14303371e-002 -8.55764672e-002
      -1.04458071e-001 8.25819746e-003 -6.49098828e-002 -1.08890109e-001
      1.34791121e-001 6.25405610e-002 -1.08482301e-001 -1.64005661e-003
      1.19755333e-002 2.49926746e-002 -1.20893441e-001 -3.51236798e-002
      -1.42563790e-001 1.01240821e-001 1.63249969e-001 -3.60161602e-001
      2.12285127e-002 1.51911639e-002 6.98723793e-002 9.38726868e-003
      5.74322566e-002 3.71727608e-002 -6.50063828e-002 -2.44040236e-001
      -1.75222903e-001 -1.81023881e-001 -1.22013599e-001
      -1.03280358e-001 -1.44595131e-001 -5.83085753e-002 2.63417382e-002
      -2.40689032e-002 -9.38531235e-002 -2.88008675e-002
      -3.65934111e-002 -7.38650709e-002 -9.61160734e-002
      -1.10548250e-001 -1.16976693e-001 1.16182975e-001 -4.05765884e-002
      -9.46290120e-002 -1.27972558e-001 -1.64293438e-001
      -1.75908029e-001 8.77515692e-003 -1.28725484e-001 -5.70069253e-002
      1.00962535e-001 9.32109952e-002 -8.27224031e-002 -5.12204915e-002
      -3.27063315e-002 -4.25729677e-002 2.86512952e-002 -2.20880553e-001
      1.47956656e-002 7.33903646e-002 -4.64329682e-002 -2.14138284e-001
      -3.88140790e-002 6.05491735e-002 7.51605406e-002 1.60689596e-002
      -7.41426200e-002 -5.04007787e-002 9.24095418e-003 7.82926902e-002
      -1.43799201e-001 -7.41411373e-002 -6.78535178e-002
      -1.18020596e-002 6.82685897e-002 -8.74906778e-002 -1.00912884e-001
      4.03536670e-002 -1.67190167e-003 -1.35053396e-001 -3.87310386e-002
      4.03306969e-002 -1.46353263e-002 -5.79826050e-002 -1.43732488e-001
      -1.56358123e-001 -4.65379283e-002 -6.10992536e-002
      -7.70203248e-002 -6.69101030e-002 1.09108992e-001 7.21839592e-002
      3.27043422e-002 -5.21886237e-002 6.73887357e-002 1.04634762e-002
      5.28092273e-002 -1.15941420e-001 2.34027412e-002 -1.02043979e-001
      -1.40337691e-001 1.41117334e-001 1.26391336e-001 -2.44578838e-001
      -1.60806894e-001 -1.91339716e-001 -1.58126459e-001 1.17230192e-001
      -1.46109521e-001 -1.17914863e-001 -7.86515474e-002
      -6.45445436e-002 -4.38290425e-002 -3.90575603e-002
      -1.90868899e-002 -4.29150602e-003 1.62876900e-002 1.13764681e-001
      7.19789192e-002 1.63951799e-001 -1.02731902e-002 -1.07513331e-001
      -1.58689227e-002 -2.33801063e-002 -1.26035944e-001
      -3.38026583e-002 -3.03260088e-002 -3.96836065e-002
      -1.79540627e-002 -5.70124537e-002 -5.91367148e-002
      -9.92737487e-002 -1.82735473e-001 -2.18417436e-001 8.80375877e-002
      -3.57338712e-002 -1.51044607e-001 -1.02670327e-001 6.99815853e-003
      -9.75623205e-002 -1.63926482e-001 -2.34399125e-001
      -1.28267184e-001 -5.54115996e-002 -1.10866904e-001
      -1.36038110e-001 -7.49391615e-002 -1.02190711e-001 4.00342084e-002
      6.40757009e-002 7.83826038e-003 -9.40904915e-002 1.74197823e-001
      1.15148492e-001 -6.18984215e-002 2.42018402e-002 6.15661852e-002
      1.23547561e-001 2.05800250e-001 1.62689433e-001 8.77820551e-002
      7.42805004e-002 -2.06691939e-002 -5.89408763e-002 -1.81786623e-002
      1.28691588e-002 -1.48951411e-001 -2.65647888e-001 -1.81409732e-001
      -1.71709552e-001 -1.40363917e-001 -2.07257713e-003
      -8.28456804e-002 -7.06580952e-002 -9.74937081e-002
      -7.98507184e-002 -3.11684221e-001 1.61866974e-002 -9.92167145e-002
      -1.01983771e-001 -1.03373796e-001 -3.51358317e-002 5.18366210e-002
      7.99002126e-002 -1.65669590e-001 -4.32024673e-002 1.03366680e-001
      -5.74668217e-003 1.55068217e-002 4.47932445e-002 7.23156109e-002
      3.92587408e-002 -8.59066471e-002 -6.53439909e-002 -9.08690244e-002
      6.35456368e-002 6.70662103e-003 -9.04810354e-002 6.32170811e-002
      1.13846295e-001 1.05500072e-002 5.17701991e-002 -1.41329661e-001
      -2.03164890e-001 -2.33479030e-002 -1.50929138e-001
      -1.50143757e-001 -5.85455820e-002 -5.02116047e-002
      -2.52437312e-002 -6.42497912e-002 -3.84909213e-002
      -2.58762270e-001 -1.77847013e-001 -1.86344787e-001
      -3.38590369e-002 -1.30740017e-001 -7.34307095e-002
      -4.73611429e-002 -5.13751507e-002 -8.13353658e-002
      -6.80464283e-002 6.60409927e-002 -1.42051086e-001 -1.15034170e-001
      -3.84770110e-002 4.54732999e-002 -6.90197712e-003 6.25433624e-002
      1.63375549e-002 -5.75497821e-002 -2.42513902e-002 -1.74437299e-001
      6.99250102e-002 3.35981930e-003 -8.40344653e-002 5.90918325e-002
      1.30205438e-001 3.51680890e-002 -2.43198927e-002 1.31909102e-001
      -7.27031603e-002 -1.68563694e-001 8.60544294e-002 1.52564779e-001
      1.61480054e-001 -1.74302123e-002 -2.11134180e-002 1.59414439e-003
      1.28390305e-002 -1.51417539e-001 -3.83645535e-001 -1.60396099e-001
      -8.23891982e-002 2.02066684e-003 -9.31786373e-003 7.54101127e-002
      7.04511404e-002 8.17738920e-002 -9.83720794e-002 -6.52834773e-002
      1.17151752e-001 9.01156217e-002 9.34875980e-002 1.17834136e-001
      7.99619406e-002 -3.83516215e-002 7.00947503e-003 -1.03744678e-001
      -4.06105697e-001 -1.22489892e-001 1.92702301e-002 -3.38135920e-002
      6.96812570e-002 -4.25759740e-002 2.27995872e-001 6.45765243e-003
      -5.09832427e-002 -9.45289582e-002 -6.82436004e-002
      -2.62996495e-001 -8.26316178e-002 -8.89776126e-002
      -1.02021754e-001 1.27684340e-001 1.40061677e-001 -8.99632350e-002
      -1.40754536e-001 -4.94286381e-002 -2.47750267e-001
      -1.77488565e-001 -1.08696572e-001 1.29144490e-001 1.70709997e-001
      1.32880449e-001 6.66579232e-002 9.68959406e-002 -1.37659758e-002
      -1.21857785e-001 -3.96104977e-002 -2.61394829e-002
      -4.16771099e-002 3.65674607e-002 -2.48011388e-002 1.08779930e-002
      3.10609993e-002 -1.37847528e-001 -2.46313676e-001 -1.98482126e-001
      -1.42267132e-002 1.10733658e-001 9.43666995e-002 9.44737270e-002
      4.63451166e-003 1.70340613e-002 7.63060674e-002 -7.95046017e-002
      5.53096272e-002 9.77366343e-002 -1.29573464e-001 9.59055033e-003
      -7.21144676e-002 -4.19987589e-002 1.69476192e-003 2.66196039e-002
      2.70173382e-002 8.80913958e-002 7.99948424e-002 -5.60797937e-002
      2.18026135e-002 -7.58260023e-003 6.58828840e-002 -5.02176099e-002
      -1.35385752e-001 -7.37203881e-002 1.00523671e-002 -8.87377188e-003
      -1.98577851e-001 -1.64491579e-001 -9.72106680e-002
      -1.20617993e-001 -1.20513670e-001 -1.12997502e-001 1.35044055e-002
      -1.02947854e-001 9.10885539e-003 -1.57338813e-001 -5.27892150e-002
      -1.73754934e-002 -8.39470550e-002 -7.99595565e-002
      -2.05658711e-002 -6.17240146e-002 1.23104053e-002 -6.48496002e-002
      -1.11397102e-001 3.25473435e-002 -2.42706761e-002 -5.59599623e-002
      -1.82652175e-002 -7.57643357e-002 4.15664539e-003 1.10796809e-001
      -3.39578167e-002 -3.89832743e-002 -7.37824291e-002
      -1.92947984e-002 -1.76405683e-001 -1.12570748e-001
      -1.11058004e-001 -1.00648090e-001 -2.17792273e-001
      -1.60625100e-001 -1.53953042e-002 -7.27702454e-002 4.40305695e-002
      -8.04485101e-003 -5.14537245e-002 -1.37005225e-001
      -1.75088376e-001 -1.42033726e-001 -1.00072056e-001
      -7.28107020e-002 -3.91852558e-002 -5.95215932e-002
      -2.48070300e-001 -1.58083364e-001 -9.13777873e-002
      -1.65780321e-001 -9.00560990e-002 -1.80141740e-002 3.25245187e-002
      6.77396283e-002 -3.46879326e-002 -2.65962332e-001 -9.05749649e-002
      -2.14574948e-001 -1.65713891e-001 -8.20281729e-002
      -1.42293468e-001 -1.02579385e-001 2.15882361e-002 3.72402283e-004
      -2.34973803e-001 -1.26057833e-001 -4.25957330e-002 1.02715231e-001
      1.20637693e-001 1.89880505e-002 1.64554045e-002 1.67990774e-001
      1.96310028e-001 -2.03797407e-002 7.37383664e-002 -3.19566838e-002
      4.95854206e-002 1.93842035e-003 3.83946747e-002 -6.27046824e-002
      -2.93937977e-002 -9.29578021e-002 -4.91648652e-002
      -9.22791734e-002 -9.01367068e-002 -1.07495710e-001
      -1.16262987e-001 -1.54857978e-001 -1.64542094e-001
      -1.49771109e-001 -4.28159647e-002 -7.32793584e-002
      -1.51445106e-001 7.72838965e-002 2.34714262e-002 -9.22325328e-002
      -5.02544865e-002 5.69136254e-003 -1.32122692e-002 4.22815047e-002
      1.46142915e-002 1.23006277e-001 -6.03398345e-002 3.47157493e-002
      -5.14442176e-002 5.28348796e-002 1.23733982e-001 8.69958699e-002
      -3.44432751e-003 -6.79330304e-002 4.27131504e-002 -1.65568832e-002
      -2.13764049e-002 -1.00469343e-001 1.92517653e-001 -8.10643584e-002
      -1.44591536e-002 1.31387115e-001 -4.44445610e-002 -8.89936090e-002
      3.93057279e-002 8.48147497e-002 2.56286021e-002 -5.76596260e-002
      -8.79078060e-002 -5.64217456e-002 -9.46127176e-002
      -1.52133018e-001 -1.82505548e-002 -1.28286388e-002
      -1.62736215e-002 1.31706614e-002 -3.65188830e-002 6.54977420e-003
      7.31749982e-002 1.15229197e-001 -4.77947779e-002 1.07647114e-001
      -3.18299718e-002 1.51109308e-001 8.90424699e-002 1.73537001e-001
      -1.44890904e-001 -1.50283724e-001 -1.06694154e-001
      -1.90445215e-001 -7.30496421e-002 2.00142693e-002 -7.85672516e-002
      -1.80084892e-002 1.57216080e-002 3.62345688e-002 6.39817212e-003
      -5.54674752e-002 -8.41753632e-002 -1.13991480e-002 2.16648564e-001
      8.22037160e-002 6.59023586e-004 -1.19679086e-002 -4.34462074e-003
      5.62493782e-003 2.71033496e-003 -2.22394675e-001 -2.47719958e-001
      -6.56410679e-002 -2.72197686e-002 -1.12157702e-001
      -7.53610134e-002 2.33111493e-002 -2.85104848e-002 -6.65619969e-002
      -2.40961164e-002 7.72541314e-002 2.10714981e-001 -7.57673308e-002
      -5.52917691e-003 3.00938003e-002 1.40039464e-002 4.46367301e-002
      -9.33316350e-002 -4.41337749e-002 -1.17277287e-001 2.44823806e-002
      3.97706259e-004 -2.48255972e-002 -3.46302874e-002 1.15657322e-001
      8.35893899e-002 1.46260798e-001 8.76733288e-002 4.17444436e-003
      7.67729357e-002 -8.14674236e-003 8.74977410e-002 5.12624383e-002
      -1.13885142e-001 -1.45103037e-001 -9.45829451e-002
      -2.66807843e-002 -1.72259763e-001 -3.07244975e-002
      -9.42240730e-002 1.42317703e-002 6.67448491e-002 5.01725003e-002
      9.68381763e-002 1.14670433e-001 -6.40302477e-003 -9.53932777e-002
      -1.13583274e-001 -1.33901060e-001 -1.59030482e-001
      -6.17046952e-002 -2.89610416e-001 -9.57750902e-002
      -5.40284216e-002 -1.34618804e-001 -2.73183018e-001
      -1.31626308e-001 -5.32729514e-002 -8.93200263e-002
      -1.82862982e-001 -3.73127311e-002 -1.15642957e-001
      -7.72696584e-002 3.59477811e-002 -1.29101530e-001 -2.50763837e-002
      1.48306508e-003 1.55695036e-001 4.80922423e-002 -3.32001895e-002
      -1.37203902e-001 -3.39718238e-002 -1.18164413e-001
      -1.29412889e-001 -1.65066645e-002 -4.75086942e-002 1.23950501e-003
      3.82811911e-002 -9.65168104e-002 2.50139497e-002 -3.17520685e-002
      -6.02056533e-002 -1.55687988e-001 -1.62274893e-002 1.89074222e-002
      1.32541329e-001 -3.26005854e-002 -3.60552259e-002 2.29512416e-002
      2.69857980e-002 -1.48244649e-002 -1.52129620e-001 -1.32643608e-002
      6.54799342e-002 1.18686343e-002 2.93995766e-003 -7.83633143e-002
      -1.42212808e-001 -8.54837373e-002 -1.52988911e-001
      -8.70161355e-002 -1.23031564e-001 -1.91559687e-001
      -1.31345898e-001 -2.41631404e-001 -6.76678270e-002
      -4.07144949e-002 -8.67628455e-002 -1.69883631e-002
      -2.39564776e-002 -7.70062655e-002 -5.52397929e-002
      -4.35498506e-002 -1.70025006e-001 -2.78015137e-002 6.12085871e-002
      3.73418331e-002 2.05279421e-002 -5.74501120e-002 -1.05324782e-001
      -7.29691908e-002 -8.14646408e-002 -1.41867727e-001
      -6.29104674e-002 6.62054121e-002 -1.16707478e-002 -1.71371025e-003
      -3.70386168e-002 -9.38443244e-002 -1.63538493e-002 1.07558601e-001
      -7.07724765e-002 -2.35091344e-001 -1.44342422e-001
      -1.26795039e-001 -3.09306473e-001 -3.12385798e-001
      -1.45106003e-001 3.20701860e-002 6.57399893e-002 -1.83290601e-001
      -1.12394638e-001 -3.11542898e-002 6.69723675e-002 -1.00745924e-001
      -9.34311934e-003 1.11091666e-001 1.87491253e-001 1.05599687e-001
      -9.54449475e-002 -2.27108255e-001 -2.33743966e-001
      -2.02577069e-001 -3.94692272e-001 -1.99556544e-001
      -1.69635251e-001 1.60338059e-002 3.53703685e-002 -1.69582069e-001
      -1.92125753e-001 -1.45635441e-001 -1.51673714e-002
      -1.83307335e-001 3.82948704e-002 3.88265140e-002 2.45507166e-001
      1.34523511e-001 -1.35056496e-001 -1.12521216e-001 -5.99347912e-002
      4.80880309e-003 -2.61648558e-002 1.65148005e-001 1.89009570e-002
      4.92817424e-002 -1.20908758e-002 -4.10674065e-002 2.25233026e-002
      1.05677582e-001 -6.02397546e-002 -8.27600732e-002 -9.85905603e-002
      -1.23017900e-001 -8.39960389e-003 -1.33021012e-001 5.95801622e-002
      -1.81318626e-001 -1.01624534e-001 -1.07112974e-002 9.22935549e-004
      1.38705239e-001 -7.76319280e-002 1.73908100e-001 1.16125546e-001
      -9.99279767e-002 -1.85943902e-001 -9.73334983e-002
      -4.91529368e-002 -1.31500989e-001 -1.96926836e-002
      -4.05751057e-002 2.35513318e-002 3.30998823e-002 -2.20217649e-002
      1.04489446e-001 1.73521206e-001 1.00866258e-001 8.56257528e-002
      1.55372411e-001 1.65405776e-002 2.31095832e-002 6.65385649e-002
      1.76113337e-001 2.31455695e-002 -1.02973141e-001 -1.07380383e-001
      -2.15427026e-001 -1.21108934e-001 -2.08307669e-001
      -2.07122907e-001 -3.54244150e-002 4.22015972e-002 1.49636596e-001
      2.08589695e-002 4.85010408e-002 1.45799041e-001 2.82956451e-001
      1.43657580e-001 9.22990069e-002 1.95115015e-001 2.17738211e-001
      -2.96428315e-002 -1.21746831e-001 -2.17689097e-001
      -2.42329806e-001 -8.61138925e-002 -1.53749809e-001
      -1.57450065e-001 -5.62403500e-002 -1.67263914e-002 2.80718207e-002
      -3.86954769e-002 -1.37759045e-001 1.45828994e-002 8.70334134e-002
      -3.90323848e-002 -2.31919065e-001 -4.43232842e-002 8.66673887e-003
      -2.13110168e-002 1.88983977e-002 -5.60945868e-002 1.97589304e-002
      -7.19518866e-003 -5.75613650e-003 2.73091628e-005 4.85342555e-002
      -4.72782701e-002 -9.18528438e-002 -2.40744799e-001
      -2.14180976e-001 7.20773079e-003 -1.75483637e-002 -9.03136507e-002
      -1.68891981e-001 -1.28722921e-001 -1.06750190e-001
      -1.81892037e-001 -1.52111202e-001 3.85389961e-002 1.64904296e-002
      -2.79266443e-002 5.99804595e-002 -8.69535655e-003 -1.15577266e-001
      -2.03314230e-001 8.92624818e-003 1.07866377e-002 -1.25507393e-003
      1.25508243e-002 -2.54059117e-002 -9.41299424e-002 6.42682165e-002
      -8.31873789e-002 1.03578128e-001 -2.78351605e-001 -2.66783219e-002
      -8.99068192e-002 -4.39805686e-002 -1.24281250e-001
      -3.71575691e-002 5.16491011e-002 1.15514146e-002 -1.47504449e-001
      1.22095861e-001 -2.97736600e-002 -2.44326163e-002 -6.77947849e-002
      -2.58643441e-002 -1.50244132e-001 -9.75312293e-003
      -1.11212820e-001 1.73105627e-001 -1.94072366e-001 -1.39326125e-001
      -4.67262715e-002 -1.02957934e-001 -3.13205495e-002
      -3.64916027e-002 2.08243474e-001 8.81900266e-002 -6.64087981e-002
      -2.09598586e-001 -2.31391918e-002 -1.00588419e-001
      -1.66131392e-001 -1.66339919e-001 3.99619341e-003 -1.08248927e-001
      -2.90184561e-002 -1.42364651e-001 -5.42680807e-002
      -3.09553742e-002 9.17645395e-002 -1.49000175e-002 -7.16857612e-002
      -5.95571706e-003 -4.79270630e-002 -5.30230887e-002
      -5.74717559e-002 -1.64261088e-001 -3.19681279e-002
      -6.95991516e-002 -2.88112815e-002 -7.55679980e-002
      -3.44174206e-002 1.57105513e-002 1.66025050e-002 -1.87622989e-003
      -1.43829724e-002 -2.21533477e-002 2.37024594e-002 -4.22422355e-003
      -1.09310053e-001 -1.27041321e-002 2.16148086e-002 -3.38089429e-002
      -8.55053291e-002 -1.17804809e-003 -5.05542830e-002 5.16189560e-002
      -4.09813114e-002 -5.02638482e-002 4.98343185e-002 -9.02687684e-002
      -1.34329107e-002 -5.02029881e-002 5.16126603e-002 -7.78647214e-002
      6.18207343e-002 -6.00081608e-002 4.36840206e-002 -3.35563570e-002
      -5.49250059e-002 4.17046156e-003 -2.58995593e-002 2.89616601e-005
      -1.24963112e-001 -3.45973857e-002 -5.60449101e-002
      -7.40428567e-002 -1.23093994e-002 -5.62467016e-002
      -4.48131748e-002 -6.93999678e-002 -3.85523252e-002
      -1.40697598e-001 -1.03170499e-001 -2.42907135e-003
      -2.17441283e-002 -6.62556738e-002 -5.68542555e-002
      -5.57735972e-002 1.84916949e-003 1.33717302e-002 -1.16769433e-001
      -2.02534702e-002 -2.81091928e-001 3.19317766e-002 -9.22295228e-002
      4.14775498e-002 2.53250767e-002 -5.52807152e-002 -1.55537814e-001
      -1.27531677e-001 2.89324168e-002 -1.14150003e-001 6.69816434e-002
      -1.07047118e-001 2.43414432e-001 2.26517186e-001 -9.67790112e-002
      -7.39882886e-002 -1.90771520e-001 5.68583012e-002 -2.30968997e-001
      -8.99087489e-002 -1.34498432e-001 1.81174930e-002 -9.23839957e-002
      -7.47434348e-002 -8.44266266e-002 -1.44533649e-001
      -5.62718185e-003 -1.55770853e-001 -1.09564522e-002
      -1.75368488e-001 -3.58789116e-002 1.87906586e-002 -1.33057415e-001
      -9.18236449e-002 -5.86158298e-002 1.21979155e-001 1.79534018e-001
      4.15662192e-002 -2.47136742e-001 6.35895506e-002 6.96227103e-002
      -8.58801082e-002 -3.92363146e-002 -4.59310599e-002 2.15205289e-002
      6.25268519e-002 1.21592633e-001 -2.61131860e-002 6.87325448e-002
      -2.72264797e-002 -3.21599245e-002 1.97723303e-002 -1.48795664e-001
      -1.00221060e-001 -3.99189033e-002 -1.83041647e-001
      -1.88290209e-001 -6.78758174e-002 -7.82741159e-002
      -1.79216862e-001 -5.30878231e-002 -1.55398399e-001
      -1.08692355e-001 -2.49807179e-001 -1.33033171e-001
      -1.92592621e-001 -7.28925616e-002 -1.09331280e-001
      -1.22986987e-001 1.41000941e-001 5.27833737e-002 1.18153028e-001
      2.55590409e-001 3.17952484e-001 2.03408718e-001 2.53502969e-002
      1.94013610e-001 1.29423320e-001 4.06297715e-003 -1.69100180e-001
      -2.56061614e-001 -2.21584201e-001 -1.46155104e-001
      -1.86464325e-001 -2.73243576e-001 -8.94042253e-002 4.50671045e-003
      -2.91397907e-002 -5.91215231e-002 -5.89171313e-002 1.20753951e-001
      2.23168030e-001 1.40211195e-001 1.63458347e-001 1.50548235e-001
      5.99976480e-002 2.28740424e-002 -7.01255649e-002 -2.52217203e-001
      -1.54480934e-001 5.98849077e-003 -3.12195774e-002 -1.46572351e-001
      -1.24359705e-001 -5.38004413e-002 1.90717373e-002 -1.07563689e-001
      -1.95460394e-001 -6.34887516e-002 2.12517045e-002 -2.43101530e-002
      -1.89977735e-001 -5.51557578e-002 6.18036510e-003 -1.29382238e-001
      -1.65107742e-001 -3.41065601e-003 -6.74034804e-002
      -6.87805638e-002 1.71444088e-001 -7.78026879e-002 -4.29778770e-002
      1.71148963e-002 1.13807186e-001 8.12330991e-002 1.96366888e-002
      -1.07893012e-001 2.42000376e-003 -6.82905614e-002 -1.48307145e-001
      -9.41622481e-002 -3.86478975e-002 4.03621942e-002 1.21154478e-002
      1.58633590e-002 -1.32022992e-001 -8.91125947e-002 -2.20420435e-001
      -7.66528174e-002 6.76622894e-003 1.62087623e-002 4.21831058e-003
      -9.20275003e-002 -3.26691419e-002 -7.40951076e-002
      -1.71849951e-002 -1.41215082e-002 -3.14122736e-002
      -2.24762753e-001 2.79457066e-002 -8.65699202e-002 -9.06531513e-002
      -1.55648934e-002 -2.45908480e-002 -8.28370452e-002
      -8.50014016e-002 1.46640867e-001 8.09567980e-003 -1.19154505e-001
      -4.68498357e-002 -6.50752038e-002 2.39230208e-002 -5.57748899e-002
      9.96364430e-002 1.21859768e-002 5.06531410e-002 -1.91245779e-001
      2.12993268e-002 -5.77216893e-002 -8.51595774e-003 1.13796428e-001
      1.38569131e-001 3.45402607e-003 3.44634727e-002 1.07507803e-001
      -1.36867821e-001 -1.35813460e-001 -1.57308578e-002 2.77018026e-002
      -1.70705933e-002 -4.38693501e-002 -2.76712459e-002 3.41046136e-003
      1.14525482e-001 4.61160019e-002 -6.23211451e-002 9.02237594e-002
      2.33443063e-002 7.52253039e-003 -1.80933967e-001 3.54751237e-002
      2.48621148e-003 1.84743851e-002 5.85757867e-002 8.17212835e-002
      -1.01042092e-001 9.47399996e-003 2.22769640e-002 -4.02975120e-002
      1.03569284e-001 1.53687239e-001 1.35899648e-001 2.04553269e-002
      4.27973904e-002 -5.30634485e-002 -4.70725968e-002 7.54822791e-002
      -1.82475954e-001 1.04463309e-001 2.98543740e-003 -2.50555724e-002
      1.72682330e-002 1.71442633e-003 1.60553455e-002 -5.91079667e-002
      -8.49744603e-002 -1.49334297e-002 7.30581284e-002 5.37766144e-002
      2.91329883e-002 6.60850555e-002 1.27989352e-001 5.52431727e-003
      -3.99324996e-003 -3.79394293e-002 -4.95411679e-002
      -1.51701316e-001 -7.20786303e-002 -5.67176342e-002
      -5.67342388e-003 7.26370513e-002 1.47191691e-004 -5.59679903e-002
      1.49295226e-001 -5.52008906e-003 9.28726420e-002 -2.11988818e-002
      -9.09025967e-002 1.70247871e-002 2.97206417e-002 -1.71328008e-001
      3.66182663e-002 -4.74931821e-002 -1.02926776e-001 -1.32081553e-001
      -9.66198817e-002 -2.14079514e-001 -1.34521937e-002
      -1.47641286e-001 1.99777007e-001 1.15286775e-001 1.22584745e-001
      3.83419432e-002 3.39310467e-002 7.75423497e-002 -1.02243880e-002
      7.40531906e-002 2.15562373e-001 9.84776765e-002 5.94595633e-003
      1.80091839e-002 6.28543198e-002 2.09077507e-001 1.11302428e-001
      -1.49433091e-002 6.20374195e-002 1.31107613e-001 3.00337784e-002
      -5.44704944e-002 -2.17656523e-001 -7.20257983e-002
      -5.54377884e-002 -1.13476701e-001 -1.65320963e-001 1.95744596e-002
      7.92634934e-002 -1.53111398e-001 -2.00893104e-001 -1.26384974e-001
      -8.44470561e-002 -3.88275832e-002 -1.61601126e-001
      -1.14535540e-001 -9.92454886e-002 -1.28774077e-001 1.32192060e-001
      1.66391239e-001 7.69594759e-002 5.98515058e-003 -5.37473941e-003
      7.05613792e-002 -1.02870218e-001 6.86168596e-002 1.15674354e-001
      -6.35620132e-002 8.85380618e-003 1.86568990e-001 -2.01196652e-002
      -6.20066039e-002 4.89290804e-002 1.06723763e-001 3.49481031e-002
      4.67183441e-002 -1.19845808e-001 -2.70109307e-002 7.21914172e-002
      -6.75308034e-002 -2.22099364e-001 -1.45424604e-001
      -1.82924554e-001 -9.83561575e-002 -1.44177422e-001
      -3.16690892e-001 -8.05140287e-002 1.33696303e-001 -1.09308958e-001
      -1.44314632e-001 -4.15533148e-002 -9.86679047e-002 4.19627950e-002
      -3.95845205e-001 -3.20375152e-002 -4.46943752e-002
      -1.11245748e-003 9.85852927e-002 1.09927543e-001 9.16263983e-002
      1.06055744e-001 -2.10087448e-002 -8.41628388e-003 -3.07561252e-002
      -6.38963431e-002 -2.61182517e-001 -1.48765609e-001 5.85295819e-002
      3.41408886e-003 5.37076686e-003 1.95594956e-004 -1.13198169e-001
      -2.00594097e-001 -1.51032493e-001 -1.41557664e-001
      -4.44497988e-002 -2.36232346e-003 4.04101098e-003 7.46125653e-002
      -2.74265651e-002 -2.23782033e-001 -2.14261532e-001
      -2.45773688e-001 -2.44332686e-001 -1.60414338e-001
      -8.82148147e-002 -9.54897404e-002 -4.67054546e-002
      -1.43161833e-001 -2.72847921e-001 7.98720270e-002 1.11482911e-001
      -2.90300120e-002 -1.20229043e-001 1.18606746e-001 4.05032597e-002
      -1.24989115e-001 6.49954658e-003 3.21872085e-002 1.55784823e-002
      5.76090701e-002 -2.29648016e-002 -2.03412458e-001 2.08638124e-002
      -1.93038449e-001 -1.81889519e-001 -5.46759367e-003 1.11314856e-001
      -3.99459116e-002 -6.95165172e-002 -1.68185115e-001
      -4.68765199e-002 1.45367950e-001 -5.17987413e-003 -2.62462888e-002
      4.59761582e-002 4.02126648e-002 3.50325997e-003 -8.94354358e-002
      -1.48265764e-001 3.89700499e-003 1.59039810e-001 -7.60003030e-002
      -3.20022516e-002 3.35778929e-002 5.47143444e-002 7.60503858e-002
      4.05095890e-002 1.55450270e-001 9.45591331e-002 1.19448550e-001
      -9.87813622e-002 -2.42317617e-002 -2.67353684e-001 7.98237771e-002
      -3.23309749e-002 -2.87849698e-002 1.55030906e-001 1.62742525e-001
      1.24000348e-001 -4.12167190e-003 4.22006212e-002 -1.33018568e-001
      -7.76199996e-002 1.34823667e-002 -4.48297039e-002 2.29063891e-002
      1.42154275e-002 -9.82760638e-002 -3.75512153e-001 -2.68998384e-001
      -3.74087960e-001 -7.83783942e-002 -2.16006383e-001
      -2.59879917e-001 -1.13203011e-001 -1.34721892e-002
      -2.40378594e-003 -1.32052690e-001 -2.00531453e-001
      -2.68342882e-001 -1.94350749e-001 -2.48833727e-002 7.38134384e-002
      1.04080535e-001 2.75407750e-002 1.87059700e-001 1.49764746e-001
      5.40201180e-002 1.50469067e-002 -9.01551917e-003 -4.30469736e-002
      -5.14540076e-002 9.88162681e-002 -6.76325038e-002 1.00945339e-001
      -1.06503092e-001 -5.57178333e-002 -1.28652230e-001
      -7.05105737e-002 4.45788261e-004 -1.00335397e-001 -3.67703624e-002
      6.88465610e-002 1.56090498e-001 1.20952889e-001 3.43603306e-002
      -9.24541950e-002 -2.51665302e-002 -1.21096037e-001
      -2.66306609e-001 -1.57147780e-001 -3.66374776e-002
      -6.22857250e-002 -9.91611853e-002 6.45111725e-002 -2.08054632e-001
      -1.15418613e-001 9.04458016e-002 5.76166511e-002 2.10194558e-001
      2.23813787e-001 2.41964310e-001 4.05790098e-002 -8.93889868e-004
      -8.66998434e-002 -8.80957022e-003 -5.74566200e-002
      -5.47517799e-002 -6.64074048e-002 5.52646490e-003 4.53889258e-002
      -8.32826942e-002 -4.91871089e-002 -6.92964494e-002
      -1.99410040e-002 1.06840178e-001 -2.12033153e-001 -4.22434248e-002
      6.65394738e-002 -9.79035199e-002 -8.20469409e-002 4.31698784e-002
      -5.74120320e-002 8.66343603e-002 -1.28596976e-001 -1.86939031e-001
      -1.98322963e-002 -8.40283334e-002 -7.56553188e-002
      -8.47403631e-002 -1.41266868e-001 -1.27979860e-001
      -1.62788942e-001 1.90040261e-001 1.60380125e-001 1.83909237e-002
      8.15319717e-002 -7.24518206e-003 -6.34957943e-003 -6.26614764e-002
      1.72691241e-001 1.08386338e-001 6.80294335e-002 3.62735279e-002
      -2.57590413e-001 -7.00086057e-002 -2.61034761e-002
      -1.00196756e-001 -9.54836681e-002 1.31794080e-001 -7.38575310e-002
      1.18069164e-001 2.03618050e-001 1.13661982e-001 9.94635597e-002
      -1.45684168e-001 -1.13196090e-001 -1.94114551e-001 1.84260737e-002
      -6.28113896e-002 2.66065868e-003 -1.04328319e-001 -1.42099038e-001
      -1.42879128e-001 -4.78984714e-002 -2.41952270e-001
      -1.07271135e-001 -6.91024512e-002 -1.36341289e-001 7.56492913e-002
      1.71961397e-001 8.48710835e-002 1.02709159e-001 -8.43303353e-002
      -1.02554239e-001 -1.21122181e-001 1.42143562e-001 -2.86484417e-002
      -7.24799000e-004 1.34678170e-001 2.79372007e-001 5.58707491e-002
      6.68864790e-003 9.47282538e-002 3.43512669e-002 2.58952975e-001
      -2.55597685e-003 -1.73390523e-001 -2.08088145e-001
      -2.74875225e-003 1.96276158e-002 6.02277182e-002 -1.93115667e-001
      -1.21025570e-001 -8.14603865e-002 -1.19729184e-001
      -2.14118026e-002 -1.10684242e-002 1.72452837e-001 8.07663500e-002
      4.99967821e-002 -2.16896787e-001 -8.51889551e-002 -5.09931892e-002
      -5.51884025e-002 -2.17247359e-003 -2.79222894e-003 9.08724144e-002
      -4.95963022e-002 5.82395941e-002 1.35728732e-001 9.79521647e-002
      1.03973150e-001 1.73345953e-002 5.31027727e-002 1.98115379e-001
      9.05745625e-002 3.49337095e-003 5.84693439e-002 1.16024995e-002
      1.38604164e-001 2.80083306e-002 5.38659655e-002 -1.47125304e-001
      -1.10597260e-001 -9.10333320e-002 -1.15214437e-001
      -1.42149970e-001 -1.96705386e-001 -3.61156464e-002 2.74976529e-003
      -1.38858616e-001 -1.19193837e-001 -1.20103166e-001
      -1.76533666e-002 1.18605709e-002 -1.42378062e-001 3.88219394e-002
      -6.70326352e-002 -5.46938889e-002 -2.14286655e-001 2.76902393e-002
      2.33370036e-001 2.29686890e-002 6.66141137e-002 5.36549510e-003
      -4.89708483e-002 -3.01473271e-002 -3.81061248e-002
      -1.59313735e-002 6.90030530e-002 1.22417949e-001 -7.51943886e-002
      2.02635601e-002 -2.93484014e-002 -3.16756628e-002 -2.83602346e-002
      3.83157842e-002 7.28560761e-002 -1.39551476e-001 -4.45958376e-002
      -8.66311640e-002 1.17578907e-002 -1.35239318e-001 -6.30498379e-002
      -1.75418124e-001 -1.08210877e-001 -1.23571761e-001 1.50723130e-001
      9.24338493e-003 -2.12325931e-001 -2.47382998e-001 -1.82934716e-001
      -9.52697452e-003 -8.19625929e-002 2.32534856e-002 1.79229751e-001</_>
    <_>
      -8.83727334e-003 1.96694806e-001 -9.24923364e-003 5.73128909e-002
      1.43672615e-001 1.11055404e-001 2.98769642e-002 1.01575270e-001
      -1.11936405e-001 -1.24571957e-001 2.12720595e-002 -7.54535571e-002
      2.38385737e-001 -1.79501884e-002 -5.60649112e-002 2.05493029e-002
      6.50996566e-002 -1.26424015e-001 6.34021163e-002 8.49084035e-002
      -9.76992175e-002 -7.23939463e-002 1.09149724e-001 2.15867683e-002
      -5.25073148e-002 7.50160292e-002 -6.10066112e-003 -3.52605470e-002
      -5.69417104e-002 -1.74274400e-001 6.31466880e-002 2.18275636e-002
      -4.66261990e-002 -7.25190043e-002 3.44478823e-002 -1.17357388e-001
      -1.59816667e-001 3.13632675e-002 1.61472335e-002 2.46212021e-001
      -2.48125177e-002 -1.30104333e-001 -5.92084788e-002 5.08821048e-002
      -1.52440861e-001 2.92377267e-002 9.99554098e-002 -1.21873077e-002
      1.21468417e-001 -1.18913844e-001 -1.42097607e-001 -2.97565246e-003
      -4.46640402e-002 -2.96858773e-002 -4.28596549e-002 7.40923593e-003
      1.12376697e-001 1.63889334e-001 2.46895328e-002 4.94966134e-002
      -4.04755399e-003 3.67221870e-002 -1.04089715e-001 5.94873391e-002
      1.31976800e-002 -1.56482123e-002 1.02347441e-001 -2.91775241e-002
      6.36584610e-002 1.41614348e-001 6.29047826e-002 -1.24216685e-002
      -9.23081264e-002 -9.51169282e-002 -6.10113852e-002
      -4.03179452e-002 -2.16697842e-001 -2.58458257e-002
      -3.03131249e-002 -1.22609735e-001 -2.54714675e-002
      -2.38976598e-001 -1.79170892e-001 2.51728836e-002 -2.91173384e-002
      -1.38815328e-001 -4.27446067e-002 -1.87668845e-001 5.85679803e-003
      -1.47699445e-001 5.72976284e-002 -1.34160712e-001 4.14599553e-002
      5.47304563e-002 2.85279080e-002 9.98729169e-002 1.23208538e-001
      5.97577915e-002 1.85806245e-001 4.52696942e-002 7.85556212e-002
      1.60760462e-001 1.20606780e-001 2.36105278e-001 1.67466462e-001
      9.40142348e-002 1.21537991e-001 1.09415829e-001 -1.92698047e-001
      -4.07607034e-002 1.47992242e-002 -7.88283721e-003 -3.54641043e-002
      -1.19165130e-001 -9.05875340e-002 3.20566893e-002 -2.27605626e-001
      -1.47277057e-001 -4.02686670e-002 -1.20495064e-002 1.47970274e-001
      3.02114314e-003 -1.44033581e-001 -1.65291041e-001 -3.96505110e-002
      -2.19980717e-001 -6.40507191e-002 1.15736999e-001 7.19189346e-002
      9.06932876e-002 2.02376500e-001 1.10835381e-001 5.77301644e-002
      1.05086513e-001 4.26543914e-002 4.15575169e-002 7.07230195e-002
      6.73591718e-002 1.14850119e-001 8.20510462e-002 2.61151548e-002
      -2.92707514e-002 1.56888187e-001 -3.83925922e-002 -4.21674885e-002
      -1.96734723e-002 2.17997972e-002 8.12477544e-002 -1.32497931e-002
      -4.15952951e-002 -2.05392122e-001 -6.65536970e-002
      -1.25267580e-001 -1.61917418e-001 -6.97386637e-002 9.27848835e-003
      9.54017714e-002 -9.59017947e-002 1.02704592e-001 -9.67512801e-002
      -7.56646767e-002 -1.35688424e-001 9.53100324e-002 4.80778851e-002
      1.04230821e-001 9.71607938e-002 9.07387361e-002 -2.80551799e-002
      -3.22147943e-002 7.79354572e-002 -1.27804652e-002 8.15923733e-004
      2.28225328e-002 5.40642068e-002 9.28118825e-002 1.48421794e-001
      -3.66749503e-002 3.34314406e-002 4.55870070e-002 -1.65062901e-002
      -1.27068713e-001 -1.09760843e-001 4.06471379e-002 5.10157719e-002
      -2.15176776e-001 3.97577956e-002 -2.96708867e-002 -1.00108095e-001
      -1.46781340e-001 -2.38648579e-002 -4.28659515e-003 1.31348982e-001
      1.09771885e-001 -1.90609515e-001 1.17696248e-001 9.33756530e-002
      -2.52805334e-002 -1.68021601e-002 -8.00027028e-002 5.82920574e-003
      2.33053379e-002 1.65656302e-002 -8.67467150e-002 -2.05016211e-001
      5.52163385e-002 -5.36186174e-002 -9.44897309e-002 -9.39708576e-002
      5.90025932e-002 1.06429301e-001 7.50301182e-002 -1.21733621e-001
      2.78868340e-002 2.56968737e-002 -3.72226126e-002 -1.38993993e-001
      6.02447763e-002 6.48174109e-003 1.08077973e-001 9.66931060e-002
      -1.94934055e-001 9.14052967e-003 -7.44122341e-002 -9.18466821e-002
      -1.56744923e-002 -5.39010996e-003 -5.12876846e-002 3.35205980e-002
      7.18432292e-002 -1.56036451e-001 9.13307741e-002 9.47120860e-002
      4.00951840e-002 -7.59717636e-003 2.98836641e-002 -2.78330245e-003
      3.16863433e-002 1.02711387e-001 -6.54426664e-002 -1.43923583e-002
      -1.96420550e-001 -1.85189545e-001 -1.69124603e-001 7.11419210e-002
      -6.02879338e-002 3.51110962e-003 2.18913108e-002 -1.05833694e-001
      1.00934386e-001 3.22051682e-002 8.86703189e-003 6.54489696e-002
      9.19598490e-002 1.58037096e-001 -1.80762351e-001 -5.75703010e-002
      -2.99376361e-002 -5.69559867e-003 -2.04769224e-002 6.49308711e-002
      5.88881187e-002 -8.42135102e-002 6.56636283e-002 -9.41131040e-002
      5.20448200e-002 -1.86519064e-002 -3.70717782e-004 -6.27924204e-002
      7.03519136e-002 2.12799814e-002 8.70621875e-002 6.64783195e-002
      -7.84723088e-002 -9.91765335e-002 -2.57043112e-002 6.62409663e-002
      1.80963129e-001 1.30182758e-001 1.47182822e-001 -2.26079524e-002
      1.63207762e-002 -7.58048743e-002 1.04783818e-001 1.89235345e-001
      9.25995689e-003 8.90055969e-002 6.76170588e-002 1.03810638e-001
      -3.08013279e-002 -1.33638203e-001 -4.96100374e-002
      -1.83802322e-002 -6.01310208e-002 -3.95016707e-002
      -4.02454101e-002 -5.68958893e-002 -7.64375553e-002 2.13346202e-002
      -3.47908139e-002 -2.64152754e-002 2.26664133e-002 -1.07278004e-001
      3.05834711e-002 9.57517400e-002 1.78920962e-002 1.57306548e-002
      5.77022433e-002 5.18381074e-002 1.35790193e-002 1.89475641e-002
      1.81413349e-002 -3.70052792e-002 1.32060088e-002 -3.51743586e-002
      4.77706119e-002 1.02579072e-001 1.08401202e-001 7.96776712e-002
      1.31373063e-001 2.03185007e-002 3.61196138e-002 1.02884971e-001
      1.10310681e-001 1.10808901e-001 -1.39880553e-001 -2.66643554e-001
      -1.92713365e-001 -1.83483616e-001 -2.27783129e-001
      -1.34677246e-001 -4.05271500e-002 -9.33713317e-002
      -3.69339921e-002 -8.00200105e-002 -1.13819487e-001
      -2.44509131e-002 -6.69453889e-002 -4.03602570e-002 1.30413100e-002
      4.63664010e-002 -4.12005223e-002 -1.03269421e-001 3.00473012e-002
      -4.49486263e-002 7.01788440e-002 -4.67208438e-002 -3.03203966e-002
      -6.37464076e-002 -5.82935698e-002 1.03896754e-002 -6.51202211e-003
      9.47259590e-002 1.31765872e-001 1.92417189e-001 3.30414176e-002
      3.21441889e-002 5.09612039e-002 1.43492669e-002 1.23052206e-002
      4.11131904e-002 -3.42579768e-003 3.01339049e-002 -7.93195665e-002
      -1.08328097e-001 -7.22402558e-002 -1.58718321e-002 9.59753320e-002
      -1.63864251e-002 -3.96831408e-002 -4.08028327e-002
      -5.73785715e-002 -8.97669941e-002 -1.96822807e-001
      -1.74551293e-001 -1.91149071e-001 -8.04794133e-002
      -1.02036014e-001 -9.85415205e-002 8.43877792e-002 8.59747306e-002
      2.66715232e-002 -2.64587495e-002 2.12534261e-003 8.44492614e-002
      2.89777573e-002 3.39030735e-002 3.27112004e-002 3.80236469e-002
      -5.05934982e-003 -8.75191856e-003 -1.57234803e-001
      -8.09034035e-002 -1.05430700e-001 -2.63812784e-002 3.19889672e-002
      9.23573226e-002 1.99601743e-002 -2.56725810e-002 5.05780289e-003
      -4.31911051e-002 -1.21848896e-001 -2.98040956e-002
      -5.11884838e-002 2.65085623e-002 2.10867058e-002 -9.02421921e-002
      -6.80632144e-002 -5.70534095e-002 -9.72597003e-002
      -2.54085660e-001 -1.40189409e-001 -8.86946768e-002
      -1.25736371e-001 -3.58242951e-002 5.00575043e-002 3.52666080e-002
      8.04656222e-002 1.64374821e-002 -6.29194602e-002 1.02999732e-002
      8.20697471e-002 1.53672442e-001 1.55089542e-001 1.01365792e-002
      1.18702665e-001 1.09219439e-001 -9.71236080e-002 -1.74282521e-001
      1.19393744e-001 7.05360845e-002 7.49528408e-002 5.08732200e-002
      -6.89680502e-002 5.65597601e-002 3.59763093e-002 -3.09236702e-002
      -1.38964266e-001 -1.94550067e-001 9.79279205e-002 -4.40127738e-002
      -1.29384160e-001 -3.04125529e-003 4.28343415e-002 5.70700280e-002
      3.87377515e-002 -8.34932551e-002 -2.95605697e-002 -1.04435079e-001
      -9.16744694e-002 -1.20473064e-001 2.42703501e-002 1.20371379e-001
      1.02676243e-001 -7.95488209e-002 -2.32276022e-001 1.32874842e-003
      7.47947246e-002 -3.52279916e-002 -3.14240493e-002 5.53987958e-002
      3.92683931e-002 1.50925564e-002 -6.33595288e-002 -1.75519899e-001
      -1.30284810e-002 8.08388218e-002 1.94745604e-002 -2.05945838e-002
      -2.92830057e-002 2.46246774e-002 -1.23722637e-002 -3.04954387e-002
      6.84789345e-002 -1.62499212e-002 -1.20749235e-001 -2.21433744e-001
      -8.32232684e-002 1.04609514e-002 -1.27861360e-002 1.84060801e-002
      5.66637926e-002 3.62555534e-002 -1.49736861e-002 -2.87232213e-002
      -9.08672996e-003 4.83519770e-002 -6.21273927e-002 -2.99055316e-002
      -1.34279564e-001 -4.72538471e-002 -7.35594481e-002
      -1.15030110e-001 -1.09411955e-001 -2.11491846e-002
      -6.20348714e-002 1.81444734e-002 6.24828711e-002 -1.20955985e-002
      5.75224943e-002 -1.72864735e-001 -1.51924759e-001 9.96274129e-002
      7.54249915e-002 1.15544058e-001 4.37127873e-002 4.98681590e-002
      -1.24006495e-001 -3.31319034e-001 -7.62833357e-002
      -5.86817376e-002 1.80098951e-001 1.08125664e-001 1.16600633e-001
      -9.59574506e-002 -1.56658012e-002 -1.64735153e-001 8.06538910e-002
      5.36767654e-002 3.46954516e-003 4.66356464e-002 -5.47361039e-002
      -2.56117024e-002 1.52601629e-001 1.45279869e-001 -9.91210528e-003
      -8.63280147e-002 -2.26431433e-002 -6.44213101e-003 1.16049416e-001
      2.03471586e-001 1.63568243e-001 -7.73504516e-003 9.62959751e-002
      2.74801087e-002 1.52408749e-001 1.65166527e-001 1.23377912e-001
      3.57437991e-002 7.71867260e-002 2.15478353e-002 -7.59000555e-002
      -7.59180337e-002 -7.78030977e-002 -1.11237451e-001
      -9.50875431e-002 -1.23423137e-001 -1.39882237e-001
      -1.12050585e-001 -5.11092395e-002 1.57623529e-003 -9.68058035e-002
      4.10125107e-002 -3.86144705e-002 -9.54652205e-002 -9.33840424e-002
      -9.29286256e-002 6.10629795e-003 -2.20035110e-003 -4.89694737e-002
      5.10006547e-002 6.90146908e-002 3.38693075e-002 6.29808679e-002
      3.57711292e-003 -1.06933050e-001 -6.95995167e-002 -7.36563280e-002
      7.76582062e-002 1.34877443e-001 1.21595338e-001 3.65254432e-002
      7.68322572e-002 1.36778265e-001 5.22089228e-002 3.46768983e-002
      1.03210779e-002 -1.93050221e-001 -1.58979416e-001 -5.73099665e-002
      -8.31195563e-002 -1.55819610e-001 -1.94710746e-001
      -1.68511957e-001 -4.20308597e-002 -1.33879557e-001
      -1.13168821e-001 8.16220790e-003 6.48690015e-002 1.82045202e-004
      -5.83668705e-003 4.77607809e-002 2.06998456e-002 2.61013187e-003
      -4.57415543e-002 -1.25573024e-001 -1.67960320e-002 1.92935281e-002
      -9.96676646e-003 -2.34679673e-002 -6.03562221e-003
      -3.41932359e-003 -3.92892361e-002 -1.09631553e-001 5.13542034e-002
      9.93087366e-002 1.06191970e-001 1.07098311e-001 7.32146576e-002
      1.25854224e-001 1.62953913e-001 6.05226010e-002 6.59319907e-002
      -1.82780102e-001 -7.22874403e-002 -1.21442646e-001
      -1.49923444e-001 7.68540613e-003 1.16033368e-001 1.91319583e-003
      -3.42710167e-002 -8.48328471e-002 -9.03064385e-002
      -1.02431223e-001 -5.29829487e-002 -9.21762213e-002
      -1.46976337e-001 -1.52244642e-001 -4.28443514e-002
      -7.76636899e-002 -9.03312564e-002 3.32259834e-002 2.29010805e-002
      3.67140286e-002 2.77778096e-002 5.93889020e-002 6.90446496e-002
      1.34860098e-001 5.58493473e-002 1.01573259e-001 1.69288311e-002
      -1.74403843e-002 5.97366877e-002 2.78670378e-002 1.24569066e-001
      8.05801451e-002 1.11039691e-001 1.91299559e-003 -4.41481471e-002
      -8.70835930e-002 -3.35712507e-002 3.28083523e-002 -3.61664221e-002
      -1.24171183e-001 -1.51643991e-001 -3.15813087e-002
      -6.03000708e-002 -5.63546270e-002 -2.01802209e-001
      -3.46914455e-002 -8.09032917e-002 -1.02712952e-001
      -2.05603406e-001 -5.18438295e-002 -1.02771401e-001
      -7.72928596e-002 -1.98497504e-001 3.42056490e-002 5.21098301e-002
      1.62018135e-001 1.02060437e-001 1.01608507e-001 9.93382931e-002
      1.35401085e-001 4.97003123e-002 -1.77987628e-002 -9.28310677e-002
      5.12570664e-002 1.06335513e-001 2.46681310e-002 2.59223132e-004
      5.93689224e-003 1.15188614e-001 6.44388497e-002 -1.01183981e-001
      -1.54240593e-001 2.08653137e-002 -2.70491857e-002 -5.44296950e-002
      -1.48688152e-001 4.45123389e-002 1.26546733e-002 -3.18709984e-002
      -9.65636522e-002 -1.70033380e-001 -7.42969662e-002
      -2.03121781e-001 -4.80475686e-002 -1.74801946e-001
      -8.37945715e-002 -6.15216643e-002 -2.75407303e-002
      -1.23670444e-001 -1.74745116e-002 9.64032114e-002 3.70838232e-002
      9.15412754e-002 3.45529579e-002 7.71483853e-002 1.15108810e-001
      1.34450242e-001 3.73875350e-002 9.34260339e-003 1.08080739e-002
      -6.72682226e-002 6.62904456e-002 -1.22982778e-001 1.00848258e-001
      1.09485477e-001 5.27920984e-002 9.40080807e-002 -1.35045480e-002
      -2.76269522e-002 -1.99574992e-001 -7.02425614e-002
      -9.41348225e-002 -5.81604689e-002 -4.29131016e-002
      -9.15878266e-002 -6.32283464e-002 1.13353953e-001 1.23252153e-001
      -4.60170619e-002 2.33275723e-002 -1.58599854e-001 -2.12594077e-001
      -3.64783742e-002 -2.88077723e-002 6.28492460e-002 2.30729356e-002
      6.92934170e-002 -1.32974967e-001 -2.53540371e-002 -2.59124972e-002
      8.08682442e-002 7.93921575e-003 -9.86341089e-002 -6.60617976e-003
      1.04706548e-001 2.05478355e-001 -6.44878447e-002 1.56335216e-002
      -1.43733665e-001 -8.67643654e-002 -8.89574364e-002
      -1.40887037e-001 7.72786792e-003 1.28065988e-001 5.63221946e-002
      -1.06877713e-002 -1.77780524e-001 -9.67834070e-002 6.41384348e-002
      1.16907563e-002 1.90566689e-001 1.31729066e-001 -3.22417356e-002
      -4.22753347e-003 5.81789995e-003 4.81675193e-002 2.43495435e-001
      1.26021802e-001 -4.09949347e-002 1.29501611e-001 1.66796725e-002
      1.58768639e-001 1.54949680e-001 -8.80914778e-002 -1.91093281e-001
      -9.03035551e-002 -1.79454505e-001 -6.62718043e-002 1.16694391e-001
      7.91237131e-002 4.80159894e-002 3.18248058e-004 2.09540054e-002
      3.93086933e-002 1.52182609e-001 9.22543779e-002 3.89267923e-003
      5.03014438e-002 4.56913933e-003 -1.08360074e-001 -6.92014098e-002
      6.58529112e-003 3.48296389e-002 1.31501541e-001 -1.02315145e-002
      -2.49533057e-001 -1.38512850e-001 -1.34122983e-001
      -4.39129546e-002 1.63711943e-002 -3.51582356e-002 3.63763310e-002
      1.52942017e-001 2.21267506e-001 2.43057311e-002 -9.57563594e-002
      -5.24339192e-002 -9.11774114e-002 -1.07645832e-001
      -7.58996308e-002 1.84797379e-003 1.59029230e-001 -2.82252929e-003
      -1.05104417e-001 -1.64778367e-001 -1.01173125e-001
      -2.20087077e-002 -7.83266053e-002 -2.11812779e-002 9.23196301e-002
      1.07351512e-001 1.32390410e-001 7.39488527e-002 2.37285569e-002
      1.14229441e-001 -9.39181894e-002 -7.23583773e-002 -7.12004825e-002
      1.82348508e-002 -2.13923026e-002 -3.14086676e-002 -6.97578862e-002
      -9.58364233e-002 -9.96242464e-002 6.05136454e-002 1.54043501e-002
      7.89468661e-002 1.42062828e-001 6.34703264e-002 -6.26329146e-003
      1.41968224e-002 -2.78585497e-002 -5.93475346e-003 -1.33828074e-001
      -1.97580948e-001 -2.92460956e-002 -1.91396847e-002
      -3.00438087e-002 -3.32527123e-002 -8.38973559e-003
      -7.13088438e-002 1.40743582e-002 -5.45938909e-002 2.99707241e-003
      2.06245352e-002 8.83873254e-002 2.17162985e-002 -1.89516842e-002
      1.66327544e-002 -3.51880454e-002 -3.24335806e-002 -8.04557279e-003
      -7.83717409e-002 -6.86276630e-002 -1.40458373e-002
      -2.78599635e-002 -1.26158550e-001 -3.55746038e-002
      -1.26614422e-001 -2.49920115e-002 -1.57850273e-002
      -1.21958204e-001 -4.39978912e-002 -4.60434146e-002 6.71716407e-002
      9.77186188e-002 4.87272739e-002 -6.97128400e-002 -5.92958890e-002
      -1.00014210e-001 -2.74935011e-002 -1.12832263e-001
      -1.74564880e-003 -1.35102838e-001 -1.08932428e-001
      -1.03941925e-001 -9.46825221e-002 -1.24703377e-001
      -1.18299186e-001 -9.00520533e-002 -1.14296898e-001
      -8.39120671e-002 -1.05207048e-001 -4.54069022e-003
      -5.82954148e-003 -9.06237885e-002 -1.07511580e-001
      -3.07269227e-002 -2.68461145e-002 4.19599637e-002 1.26369726e-002
      4.43850048e-002 3.72205228e-002 4.89332415e-002 -4.89969477e-002
      -7.06480220e-002 -2.28801835e-003 -7.60794505e-002 4.04432323e-003
      7.61902239e-003 -4.91848700e-002 -8.87077376e-002 -4.46504019e-002
      -1.23338915e-001 -1.55809164e-001 2.04695873e-002 -1.78986304e-002
      -2.07017139e-002 5.11651952e-003 -2.52085347e-002 -6.68717772e-002
      7.62298796e-003 -6.37777671e-002 -2.38934066e-002 3.43946362e-004
      -8.10596794e-002 -5.72684705e-002 -2.11559087e-002
      -1.40493572e-001 -1.44942179e-001 -1.16635419e-001
      -1.15620814e-001 -6.92911521e-002 -3.21773402e-002 1.00974482e-003
      4.83964832e-005 1.30098850e-001 2.06849780e-002 -2.12566950e-003
      5.37392832e-002 -1.09523991e-002 -1.05286792e-001 -7.17345700e-002
      -1.08304456e-001 -5.36937341e-002 7.42892176e-002 -6.77209347e-002
      -7.28324354e-002 -8.77019688e-002 -4.21041921e-002
      -9.16373059e-002 2.29759309e-002 -7.51256049e-002 -7.11418688e-002
      2.27380339e-002 -1.35719543e-002 3.69972214e-002 4.39563952e-002
      3.49576329e-003 1.02225533e-002 -8.27732868e-003 -1.47871077e-001
      -4.71418835e-002 -5.59531013e-003 -1.05644122e-001 2.02752110e-002
      3.96407880e-002 -8.77050236e-002 -9.74755734e-002 6.18050285e-002
      4.25866134e-002 -3.33276950e-002 1.36412993e-001 1.16604418e-001
      6.39001355e-002 -3.55896540e-002 -9.27494653e-003 5.74165620e-002
      3.23894955e-002 8.04971308e-002 -7.24885762e-002 -4.07057852e-002
      -1.00532524e-001 -6.77224696e-002 2.82267341e-003 -5.88244759e-002
      2.46941540e-002 8.83550122e-002 9.63790063e-003 1.24929696e-002
      1.41822860e-001 9.71677154e-002 9.04191751e-003 -6.90226331e-002
      8.00109729e-002 8.02782476e-002 9.13933739e-002 2.56717298e-002
      -1.60258040e-001 5.91940247e-002 -1.26149073e-001 -7.23392889e-002
      -2.15252060e-002 6.50572702e-002 1.74871430e-001 1.75510705e-001
      1.27890229e-001 -1.43959709e-002 -1.38043344e-001 -3.08046062e-002
      -2.25802571e-001 -1.16039090e-001 -9.61395074e-003 8.69805217e-002
      4.90837637e-003 1.14488624e-001 -5.33938929e-002 1.26435786e-001
      1.85672686e-001 1.20091051e-001 6.00879118e-002 -1.36845827e-001
      -1.23502072e-002 1.55267149e-001 1.19137734e-001 -6.52239099e-002
      -2.26057559e-001 -3.12004406e-002 3.80481370e-002 -7.37605914e-002
      -8.54113102e-002 6.51510060e-002 -1.86018040e-003 2.63841152e-002
      -8.77017006e-002 5.33037670e-002 1.52502015e-001 2.62397230e-001
      1.31769672e-001 -8.80020708e-002 8.09840299e-003 -5.32298237e-002
      6.95219710e-002 -3.12642716e-002 2.24526692e-002 1.32919788e-001
      5.61173707e-002 -2.24601084e-004 -6.48776442e-002 -8.63541737e-002
      2.74337213e-002 4.29592989e-002 7.49317855e-002 1.50407314e-001
      -2.04246491e-003 5.88369034e-002 7.45664015e-002 1.36814371e-001
      1.02370091e-001 1.27189243e-002 -5.14992699e-002 -1.17514603e-001
      -4.53730300e-002 1.46617800e-001 5.69488034e-002 2.61632036e-002
      -1.45230979e-001 -1.56075284e-001 1.61978863e-002 -1.21589340e-002
      -7.48513862e-002 -5.82829416e-002 5.74210845e-002 9.41279978e-002
      2.46655345e-002 6.16902299e-003 -5.61763756e-002 3.68056633e-002
      -1.03515215e-001 -5.09049669e-002 2.96069756e-002 -2.16768850e-002
      -3.10261697e-002 1.20452121e-001 1.45502269e-001 1.53822705e-001
      1.03174008e-001 -1.28817121e-002 3.98553722e-002 1.02694608e-001
      8.71232226e-002 -2.76343115e-002 1.02091901e-001 5.40316068e-002
      1.14859246e-001 -2.12507416e-002 -2.13883072e-001 -1.40163183e-001
      -1.37163833e-001 -8.45641568e-002 -3.02146822e-002
      -7.52300248e-002 6.23959564e-002 5.20349629e-002 3.71976420e-002
      -8.82835165e-002 1.11541850e-002 3.61722335e-002 2.95405556e-002
      -3.46535258e-002 -4.87936065e-002 -1.02166273e-001
      -5.06265042e-003 6.26802631e-003 8.73243902e-003 7.22989514e-002
      8.45084861e-002 -8.08308076e-004 -9.96377040e-003 5.77306747e-002
      -4.02190536e-002 1.43096391e-002 -4.97210771e-002 -1.12895789e-002
      3.58488075e-002 2.25320947e-003 7.11432565e-003 5.80952130e-002
      4.22852375e-002 -6.32036477e-003 -2.63405647e-002 -5.52557670e-002
      -8.53383690e-002 1.42682819e-002 2.78693363e-002 -1.06204115e-001
      1.72479451e-002 -8.30228627e-002 -1.33945301e-001 -1.33623749e-001
      -1.20705329e-001 -4.42220382e-002 4.23783623e-003 -6.48905560e-002
      -3.18761207e-002 2.28482876e-002 -8.88497531e-002 -1.76502720e-001
      -1.11173742e-001 2.94645987e-002 7.32466429e-002 8.92277882e-002
      3.82676013e-002 1.09862007e-001 1.62292235e-002 1.36362938e-002
      -2.81299395e-003 8.29732046e-002 8.45493972e-002 -1.63810737e-002
      2.50134561e-002 -3.66239040e-003 -5.14643155e-002 2.93301581e-003
      -6.33831471e-002 -3.79691087e-002 8.57076868e-002 -1.36521459e-001
      -8.48169066e-003 -8.38462636e-002 -1.40426261e-002 7.45821446e-002
      5.44808991e-002 6.56253798e-003 -1.79126874e-001 -1.58392772e-001
      -2.53602322e-002 -2.12345887e-002 4.26849239e-002 -1.73706915e-002
      -1.03476316e-001 -6.78870156e-002 -4.54941206e-002
      -1.37760922e-001 -1.31237088e-002 7.85682350e-002 -6.59825280e-002
      -6.33557439e-002 -5.52953966e-002 5.08633777e-002 8.05214942e-002
      1.64922196e-002 7.71381799e-003 5.13183400e-002 7.74358574e-004
      -1.13506317e-001 -1.11939855e-001 -1.77155454e-002
      -7.17450380e-002 8.05458352e-002 -2.50297319e-002 -7.06792176e-002
      5.94613468e-003 -4.99264672e-002 -1.08087346e-001 7.35406429e-002
      -1.66390073e-002 7.23991767e-002 7.65481871e-003 7.47584999e-002
      -1.21278435e-001 -9.26039368e-002 -9.16408673e-002
      -1.56149104e-001 -1.08399868e-001 -3.25630866e-002
      -1.51882291e-001 4.34156656e-002 -4.42336649e-002 -1.51300311e-001
      -2.24297985e-001 9.24637765e-002 1.87212117e-002 -9.50760301e-003
      6.72049448e-002 6.43130206e-003 -4.48544994e-002 3.35307680e-002
      1.12852745e-001 8.89839828e-002 6.98985606e-002 -1.03257438e-002
      -1.68026656e-001 -5.23570925e-002 -4.77700792e-002
      -2.51246095e-002 2.04353146e-002 1.18587941e-001 1.28624216e-001
      -3.81764323e-002 3.19451727e-002 -7.21203759e-002 -7.29423910e-002
      -1.24675892e-001 5.25278859e-002 1.36463463e-001 1.71309367e-001
      -6.68579414e-002 -5.35104945e-002 -9.46301818e-002
      -2.45953262e-001 -1.47044078e-001 -1.25173062e-001 5.49878776e-002
      1.03324004e-001 1.16227910e-001 -4.83520329e-003 1.25752583e-001
      1.48127362e-001 -4.96572144e-002 -2.27511108e-001 -3.14736776e-002
      1.03146389e-001 2.72817425e-002 -1.11000435e-002 7.87875131e-002
      4.63206358e-002 3.65353078e-002 -1.02545217e-001 -4.31979075e-002
      6.40284419e-002 1.11940101e-001 9.40125287e-002 -5.48610836e-002
      -1.09223425e-001 7.76487291e-002 1.51121780e-001 -4.44383584e-002
      -9.28876474e-002 -6.60315529e-002 7.82386735e-002 1.62890434e-001
      9.85106528e-002 3.78789529e-002 4.70655672e-002 1.19288683e-001
      -4.91374768e-002 -5.52235730e-002 -1.06204428e-001
      -2.99464236e-003 -2.49846485e-002 -7.89380819e-002
      -7.43983462e-002 8.61758515e-002 4.65006121e-002 -1.16210744e-001
      -1.23669505e-002 7.10694045e-002 4.01621424e-002 1.01505607e-001
      -9.47243720e-002 -2.47110650e-002 1.03912659e-001 8.54831636e-002
      8.21405370e-003 2.08216030e-002 1.13377392e-001 1.14709355e-001
      -8.30787271e-002 4.70118225e-002 6.29142225e-002 5.64180762e-002
      1.23992063e-001 -1.60912592e-002 -6.15110099e-002 -2.62566879e-002
      -2.17104936e-003 3.19987535e-002 -1.95477400e-002 -4.32147607e-002
      -8.66395142e-003 -2.02430114e-002 5.07897660e-002 -2.92494055e-002
      2.62040570e-002 2.73281075e-002 1.01432905e-001 -2.61786915e-002
      5.30022429e-004 1.14363082e-001 6.09680042e-002 2.57697906e-002
      -5.34220971e-003 3.96212079e-002 1.96266882e-002 5.21351211e-002
      1.14817724e-001 6.85114712e-002 1.20560810e-001 5.79063110e-002
      9.39470679e-002 7.87954852e-002 3.46514918e-002 6.30971566e-002
      1.27575338e-001 1.36100706e-002 5.60086370e-002 -8.85843392e-003
      -8.80805254e-002 -1.42560089e-002 -5.99226616e-002
      -3.98603752e-002 -5.41018322e-002 -4.15555649e-002 2.59682816e-002
      -2.19705720e-002 3.30209360e-002 -3.25944871e-002 9.81204957e-002
      2.63420539e-003 -1.16418250e-001 -6.31355261e-003 2.99486369e-002
      2.52892971e-002 1.01408094e-001 9.79094654e-002 6.48438707e-002
      1.46622270e-001 2.60458570e-002 -2.97184940e-002 -6.21956177e-002
      -8.10582638e-002 -5.22003919e-002 3.98984142e-002 2.15048250e-002
      5.52376360e-002 1.16018228e-001 2.49339361e-002 -1.68013051e-002
      5.71129844e-002 1.72448363e-002 6.06624270e-003 -1.01711378e-002
      1.22427633e-002 -1.06051333e-001 3.54843736e-002 -6.61340430e-002
      -9.85156298e-002 -1.47626877e-001 -8.63423198e-002
      -3.98638286e-002 4.05562744e-002 -7.65843019e-002 -9.42213833e-002
      -2.85610161e-003 -4.34180386e-002 3.78039517e-002 -7.41166174e-002
      8.21190700e-002 -3.06853987e-002 -1.18740052e-001 1.61727220e-002
      5.32737933e-002 2.56856810e-002 -9.29249264e-003 7.43338242e-002
      8.27289224e-002 1.94595698e-002 3.99467237e-002 1.59421936e-002
      2.42692530e-002 5.43125980e-002 1.20638952e-001 1.11723868e-002
      -5.39020859e-002 -2.57185902e-002 -5.31936646e-004
      -9.47363749e-002 6.85118437e-002 -8.63254443e-002 -2.81341691e-002
      6.45198524e-002 -1.02080874e-001 3.87142934e-002 -5.86458147e-002
      -5.69029758e-003 1.13152359e-002 -1.09031729e-001 -1.25504300e-001
      -6.11572824e-002 6.83503365e-003 -8.58458802e-002 -1.56400830e-001
      -1.72511816e-001 -4.06969674e-002 -1.55363783e-001
      -1.47942707e-001 -2.48090681e-002 -7.34976679e-003 1.07374810e-001
      -2.37720665e-002 2.25681942e-002 2.63490938e-002 3.45789492e-002
      -4.84372117e-002 1.06627923e-002 -5.50591126e-002 3.52168344e-002
      6.07168376e-002 -1.85319185e-002 -9.41350237e-002 9.11885127e-002
      -1.40616139e-002 -5.32715246e-002 -1.53691955e-002
      -1.24260969e-001 -1.99594900e-001 -2.29184777e-002
      -9.36778337e-002 -6.98007941e-002 -1.06773078e-001
      -4.36296463e-002 -1.23471506e-001 -1.21919610e-001
      -1.01544634e-001 3.87275242e-003 9.83313844e-002 -2.49116067e-002
      -9.59812850e-003 -8.56028125e-002 -9.03345495e-002
      -1.71006098e-001 -2.09558859e-001 -8.76116231e-002 5.72461188e-002
      -6.58880994e-002 -1.52071968e-001 -9.10674259e-002 8.43383297e-002
      1.21498048e-001 1.47000894e-001 3.03064585e-002 -5.89341670e-002
      1.40731931e-002 -1.51845321e-001 -1.15395226e-001 -1.60141468e-001
      -8.47182199e-002 1.00967199e-001 1.52752042e-001 5.70269786e-002
      -2.59889942e-002 7.23616257e-002 6.17695414e-002 -7.23798275e-002
      -5.56996875e-002 -6.96227103e-002 -1.18022300e-002
      -3.57216201e-003 -3.20552513e-002 -3.97347100e-002
      -4.02175065e-004 -7.51714557e-002 -2.39475533e-001
      -1.84639856e-001 -1.51969388e-001 -6.05545193e-002
      -5.96345961e-002 9.16516408e-003 2.03119829e-001 1.18133843e-001
      1.03858307e-001 2.29607187e-002 -2.19942760e-002 -1.00994734e-002
      1.71367124e-001 -4.16651219e-002 4.99261133e-002 4.64323796e-002
      7.70858526e-002 6.07457422e-002 -1.31270289e-001 -9.36844125e-002
      -1.13490194e-001 -1.62953943e-001 -1.53569564e-001
      -2.09805191e-001 2.11640865e-001 6.33042008e-002 1.75402820e-001
      2.94799898e-002 1.07211635e-001 -6.19529039e-002 2.24177629e-001
      -3.15976851e-002 1.12139054e-001 1.42284837e-002 -9.09581967e-003
      9.37633961e-002 -9.18584093e-002 -2.52611302e-002 4.13135365e-002
      2.53529642e-002 -1.31038412e-001 -7.30577037e-002 9.46421772e-002
      1.45647123e-001 1.15716122e-001 -8.11706670e-003 6.31054565e-002
      1.66491047e-002 -1.15084730e-003 4.48272303e-002 -1.01428941e-001
      -6.61216630e-003 6.93374425e-002 5.85684888e-002 -8.36906061e-002
      -1.25312731e-002 -9.41542983e-002 2.63205506e-002 1.33771412e-002
      -1.65380225e-001 5.20557649e-002 5.51200546e-002 3.36467512e-002
      7.93159287e-003 7.09704682e-002 4.83248830e-002 9.74218845e-002
      -3.36577208e-003 3.20118740e-002 -1.27754450e-001 -2.42544785e-002
      2.47819610e-002 -9.51075703e-002 -2.26289220e-002 -1.44041121e-001
      -5.33835823e-003 -1.04450420e-001 -8.15407857e-002
      -5.19102737e-002 -6.62219897e-002 5.31621650e-002 -3.29760946e-002
      -1.11936042e-002 -4.35883962e-002 -8.68607610e-002 4.82389033e-002
      -9.89010707e-002 9.45872813e-003 5.58855757e-002 1.18090317e-001
      -6.76786620e-003 -3.54692782e-003 6.82380572e-002 7.37569481e-002
      1.22131318e-001 1.22263759e-001 -1.63781419e-001 -6.51641935e-002
      4.77202162e-002 -5.37053077e-003 -3.22222002e-002 -1.02615446e-001
      -7.22438395e-002 -1.20152002e-002 -5.40406182e-002 8.89579207e-003
      8.23719334e-003 1.26398392e-002 -2.00662781e-002 -3.01295519e-002
      -3.92105393e-002 -2.51941770e-001 -1.83864776e-002 1.79154694e-001
      -5.88225266e-005 8.49361271e-002 1.01136588e-001 4.14282456e-002
      8.04034472e-002 4.09175381e-002 6.68456331e-002 7.09730908e-002
      9.31733102e-002 -4.26567122e-002 2.93846503e-002 4.21539955e-002
      2.55268328e-002 1.25338674e-001 4.69653346e-002 1.32039219e-001
      5.39436303e-002 -8.50459374e-003 -3.76916341e-002 7.64446631e-002
      3.90325151e-002 9.68096331e-002 5.48016690e-002 2.81810462e-002
      -2.39706546e-001 -1.24913625e-001 -5.25072515e-002 7.75133818e-002
      -6.60498813e-002 -5.54918759e-002 -1.67505629e-002 8.86339173e-002
      1.37562588e-001 -6.28787726e-002 -1.31814748e-001 -2.13920288e-002
      -1.73152685e-002 8.00874382e-002 5.85209951e-002 -4.13236842e-002
      8.12471285e-002 8.05997178e-002 1.23485796e-001 8.88601691e-002
      -4.61205142e-003 -3.66491936e-002 8.69809911e-002 3.07597276e-002
      5.78495814e-003 -6.00283872e-003 -2.33396795e-003 4.56810072e-002
      -9.47646890e-003 -3.29484716e-002 -4.89631854e-002
      -1.20061941e-001 -8.84733126e-002 -1.31019831e-001
      -1.70463353e-001 -3.27716261e-004 -2.40992960e-002
      -7.47131035e-002 -1.19744115e-001 -7.94178843e-002
      -6.51129186e-002 3.74326445e-002 3.03983372e-002 -4.64965664e-002
      2.52593644e-002 1.81643385e-002 -1.97572839e-002 -1.14932232e-001
      1.33395633e-002 -9.36124194e-003 -6.46745563e-002 -6.20278120e-002
      2.29014587e-002 -1.39997909e-002 6.36802521e-003 3.17127965e-002
      5.02315536e-002 -2.16950495e-002 6.24567121e-002 1.53615996e-001
      -6.44953698e-002 1.08342819e-001 -2.71117277e-002 3.92107703e-002
      1.56385265e-002 1.03869122e-002 -1.57891363e-001 9.21826530e-003
      1.04104415e-001 6.33728802e-002 6.04029894e-002 4.64088395e-002
      -4.33352552e-002 -1.83640830e-002 -9.54689905e-002
      -1.88073054e-001 -4.92952131e-002 -2.42344812e-002
      -9.98561606e-002 5.25919646e-002 5.37677892e-002 4.32830900e-002
      -1.12387553e-001 -2.71131366e-001 -8.62726793e-002
      -1.13095846e-002 8.60901326e-002 -1.13206707e-001 2.85628997e-002
      6.04107790e-002 -1.27262836e-002 2.59924717e-002 6.71214014e-002
      -6.44459501e-002 9.45744216e-002 1.26929969e-001 -6.29483387e-002
      -9.23540443e-002 -8.23573843e-002 2.06158240e-003 8.05181786e-002
      1.12349294e-001 -1.25815168e-001 -2.62744278e-002 2.57318728e-002
      -6.48808628e-002 4.81948303e-003 1.06126122e-001 5.62019460e-002
      -1.18783070e-003 -1.19390093e-001 -3.15697491e-002 1.34143848e-002
      7.38137364e-002 -4.73397970e-002 -8.69370773e-002 -9.32488963e-002
      6.34768382e-002 5.98680489e-002 4.70312908e-002</_>
    <_>
      1.40737176e-001 2.95109600e-001 1.14522748e-001 -2.51222402e-003
      5.04038930e-002 5.80493435e-002 1.23813346e-001 2.07354218e-001
      -1.02653913e-002 -9.49093774e-002 -3.24177891e-002
      -2.96258982e-002 1.09703608e-001 2.19369650e-001 -9.75278765e-003
      5.43699823e-002 -5.50157055e-002 -2.19606340e-001 1.98293835e-001
      1.35508463e-001 -2.07889572e-001 -9.51251462e-002 9.19108186e-003
      -2.13301525e-001 2.73026992e-002 1.43688032e-002 1.45540431e-001
      -2.04680443e-001 -2.92230457e-001 -1.97835535e-001
      -1.33687392e-001 6.64075762e-002 -1.25604764e-001 -3.65093583e-004
      -4.19082940e-002 -1.26809284e-001 -3.95941660e-002 9.62375998e-002
      5.57935052e-002 2.55945742e-001 3.87770563e-001 6.03843778e-002
      5.72068710e-003 -6.97986931e-002 -1.31023392e-001 -2.29075745e-001
      7.28405342e-002 -1.57459050e-001 5.27982749e-002 2.04433098e-001
      -7.38080367e-002 -6.16617538e-002 -8.60660896e-002
      -2.69142628e-001 -9.70505774e-002 -8.75126291e-003 7.86680728e-002
      1.16520628e-001 2.33118758e-001 -6.28088713e-002 7.37249479e-003
      3.74154560e-002 -4.64465097e-002 -4.82096821e-002 -9.10443515e-002
      -2.04376012e-001 -7.85898566e-002 -2.76115760e-002
      -1.54700771e-001 -2.09697932e-002 -1.04780495e-001
      -1.28624886e-001 -5.92501201e-002 1.37996316e-001 -4.17942181e-002
      -5.84167708e-003 1.22835927e-001 -3.30925435e-002 8.60768035e-002
      6.22798642e-003 -1.06908470e-001 -2.15686321e-001 -5.37990630e-002
      2.01729219e-003 -6.78318217e-002 -1.55250683e-001 -2.98652612e-002
      -2.95469891e-002 2.97738728e-003 -1.72588110e-001 4.34919149e-002
      -2.71716844e-002 -1.31598547e-001 -4.34547924e-002 3.14110480e-002
      -6.86767846e-002 5.47466427e-002 4.00460288e-002 -4.99299243e-002
      -7.64436945e-002 -1.27489418e-001 -9.70622674e-002
      -1.49156749e-001 -2.19240431e-002 -4.76517975e-002 3.06003205e-002
      1.88439824e-002 -8.34182873e-002 -2.16639876e-001 -8.80481005e-002
      4.70262021e-002 4.45277343e-004 -6.67664185e-002 -2.53787506e-002
      -4.98045310e-002 2.50093862e-002 -4.22398150e-002 -1.84336081e-001
      -6.56976476e-002 6.80126250e-003 4.00043055e-002 -5.46730906e-002
      -1.08665898e-001 -9.65588391e-002 4.45225015e-002 -9.49632600e-002
      -1.76562443e-001 -1.88989922e-001 -4.54784036e-002 1.94030292e-002
      6.16180860e-002 -5.66671416e-002 -1.32883983e-002 -6.55189753e-002
      -4.76723984e-002 -1.63014963e-001 -1.42005458e-001
      -1.31987602e-001 -8.54893215e-003 8.39504227e-002 -1.27685204e-001
      -9.00930017e-002 -5.66222845e-003 -4.63264957e-002
      -1.80483580e-001 3.19169983e-002 8.50944445e-002 3.78141664e-002
      1.47924200e-001 -1.76650230e-002 -3.00493892e-002 -5.60372658e-002
      -2.14412153e-001 -2.07594231e-001 7.83427339e-003 1.50954500e-001
      7.54505489e-003 8.59906524e-002 1.22818105e-001 -1.99097488e-002
      -1.95517913e-002 -1.66532159e-001 -1.55830979e-001
      -2.02273697e-001 -9.19021070e-002 -1.30240142e-001 8.67379531e-002
      -1.23547822e-001 -2.07472429e-001 -1.46164313e-001
      -1.08551905e-001 -1.49030939e-001 -1.51875094e-001
