<?xml version="1.0"?>
<opencv_storage>
<opencv_ml_svm>
  <format>3</format>
  <svmType>C_SVC</svmType>
  <kernel>
    <type>LINEAR</type></kernel>
  <C>1.</C>
  <term_criteria><epsilon>1.1920928955078125e-007</epsilon></term_criteria>
  <var_count>1764</var_count>
  <class_count>6</class_count>
  <class_labels type_id="opencv-matrix">
    <rows>6</rows>
    <cols>1</cols>
    <dt>i</dt>
    <data>
      -1 2 3 5 6 7</data></class_labels>
  <sv_total>15</sv_total>
  <support_vectors>
    <_>
      2.11166933e-001 4.96674068e-002 1.80455491e-001 1.31376818e-001
      8.08420405e-002 -4.36313823e-002 2.05302298e-001 9.56480056e-002
      1.74077526e-001 -1.20226085e-001 -1.44551322e-001 6.49458095e-002
      -4.42517884e-002 7.01958239e-002 8.36487114e-002 -8.20785835e-002
      -1.69792205e-001 -2.18101963e-001 2.19257370e-001 -9.25127044e-002
      -1.64022818e-002 5.00707552e-002 2.67794100e-003 7.95893148e-002
      9.39434096e-002 -1.52777255e-001 1.24056116e-001 -1.89152062e-001
      -1.87048882e-001 -2.03967214e-001 -4.23420846e-001
      -1.78499430e-001 -1.96823642e-001 -1.72416210e-001
      -2.28596225e-001 -2.12896824e-001 -8.51266682e-002 4.34157513e-002
      8.06106478e-002 7.49250725e-002 2.85749495e-001 8.12775195e-002
      2.20505655e-001 2.17152119e-001 1.76930591e-001 -9.36119929e-002
      -9.20045748e-002 8.83359462e-002 1.29643142e-001 1.75948620e-001
      1.38077242e-002 -9.30334255e-002 -8.86833593e-002 -9.13809147e-003
      -3.32328081e-002 5.87537810e-002 -1.20700654e-002 -1.36800587e-001
      1.92027196e-001 -1.32628540e-002 -1.62256405e-001 1.80222727e-002
      7.79114738e-002 -7.44391382e-002 -2.22669542e-001 -3.11766982e-001
      -3.22064698e-001 -8.49638949e-004 -2.12216467e-001
      -2.27991551e-001 -3.03237349e-001 -9.92465839e-002 5.85866161e-002
      2.09133625e-002 8.65017325e-002 3.66619349e-001 2.06487060e-001
      9.30944458e-002 -2.46752352e-002 1.40534699e-001 4.87106033e-002
      -2.55102850e-002 1.20191857e-001 5.23263961e-002 3.85035962e-001
      -5.62197901e-002 -2.35314295e-002 2.85305921e-003 1.39757559e-001
      -3.31405908e-001 1.50534287e-001 -5.99499308e-002 -3.00392836e-001
      -9.19123963e-002 -3.84622291e-002 -4.78598662e-002
      -1.07332610e-001 -2.18515079e-002 -7.75773227e-002 1.07051559e-001
      -4.96516377e-002 -3.04582477e-001 -3.13700624e-002
      -1.96013227e-001 -3.13412286e-002 7.91817158e-002 -1.70743361e-001
      -1.28679156e-001 -1.06293574e-001 2.47288138e-001 2.60069847e-001
      3.30672711e-001 -1.74989834e-001 1.08853206e-001 1.04550682e-001
      2.50111490e-001 -1.93661582e-002 -3.38426977e-002 1.35126144e-001
      1.42696604e-001 2.26880699e-001 -1.22977771e-001 -1.96200628e-002
      4.60299514e-002 8.29783008e-002 4.95971404e-002 -4.79530878e-002
      4.07547876e-002 -1.19686477e-001 2.55999286e-002 -4.15624678e-001
      3.32256146e-002 -1.05502211e-001 -3.78990942e-003 6.80393949e-002
      -3.09770048e-001 -1.19858347e-001 -9.98318866e-002
      -4.44191173e-002 -3.38940591e-001 -1.22723602e-001
      -6.18413165e-002 -3.49927582e-002 -1.60376206e-001 3.97972129e-002
      1.45769194e-001 -3.86488228e-003 6.43443391e-002 -1.02966666e-001
      1.12790667e-001 1.29652098e-001 -4.01676772e-003 -2.67772432e-002
      -4.74356152e-002 -4.42621112e-002 -5.70471771e-002
      -7.26003349e-002 -2.58663416e-001 1.19990617e-001 1.97500557e-001
      -6.60811588e-002 -2.04345100e-002 -2.23684639e-001
      -2.29900032e-001 -8.03721249e-002 -1.06353521e-001
      -2.25781724e-001 -1.00634992e-001 2.56942511e-002 -4.81163636e-002
      -1.81761444e-001 -2.18151823e-001 -1.14078708e-001 8.49523917e-002
      -6.18682317e-002 -1.53725043e-001 -1.88550025e-001 1.42289609e-001
      -2.04266101e-001 -7.06732050e-002 -1.58713743e-001
      -1.18153289e-001 4.46486436e-002 -1.13684744e-001 -2.80856848e-001
      6.98835477e-002 1.86471850e-001 -2.61449590e-002 -9.30357948e-002
      -1.46130607e-001 4.16306257e-002 2.37692818e-001 1.30978420e-001
      -1.53850555e-001 9.25716609e-002 2.23405674e-001 9.70612168e-002
      -1.70184866e-001 -1.60621762e-001 -1.21296689e-001
      -5.38373701e-002 1.55823212e-003 -2.05911249e-001 -1.09431587e-001
      -1.85512081e-002 -1.18775561e-001 -3.27252485e-002
      -5.08205630e-002 3.49178240e-002 1.16456658e-001 1.12989575e-001
      5.79505078e-002 3.41835320e-002 2.46378154e-001 1.35107964e-001
      1.26733154e-001 -1.34348884e-001 3.31674069e-001 2.87966043e-001
      1.12113141e-001 -3.97873878e-001 -3.75299960e-001 -1.55351758e-001
      -1.89643309e-001 -2.65597910e-001 1.57281533e-001 3.52044076e-001
      3.56696546e-001 3.05634975e-001 5.45667410e-002 -1.58901915e-001
      -1.80822685e-002 6.48383498e-002 2.42744923e-001 -2.58559763e-001
      -1.46015480e-001 -7.10355770e-003 -3.06995977e-002
      -1.97868153e-001 -3.33417773e-001 -9.32284966e-002
      -1.85636044e-001 -1.63932890e-001 -1.14832576e-002
      -5.03049567e-002 1.55354841e-002 5.81330247e-002 -2.15174392e-001
      -1.25887915e-001 -1.01587348e-001 -7.26128444e-002
      -2.56833881e-002 6.94992766e-002 1.31668588e-002 -1.72851220e-001
      -7.76790781e-003 1.67386755e-001 2.97878444e-001 1.70840085e-001
      3.80398408e-002 -1.09926008e-001 -2.23518357e-001 -1.27468452e-001
      -1.51362062e-001 -1.38546869e-001 -6.68463856e-002 2.03410275e-002
      -1.01799762e-003 -6.07469259e-003 -4.71582860e-002 4.56120446e-002
      3.03594440e-001 -1.15215015e-002 -1.08369768e-001 -3.76844592e-002
      -5.36414348e-002 -6.88179359e-002 6.60549030e-002 -1.63918555e-001
      -1.76956624e-001 -2.65452951e-001 -1.14494674e-001
      -2.52150476e-001 -1.31329119e-001 -1.31660014e-001
      -1.55286714e-001 -1.24640085e-001 -2.06540614e-001
      -8.02486241e-002 9.47878361e-002 2.63533611e-002 -1.00508265e-001
      2.09730551e-001 1.01444058e-001 2.90351827e-002 1.03750117e-001
      1.89541638e-001 -2.01503888e-001 1.50915295e-001 -3.54422033e-002
      -2.56879061e-001 -1.94421951e-002 -8.15469027e-002 5.07018454e-002
      -6.95845634e-002 -2.46455386e-001 -2.08888337e-001
      -6.24117106e-002 9.37972739e-002 1.62129879e-001 1.14743121e-001
      4.90816459e-002 -5.76169826e-002 1.84982359e-001 8.32654610e-002
      -2.78252900e-001 -8.92772749e-002 -2.91304272e-002
      -1.88411117e-001 -1.36185855e-001 -2.30165854e-001
      -7.21526220e-002 -1.51975557e-001 -9.33939591e-002 2.04361483e-001
      7.26581141e-002 1.76292602e-002 -1.39125168e-001 1.46432398e-002
      2.59037483e-002 5.27209491e-002 -1.63034052e-002 3.96602824e-002
      8.47907960e-002 -7.59035861e-003 8.78299549e-002 1.18749857e-001
      4.10014316e-002 1.70329556e-001 8.02583247e-002 -9.62834582e-002
      1.45430803e-001 1.04804941e-001 -6.26658229e-003 -8.02990422e-002
      -1.87834412e-001 -2.24773213e-001 -1.09183781e-001
      -1.41877970e-002 -1.65153313e-002 -1.09118484e-001
      -4.31682914e-002 -4.30437289e-002 -1.10552482e-001
      -6.71910048e-002 -2.78404951e-001 1.10628501e-001 -9.33049098e-002
      -7.61771351e-002 -1.11657836e-001 2.49155816e-002 -5.15818857e-002
      -1.28116414e-001 1.86813939e-002 -1.41975909e-001 5.19913398e-002
      1.27816480e-002 -6.73991814e-002 9.83100757e-002 -3.17372441e-001
      -7.30759725e-002 -7.79979825e-002 -1.16102397e-001
      -1.18859140e-002 -1.34440005e-001 6.21372648e-002 -1.91089764e-001
      -7.75262043e-002 3.16624865e-002 -4.64003533e-002 -1.27649724e-001
      -1.48094788e-001 8.15419257e-002 1.32136628e-001 -1.25194564e-001
      -1.05724394e-001 -6.92246556e-002 -1.23929687e-001
      -1.19167067e-001 -2.57713906e-002 -8.63057524e-002 2.13513941e-001
      2.35462524e-002 -3.94259952e-003 -1.34393886e-001 -4.02921773e-002
      -2.51819432e-001 -9.54940915e-002 1.32662235e-002 -2.15296283e-001
      -2.07248759e-002 -2.02737838e-001 -1.16197556e-001
      -1.31600872e-001 -1.00750692e-001 1.02929451e-001 -3.01470160e-002
      5.54463752e-002 -4.23550420e-002 1.31558701e-001 -1.24267109e-001
      2.17302516e-002 6.97942544e-003 8.46717730e-002 -1.59500748e-001
      -1.74689516e-001 -1.00005455e-001 -5.40119633e-002 2.35577002e-002
      -9.29104015e-002 -3.10838908e-001 -8.57819468e-002
      -2.40705863e-001 6.87264800e-002 -2.19597861e-001 -2.43236497e-002
      -7.77313188e-002 1.03540383e-001 -2.25210577e-001 -1.60459056e-002
      -3.33534628e-002 3.59262191e-002 1.04443440e-002 -1.42264307e-001
      -3.08944657e-002 -4.44922363e-003 -1.76610220e-002
      -3.58167857e-001 -8.17807540e-002 -1.89646140e-001 4.14751470e-002
      -6.61643371e-002 -2.47704666e-002 5.09132184e-002 -5.44401705e-002
      2.69863177e-002 -1.30814046e-001 1.37033328e-001 -4.77571413e-002
      3.66898738e-002 -1.40489429e-001 -2.16504857e-001 -5.40487878e-002
      -1.01469323e-001 -1.29266515e-001 -2.63839096e-001
      -6.34346083e-002 -2.16570497e-001 5.61498888e-002 -6.65041581e-002
      4.17035818e-003 7.03897774e-002 6.58482313e-002 -3.55517827e-002
      -1.31980389e-001 9.89608988e-002 1.60166651e-001 -2.83255633e-002
      -1.68373406e-001 -1.38265803e-001 -7.39090815e-002
      -1.12081341e-001 -3.97123806e-002 3.11796460e-002 7.55624175e-002
      -2.49532852e-002 -3.32852863e-002 -3.67773399e-002 1.13720424e-001
      -6.28091348e-003 1.05609395e-001 -3.84901203e-002 -5.18577695e-002
      -1.59338593e-001 -1.80106506e-001 -1.69567108e-001
      -2.19411433e-001 -7.48894066e-002 -2.59400070e-001
      -1.53824791e-001 -1.46960050e-001 -2.10453615e-001 2.48026792e-002
      2.19694618e-002 -1.12074785e-001 -1.02586284e-001 7.11453846e-004
      -6.80829957e-002 -7.64771830e-003 -2.10923865e-001
      -2.23955587e-001 -5.89855528e-003 -1.77335531e-001
      -2.02305838e-002 2.07046598e-001 4.89770889e-001 2.12316543e-001
      5.99061549e-002 -1.17990285e-001 -2.89574284e-002 -9.24016756e-004
      1.78678676e-001 9.69421864e-003 2.04071134e-001 2.53972054e-001
      2.18935553e-002 1.31944403e-001 -8.69551077e-002 -2.54533261e-001
      -5.58885336e-002 4.08181399e-002 5.89049794e-002 -8.81297514e-002
      2.33627021e-001 1.49965614e-001 -4.53047380e-002 4.24266979e-002
      -2.44567599e-002 1.76523432e-001 2.26514503e-001 1.80218861e-001
      9.88868922e-002 6.17735833e-002 -7.19173253e-002 -1.81622624e-001
      -9.65084806e-002 -2.86398858e-001 -1.52851403e-001
      -8.23623016e-002 -6.73396364e-002 1.47477947e-002 8.03347398e-003
      6.00933880e-002 1.71818599e-001 4.98422384e-002 -9.94383320e-002
      -3.78180519e-002 4.25259247e-002 2.23630041e-001 -1.65732130e-001
      -2.30616644e-001 -1.06896207e-001 -6.17055828e-003 8.50893278e-003
      -9.92308259e-002 -6.24995343e-002 -6.47729337e-002 4.21488769e-002
      1.12446696e-002 1.67385004e-002 -2.69419309e-002 1.16981193e-001
      1.45053983e-001 -1.50425509e-001 -6.64310455e-002 -1.13375351e-001
      6.43233061e-002 -3.00314873e-001 -4.38056946e-001 -3.22148770e-001
      -2.02193394e-001 -5.02311289e-002 -7.31465369e-002 3.67733836e-002
      -2.14523494e-001 -1.43596739e-001 -2.10033227e-002
      -1.41394392e-001 -9.80074629e-002 5.01836911e-002 -5.86990863e-002
      4.23047468e-002 -5.14766686e-002 -4.06464189e-002 -1.34192973e-001
      -8.66890624e-002 -7.32988268e-002 -6.71216995e-002
      -1.08750835e-001 -1.81628853e-001 1.23522980e-002 1.28265079e-002
      -3.48090613e-003 -1.66455507e-001 -2.61017948e-001
      -1.33616552e-001 -4.91650887e-002 -1.56375945e-001
      -4.77300771e-002 -2.43018232e-002 -5.18966615e-002
      -1.87532052e-001 -1.87896937e-001 -2.27564007e-001
      -2.30528831e-001 -8.15072209e-002 -3.85815114e-001
      -1.30402103e-001 -2.20630437e-001 -1.40546560e-001
      -1.40935555e-001 -2.23341167e-001 -1.62318096e-001
      -2.29990715e-003 -1.51703209e-001 -1.56735212e-001
      -1.73490882e-001 -1.34291698e-003 -1.26030236e-001
      -1.81221113e-001 -6.75235018e-002 -1.19687065e-001 1.38596326e-001
      2.60639172e-002 -6.96085170e-002 -3.94328870e-002 -1.08694106e-001
      -1.17295593e-001 -1.31404728e-001 -1.39386266e-001
      -1.12233907e-001 -2.74179913e-002 -1.04494371e-001
      -1.83437377e-001 -1.34859234e-001 -2.79340088e-001
      -4.89232764e-002 -1.22584745e-001 -9.87173617e-002
      -1.80516884e-001 3.24253552e-002 -7.01290043e-003 -9.85447615e-002
      7.90825346e-004 -1.73450664e-001 2.00236756e-002 -4.70788358e-003
      -9.64463577e-002 -6.02632109e-003 9.50253829e-002 1.11251213e-001
      7.92512074e-002 -3.32328193e-002 -1.12693250e-001 -2.40187988e-001
      -2.08787799e-001 -1.00441486e-001 1.95970424e-002 -1.57306522e-001
      -6.65436462e-002 -1.12353370e-001 -1.75624773e-001
      -1.32442489e-001 -6.68122619e-002 -1.44742921e-001 4.11112830e-002
      -6.42974749e-002 4.60692570e-002 1.83875680e-001 1.52208274e-002
      1.06748082e-001 -1.86754502e-002 -1.59828275e-001 -2.10473463e-001
      2.75753364e-002 2.41846666e-002 -5.34191821e-003 -6.55308366e-002
      -1.99422330e-001 -9.77203473e-002 -1.83739558e-001
      -1.04479991e-001 -1.81953415e-001 5.28493896e-002 -1.07704900e-001
      -1.25900179e-001 -6.14182316e-002 -1.17374592e-001
      -7.22405463e-002 -2.92787068e-002 -1.17979422e-002
      -1.88890651e-001 -1.96230244e-002 -5.90341352e-002
      -3.63303605e-003 1.52967358e-003 4.62292098e-002 -5.38828410e-002
      -1.57600194e-001 8.22725594e-002 1.70139953e-001 -1.70463640e-002
      -2.11079881e-001 -9.14572477e-002 2.92541664e-002 -6.34954870e-002
      -7.72085041e-002 -2.11885720e-001 -9.80469957e-002
      -2.47024909e-001 -1.52943537e-001 -1.23579800e-001
      -4.14702743e-002 2.74709314e-001 5.11054620e-002 3.75234596e-002
      1.31135192e-002 -2.46863626e-002 -3.30659226e-002 -1.06921330e-001
      -1.17691346e-001 -4.86289635e-002 -1.41226217e-001
      -2.19193280e-001 -2.99894810e-001 -2.66753465e-001 8.35353415e-003
      6.20315783e-002 -4.75899142e-004 2.20660865e-002 8.98122936e-002
      4.45515886e-002 1.83204282e-002 -1.24969952e-001 -2.29050413e-001
      1.20995149e-001 1.62107080e-001 1.30160928e-001 -2.75470287e-001
      -7.90497661e-002 3.89766134e-002 -5.11067659e-002 -1.55902445e-001
      -4.90669720e-002 -1.59174293e-001 -8.79201200e-003
      -2.01804325e-001 7.44222105e-002 1.52930766e-002 1.41857686e-002
      1.03418995e-002 -1.00746244e-001 -1.45801798e-001 2.97552403e-002
      1.85772730e-003 4.59544919e-002 -1.08622380e-001 -7.05405930e-003
      9.42596272e-002 -1.12458885e-001 4.13358174e-002 4.47660647e-002
      1.34936124e-001 2.17706755e-001 2.00318441e-001 -1.30111933e-001
      -7.57461563e-002 9.59026441e-002 -2.28424191e-001 4.41225022e-002
      -2.03761682e-001 -2.14440703e-001 -3.07155754e-002 2.95858495e-002
      -1.93275765e-001 -1.49055362e-001 -1.05777815e-001
      -2.13357016e-001 -9.00665447e-002 -8.06461573e-002 6.41718581e-002
      2.11245105e-001 1.48752943e-001 -1.88417897e-001 -1.76875100e-001
      -1.32926330e-001 -1.92252383e-001 -9.28715169e-002
      -3.11898172e-001 -3.99176270e-001 -1.91223353e-001
      -8.70670229e-002 9.64783803e-002 1.20556448e-002 1.33471116e-002
      4.64355014e-002 2.30889451e-002 -8.21200907e-002 -8.94731879e-002
      -4.37386446e-002 5.65162897e-002 -1.93271279e-001 -1.25349835e-001
      -1.18219703e-001 -1.63657859e-001 4.99649793e-002 3.08106355e-002
      -4.39101830e-002 5.97372465e-002 -2.40343288e-002 -3.01467534e-002
      2.53707282e-002 6.50410056e-002 5.39697632e-002 2.28478983e-002
      -1.84417114e-001 -1.93380296e-001 -1.09175503e-001
      -5.91574088e-002 -1.35269001e-001 -1.76997393e-001
      -1.91186219e-001 -2.72816479e-001 -2.21961334e-001
      -2.60059386e-002 -1.91325732e-002 -1.22618861e-001
      -1.61330819e-001 -1.40069708e-001 3.85484025e-002 -1.12174042e-001
      -2.29610294e-001 -1.11111969e-001 -2.72292700e-002
      -1.55695170e-001 -9.14234594e-002 7.76415244e-002 -7.14561865e-002
      1.53677128e-002 -1.48456961e-001 -3.08833808e-001 -9.48180407e-002
      -1.93765853e-002 -7.98852667e-002 -1.71423554e-001
      -1.12174964e-002 -1.87726915e-001 -9.64127406e-002
      -7.27624819e-002 -2.59383142e-001 -1.49124175e-001
      -1.43452883e-001 -1.17347360e-001 -1.07664540e-001
      -1.70451757e-002 -7.88032785e-002 -1.47473723e-001
      -6.78311586e-002 -2.19589710e-001 -1.54327124e-001 1.24112383e-001
      3.33030522e-002 4.35910262e-002 6.15038350e-002 -2.86519229e-001
      -8.09296295e-002 -1.65491670e-001 -1.61220893e-001
      -4.10294235e-002 -1.90276235e-001 -9.86813083e-002
      -1.64883524e-001 -3.17511737e-001 -2.11561471e-001 8.42959620e-003
      -5.12422547e-002 -4.88872752e-002 3.54912803e-002 -2.10094199e-001
      -5.11142723e-002 4.74669188e-002 -1.92904606e-001 -1.73233524e-001
      -7.62836114e-002 8.07486381e-003 -2.53345072e-001 -1.24582797e-001
      8.60064384e-003 2.30834037e-002 2.93155890e-002 -2.05255836e-001
      3.36934254e-002 1.04239844e-001 8.62266496e-002 -8.67116898e-002
      1.91755034e-002 -1.85048163e-001 1.56002015e-001 1.97274759e-001
      -8.15881118e-002 -1.28630936e-001 -1.72536582e-001
      -1.31661832e-001 -2.14273021e-001 5.64806871e-002 -6.41440526e-002
      -1.59861669e-001 -9.81392935e-002 -9.83232111e-002
      -2.09427867e-002 -2.25216541e-002 -1.58253118e-001
      -2.46466756e-001 -2.46779144e-001 -8.40624645e-002
      -1.16466552e-001 -4.19839099e-002 -7.63496011e-002 2.79258694e-002
      3.11775319e-002 -1.41600966e-001 -2.64308304e-001 -1.37749970e-001
      -1.69226751e-001 -5.44843115e-002 6.75346032e-002 -1.22749493e-001
      -7.02777281e-002 9.76011977e-002 -1.30418420e-001 -1.27467036e-001
      -1.75284848e-001 -6.44966364e-002 -1.72550529e-001
      -2.81052962e-002 -9.70228985e-002 -1.62105292e-001
      -1.15454175e-001 -1.16664410e-001 -6.70146644e-002
      -1.71278790e-002 -1.01551235e-001 -1.44982159e-001
      -4.33358476e-002 -1.84957311e-001 -1.23459965e-001
      -1.91641673e-001 1.94724705e-002 4.92198803e-002 1.80103123e-001
      1.79175511e-002 -5.93395121e-002 1.68199241e-002 -4.00693975e-002
      -1.59769967e-001 -8.95918459e-002 -1.31302595e-001 7.78767047e-003
      -4.70108949e-002 -1.04734339e-002 -8.08627009e-002
      -9.94154625e-003 -1.22866042e-001 -1.02725431e-001
      -6.56359494e-002 -3.95323820e-002 -3.95544060e-002 6.91467002e-002
      -8.71410072e-002 -9.37311500e-002 3.74580212e-002 2.79262196e-002
      -1.61370069e-001 -3.45767826e-001 -1.16536796e-001 4.97482084e-002
      -1.94705263e-001 -1.49623323e-002 -2.00654417e-001
      -1.90043628e-001 1.68141839e-003 1.18429206e-001 -6.14763089e-002
      4.16737199e-002 1.80108339e-001 4.87866215e-002 8.30201954e-002
      1.29087016e-001 -2.73685600e-003 7.72235692e-002 -7.69020841e-002
      -8.49813968e-002 -6.79527298e-002 -1.53600991e-001
      -2.99003214e-001 -1.54076532e-001 -2.14693308e-001
      -1.56610370e-001 9.21208337e-002 9.59641412e-002 2.72426873e-001
      2.99981236e-001 -5.09414673e-002 -5.86899780e-002 -7.11632520e-002
      -1.79375261e-001 -7.57468268e-002 -1.59654915e-002 1.07450031e-001
      8.01467001e-002 -5.40885851e-002 -1.11658223e-001 1.85528751e-002
      1.70995239e-002 1.12532221e-001 5.66385277e-002 2.69500792e-001
      -1.72372892e-001 -9.78301987e-002 -4.45214659e-002
      -1.15658112e-001 6.80055991e-002 -1.01237625e-001 -6.48694336e-002
      -9.83860269e-002 -1.06232151e-001 1.14813544e-001 -1.97381243e-001
      2.96204556e-002 1.66927967e-002 4.76420671e-002 -8.23671445e-002
      9.55411568e-002 8.35949555e-002 1.57531783e-001 -8.16152468e-002
      -2.40875065e-001 -1.15693107e-001 -2.10154444e-001
      -3.18665504e-002 -1.76187590e-001 6.33553341e-002 4.35424931e-002
      -8.83048102e-002 -2.42483728e-002 9.55615342e-002 9.92803276e-002
      8.73204023e-002 3.08465455e-002 -9.18864012e-002 -1.02946520e-001
      -1.21402359e-002 -4.55932841e-002 -8.32382366e-002 6.46459535e-002
      -7.83750713e-002 -2.26197138e-001 -1.70615554e-001
      -1.97276101e-001 -3.49762961e-002 -6.96701184e-002
      -2.81931728e-001 3.20603885e-002 1.29860640e-001 9.10901930e-003
      -4.13647033e-002 3.47736739e-002 -6.87267929e-002 1.15792342e-001
      1.61789492e-001 -2.82014962e-002 1.70358106e-001 1.43121392e-001
      7.08793774e-002 -6.79758489e-002 -1.60382375e-001 -4.24603447e-002
      6.52764291e-002 2.96599008e-002 -7.88796619e-002 -1.24250993e-001
      -5.02566434e-002 -1.05939917e-001 -4.29915905e-001
      -1.79918915e-001 -1.11087479e-001 -2.11863369e-001
      -1.16483226e-001 -1.56698406e-001 -2.01270148e-001
      -1.65022716e-001 -5.41405939e-002 -1.69991389e-001
      -5.17605059e-002 3.38073224e-002 -1.13926582e-001 2.88519617e-002
      1.88827831e-002 -4.28144000e-002 6.52238354e-002 8.15796033e-002
      -1.00367755e-001 -7.09529072e-002 1.02883792e-002 8.07608292e-002
      -1.09633692e-002 -5.95304407e-002 -1.25168875e-001
      -9.45297815e-003 2.42208287e-001 6.77834377e-002 2.18390331e-001
      4.28049304e-002 1.30298078e-001 9.61236432e-002 -4.64576595e-002
      -1.26552910e-001 -8.70868936e-002 5.31209484e-002 -1.50729388e-001
      -4.36105914e-002 -1.51150107e-001 -1.27945349e-001
      -5.36298566e-002 -1.20523632e-001 -6.29215688e-002 6.40031472e-002
      7.07783848e-002 -1.48018986e-001 7.22460821e-002 -3.01142275e-001
      -5.19383550e-002 8.11163783e-002 -1.65868774e-001 -7.42120743e-002
      -8.60107094e-002 1.64009109e-001 -9.22255591e-002 3.95558476e-002
      -9.69207212e-002 -3.23799066e-002 -1.06181405e-001 7.09260181e-002
      -1.43273294e-001 -2.00669959e-001 -9.16871205e-002
      -2.37266615e-001 2.58662319e-003 -2.11954832e-001 -1.37527257e-001
      8.07682239e-003 2.21668612e-002 -2.17669532e-001 -2.61116382e-002
      -1.82902649e-001 -2.45715991e-001 4.17065881e-002 -1.87960833e-001
      -5.10457084e-002 2.77029187e-003 -2.01396212e-001 -8.80811736e-002
      5.99365542e-003 -1.55822083e-001 -1.87228918e-001 -2.14795265e-002
      -1.01277335e-002 -1.35960340e-001 -1.00206204e-001
      -4.44948673e-002 -7.40042180e-002 -7.62391984e-002
      -1.25961140e-001 -2.51090229e-001 -2.80116070e-002
      -7.90751576e-002 -1.17789723e-001 -5.94272763e-002
      -1.01770915e-001 1.08482763e-002 6.10666685e-002 -6.86269552e-002
      -1.90282330e-001 -1.03149600e-001 -2.70185769e-002 4.88947518e-002
      -2.53206328e-003 -2.84041706e-002 -8.66343156e-002 2.07240134e-002
      -2.40601897e-001 -2.36812070e-001 -8.85563642e-002 9.40528214e-002
      -7.82600418e-002 6.21652380e-002 -3.59495506e-002 -7.67851174e-002
      7.68964142e-002 -7.61383325e-002 -1.86519787e-001 1.29723862e-001
      -3.94789828e-003 -2.09818855e-002 5.24102971e-002 3.68199497e-002
      -2.32169136e-001 1.07737933e-003 -9.19223577e-002 -1.22363433e-001
      -6.32575378e-002 1.88180301e-002 3.85370925e-002 2.18350254e-002
      -1.34730384e-001 -1.98191851e-001 -8.27583075e-002
      -1.06098950e-002 -4.22779582e-002 8.93946514e-002 6.96446234e-003
      8.69365558e-002 5.20746745e-002 -1.32086158e-001 -7.19014509e-003
      3.18512842e-002 -7.66401514e-002 -3.09121102e-001 -9.78177264e-002
      -5.58843911e-002 -1.73337489e-001 -1.07485421e-001
      -3.50467786e-002 2.56863564e-001 2.32877150e-001 1.72018945e-001
      -1.41352013e-001 -1.63085625e-001 -4.36643697e-002
      -1.96710065e-001 -5.82635179e-002 9.95402485e-002 -9.99045223e-002
      -1.32659629e-001 7.41803553e-003 -1.51746765e-001 -8.11714530e-002
      -7.45396540e-002 -1.02407493e-001 -1.29731810e-002
      -1.26748472e-001 2.56007224e-001 7.39443079e-002 1.37982339e-001
      -1.51363075e-001 1.02746878e-002 6.37143245e-003 1.11204922e-001
      -1.21897139e-001 8.25359747e-002 1.35539323e-001 -1.46178707e-001
      1.49457350e-001 1.22334786e-001 5.86105958e-002 -8.08956698e-002
      1.88274622e-001 -1.51802987e-001 -1.10407779e-002 -3.81004810e-002
      -1.18828192e-001 3.30790430e-002 -8.66890028e-002 -1.06445454e-001
      -1.64031237e-001 8.58038366e-002 -6.51626736e-002 -3.20515245e-001
      8.16734731e-002 -1.17675684e-001 9.60159078e-002 1.01517387e-001
      1.22462310e-001 -2.04641055e-002 2.61592239e-001 2.27573402e-002
      1.25973389e-001 -4.17613015e-002 1.21130766e-002 7.48266876e-002
      -1.23130083e-001 -1.37779251e-001 -9.15337428e-002 6.68090433e-002
      -3.40701938e-002 -1.82976007e-001 -6.53663501e-002
      -4.44084704e-002 2.83379592e-002 9.79855424e-004 6.62609637e-002
      -1.08849108e-001 4.68514934e-002 -2.06071973e-001 -2.35346049e-001
      5.84776625e-002 -4.41024415e-002 5.99510521e-002 7.06790611e-002
      1.26596376e-001 -7.16497935e-003 3.36087160e-002 -1.38426930e-001
      -1.61685944e-001 -1.25598133e-001 1.57826304e-001 3.91154923e-002
      5.21993916e-003 1.19540885e-001 7.61184990e-002 9.42176580e-003
      -1.31678551e-001 -2.98469782e-001 1.54517144e-001 1.58374712e-001
      9.45684593e-003 3.90586667e-002 -2.13518124e-002 1.42062947e-001
      -1.55797713e-002 -6.66080043e-002 -8.65873471e-002
      -1.74913168e-001 -2.82470845e-002 5.55278882e-002 9.17037800e-002
      4.83918041e-002 -6.63888827e-002 6.99959546e-002 -1.05136462e-001
      3.87835652e-002 -3.71777192e-002 -5.43501116e-002 2.71285586e-002
      8.95649195e-002 4.13815901e-002 -1.53488219e-001 -1.80514455e-002
      4.63227108e-002 -6.29521487e-003 1.08927630e-001 1.20949514e-001
      4.67720032e-002 -9.43165738e-003 -1.92439511e-001 -6.71646148e-002
      -5.56822047e-002 -9.89371315e-002 1.90717783e-002 1.60697952e-001
      4.46147285e-002 -4.55889516e-002 -4.30880003e-002 -7.94799700e-002
      -1.64183900e-001 -3.14413816e-001 -2.35723317e-001
      -1.71586741e-002 1.55678121e-002 -9.59264114e-002 -1.84614763e-001
      -1.35618588e-002 1.20586164e-001 -8.90909880e-002 -4.89856191e-002
      -3.48134562e-002 8.61569867e-002 1.11039104e-002 -6.85154572e-002
      -2.23262832e-001 -1.20730698e-001 5.59562817e-002 -2.52803653e-001
      -3.16213697e-001 -9.44419205e-002 1.55838564e-001 5.26880212e-002
      -1.80900216e-001 -2.92386413e-001 -1.39455989e-001 8.75984132e-002
      -3.77502218e-002 -2.65922546e-002 -8.53198841e-002 1.03424639e-002
      1.49043053e-001 -1.99342564e-001 -4.05018590e-003 8.40234756e-002
      7.68808424e-002 -9.61552784e-002 -1.59640491e-001 -7.75209665e-002
      8.75049382e-002 -1.54955819e-001 -1.65382866e-002 -1.02729008e-001
      -1.45966724e-001 3.14996429e-002 -1.85583547e-001 -2.25521058e-001
      4.32938710e-003 -1.32394684e-002 -1.11146435e-001 1.16486840e-001
      3.87391783e-002 -2.11289480e-001 -4.06100228e-002 -1.00245126e-001
      8.17168429e-002 2.64795691e-001 -1.10758163e-001 1.30531177e-001
      -2.22053647e-001 -1.08803429e-001 -1.17655292e-001
      -2.29692776e-002 -3.58423740e-002 -2.28627369e-001
      -2.84432247e-003 -1.45880044e-001 -1.07928924e-001 1.46352693e-001
      1.07486583e-001 -3.27457450e-002 -2.59676203e-002 -1.71067566e-002
      3.24060731e-002 2.38114357e-001 -2.62859285e-001 -1.41198218e-001
      1.40356094e-001 -7.83097148e-002 -1.74977124e-001 -1.88736215e-001
      -2.05872327e-001 5.30735739e-002 -9.63094458e-003 -1.88262120e-001
      2.51576137e-002 8.29101279e-002 -4.79594991e-003 -1.64787583e-002
      5.67486919e-002 -1.27999261e-001 1.80211011e-002 5.63010834e-002
      -2.42513251e-002 -2.66367584e-001 1.42710045e-001 1.87921241e-001
      8.20952430e-002 -7.49731138e-002 -1.41705886e-001 8.59250054e-002
      1.90331526e-002 -2.22761780e-001 -1.20995052e-001 -8.33068043e-002
      3.11532710e-003 6.91515282e-002 1.67616561e-001 5.37418528e-003
      3.56305987e-002 6.14307821e-002 -1.77406460e-001 8.21485072e-002
      -1.32939760e-002 -9.81049463e-002 -1.47913858e-001
      -1.55013517e-001 -7.86795542e-002 -6.75624683e-002
      -1.06453737e-002 1.95447467e-002 3.18734795e-001 1.06226832e-001
      2.50516851e-002 -9.37034115e-002 -1.40700638e-002 -1.28169596e-001
      -1.84291303e-001 -1.98040530e-001 1.04145616e-001 1.04896933e-001
      -1.06361069e-001 -1.42505720e-001 -4.68282327e-002 1.47162583e-002
      -3.50566432e-002 -1.78772241e-001 1.71805616e-003 -1.71374753e-002
      1.26897976e-001 8.97235721e-002 -6.30261749e-002 -9.98346284e-002
      8.08714703e-002 -1.45372346e-001 -1.13116195e-002 -3.04777604e-002
      5.96111864e-002 -1.47193298e-001 -1.73293829e-001 -5.19996621e-002
      -1.44527301e-001 1.97696120e-001 1.08302377e-001 1.00588791e-001
      1.18880253e-002 1.40370950e-002 -3.08742642e-001 -9.61056501e-002
      -1.02710806e-001 -2.21757427e-001 -1.29955886e-002
      -2.87581563e-001 1.00261588e-002 -8.88941512e-002 -2.51692981e-001
      8.53388906e-002 -4.38276641e-002 4.35370691e-002 2.72361003e-002
      5.44609189e-001 -1.78301204e-002 4.73522842e-002 1.46028101e-001
      2.62034208e-001 -2.60537773e-001 -2.12338306e-002 -2.58552115e-002
      -1.45533087e-003 1.28772229e-001 -9.59109142e-002 -1.43535659e-001
      -1.64257959e-001 -2.35492840e-001 -4.01135348e-002 1.27779722e-001
      -1.73665285e-002 -1.16495229e-001 1.87156051e-002 -3.13568525e-002
      4.57559638e-002 2.23859735e-002 -1.68396890e-001 2.10141435e-001
      1.24992244e-001 -6.20271228e-002 -9.16563049e-002 -1.08028226e-001
      4.73271869e-002 -1.37711823e-001 6.51337132e-002 -3.39628533e-002
      -1.22910008e-001 8.78620297e-002 6.23824149e-002 4.88255657e-002
      1.32961139e-001 -9.44191813e-002 -9.95214954e-002 8.21403340e-002
      -1.31954640e-001 -1.20202303e-002 6.01107515e-002 -1.69163048e-001
      -7.57422373e-002 -2.36538183e-002 -1.04769193e-001
      -2.85551585e-002 1.61041752e-001 -6.18896782e-002 1.55572370e-001
      -2.24715453e-002 -1.71245366e-001 -1.74672425e-001
      -1.80243313e-001 -1.29825071e-001 -1.50804743e-001
      -1.18703738e-001 -9.71161500e-002 -8.91478360e-003
      -1.47285625e-001 -1.68919742e-001 -1.41312122e-001
      -5.50261997e-002 -1.05611421e-001 -9.88504589e-002
      -1.29170403e-001 -1.10596411e-001 5.81308976e-002 -1.78319532e-002
      -1.25492543e-001 -1.69150904e-001 -3.51734236e-002
      -1.51143398e-003 7.23299310e-002 7.84164220e-002 -2.44198856e-003
      -5.65431379e-002 -3.19659598e-002 -1.37240037e-001 1.62821990e-002
      1.40450209e-001 9.65777561e-002 2.86572009e-001 2.86291856e-002
      -5.46711981e-002 -1.92553461e-001 -2.26886049e-001
      -2.02474281e-001 -7.25306850e-003 3.81550863e-002 8.27855989e-002
      -6.44349121e-003 -8.10673609e-002 -1.69451162e-001
      -9.78005081e-002 -1.86052054e-001 -2.63844170e-002
      -4.45593940e-003 -2.74124984e-002 -2.85309777e-002
      -5.46605252e-002 -3.99680436e-003 -1.87464043e-001 8.38839263e-003
      1.14672780e-002 9.25732777e-002 1.61894381e-001 1.15892336e-001
      2.19614640e-001 2.43567050e-001 1.89533666e-001 -8.35089013e-003
      -1.19203769e-001 1.65800124e-001 1.54904136e-002 4.27590944e-002
      -4.24628593e-002 1.50638089e-001 1.98188022e-001 1.59237444e-001
      -3.12463194e-001 7.15401620e-002 4.76818420e-002 -6.95143268e-002
      -3.63853127e-002 -1.35499492e-001 -3.88840213e-002
      -8.47096220e-002 9.08379704e-002 -4.02480289e-002 -5.10948300e-002
      1.29702449e-001 2.76153218e-002 -6.59315959e-002 4.50626314e-002
      1.27742052e-001 7.98565056e-003 3.34906399e-001 -2.72629503e-002
      -2.33512402e-001 9.24497023e-002 1.64367616e-001 -1.18643254e-001
      -8.56873244e-002 1.67323966e-002 9.27657261e-002 3.37969363e-001
      -3.18739593e-001 -1.98865905e-001 -1.46765197e-002 5.33707030e-002
      -2.56727010e-001 -1.34028539e-001 -6.15200493e-003
      -3.26942950e-002 2.46586651e-001 -1.87729016e-001 -2.38051623e-001
      -3.35378125e-002 -3.99522036e-002 8.66331682e-002 1.47143200e-001
      -5.01113571e-003 1.12618208e-001 1.39308020e-001 -5.72284907e-002
      -2.19771545e-002 -1.93449315e-002 -5.98697811e-002 2.29611397e-001
      1.06795587e-001 -8.29834267e-002 5.65829733e-003 9.24794003e-002
      -1.56349018e-001 -5.37664741e-002 9.56517644e-003 -4.06247517e-003
      -5.59828170e-002 -4.32693213e-003 -1.50032625e-001
      -6.78951219e-002 1.70125067e-001 -1.54939219e-001 8.48449767e-002
      8.91872216e-003 -1.49569586e-001 -7.88044855e-002 -1.12037674e-001
      -3.02420467e-001 -1.52445987e-001 -7.30341226e-002
      -6.61963224e-002 -7.55605176e-002 -1.04953580e-001
      -1.83821142e-001 1.59674324e-002 -1.37716591e-001 -1.32412866e-001
      -1.72525048e-001 -9.70664807e-003 -2.36036181e-001
      -7.04134852e-002 -7.15897977e-002 -1.73707575e-001
      -1.54944703e-001 1.52743638e-001 2.34243438e-001 4.04058062e-002
      3.11979223e-002 -9.39417407e-002 -9.73144025e-002 -8.27816897e-004
      -2.04674557e-001 -2.43301883e-001 -3.27674836e-001
      -3.52248013e-001 -1.49456114e-001 -7.16330186e-002
      -7.33197108e-002 2.28901822e-002 -3.05899400e-002 -2.18816549e-001
      -2.24662974e-001 2.03879371e-001 1.58201545e-001 -1.08331777e-001
      8.29642117e-002 1.59218714e-001</_>
    <_>
      8.82995799e-002 3.56218591e-002 -2.93937605e-003 8.84164497e-002
      -8.35528970e-002 1.30821824e-001 9.35124531e-002 1.65388465e-001
      -1.43507458e-002 -2.26322338e-002 -2.59568095e-002 3.99101898e-002
      -9.54643823e-003 -1.15488157e-001 1.50920954e-002 -1.38586694e-002
      -1.36306761e-002 -2.21666008e-001 1.20188765e-001 -1.33807389e-002
      -3.92523110e-002 1.28760813e-002 -2.32383937e-001 -9.53907147e-002
      -7.48061463e-002 1.11073991e-002 -7.19970316e-002 3.15992162e-002
      7.82910287e-002 -3.64061557e-002 -1.01585887e-001 -2.03172356e-001
      1.44649521e-002 7.15298802e-002 -5.23508097e-005 -8.86538848e-002
      -8.49892572e-002 -3.78086343e-002 6.80652931e-002 5.55682369e-002
      -2.05359638e-001 2.68266927e-002 -1.12452969e-001 -1.20954312e-001
      -2.52135158e-001 -1.80611148e-001 3.04619689e-003 3.58576551e-002
      8.21190979e-003 -3.73448394e-002 -2.95893829e-002 3.24406140e-002
      3.09720188e-002 -1.35859638e-001 -5.92717305e-002 9.77701470e-002
      8.91329348e-002 -5.34682274e-002 -8.24103951e-002 1.15213087e-002
      -5.78314401e-002 1.55958124e-002 -4.43667658e-002 -1.37333333e-001
      -1.35448435e-002 1.23690777e-001 1.18605513e-002 -1.22088082e-001
      -8.68449919e-003 -1.04270726e-001 -3.87580991e-002
      -1.35189146e-001 -1.32373273e-001 6.73740357e-002 1.49063310e-002
      2.74660923e-002 -7.24682510e-002 2.80235894e-002 1.78309962e-001
      1.59858614e-001 -8.84160548e-002 -9.63845327e-002 2.15053290e-001
      4.27734144e-002 5.49001656e-002 -1.54885918e-001 -7.59639516e-002
      -7.74310809e-003 1.04881294e-001 -7.95157254e-002 -1.52284682e-001
      5.84767060e-003 6.70214221e-002 5.09779267e-002 -2.89541539e-002
      -6.26628920e-002 -4.10860553e-002 7.31331855e-002 -4.33664508e-002
      -1.92542508e-001 -2.35564057e-002 -1.57314464e-001
      -3.63777392e-002 -5.44084124e-002 -1.14066377e-001
      -1.25172704e-001 -1.11604981e-001 -7.31471032e-002
      -5.84965125e-002 9.38458592e-002 6.20097853e-002 1.35338932e-001
      3.13061848e-002 2.60340236e-002 6.60331622e-002 3.00110802e-002
      -2.91697513e-002 -1.32452503e-001 1.21644706e-001 -4.56109494e-002
      4.49392647e-002 -3.51121277e-002 -2.00734183e-001 -1.36182308e-001
      -1.05686218e-001 -2.62440801e-001 -5.52130491e-002 1.25742212e-001
      -6.77846298e-002 -2.50488091e-002 -1.05163443e-003 6.99870959e-002
      -9.54817515e-003 -4.64450009e-002 2.58539151e-002 -1.19253568e-001
      -1.42250612e-001 -2.12258130e-001 -2.05753207e-001
      -1.60429776e-001 -1.00162201e-001 -5.45694195e-002
      -6.07811287e-002 -3.04150850e-001 -8.09099898e-002 1.37138501e-001
      1.83261354e-002 -3.12999189e-002 4.46243072e-003 -1.73060805e-001
      -1.37064949e-001 -1.21110864e-001 -2.19502419e-001
      -1.16579905e-001 -2.25690138e-002 -8.09942633e-002
      -4.04994041e-002 -2.45217178e-002 7.81950075e-003 -3.54000628e-002
      -1.81263030e-001 -2.23626450e-001 1.10612266e-001 -1.27239108e-001
      -1.39704481e-001 -1.79206073e-001 -8.28863904e-002 4.22255062e-002
      -3.98821905e-002 1.46907149e-002 -6.17985241e-002 2.37417724e-002
      -3.82460020e-002 1.42245963e-001 -8.56289491e-002 9.07347724e-002
      7.07114935e-002 5.94715625e-002 1.23605411e-002 1.81671251e-002
      -5.33458702e-002 1.42313698e-002 4.49091010e-002 -6.22701645e-002
      -2.28005201e-001 8.32544863e-002 -5.70155261e-003 -1.27576634e-001
      -1.06102690e-001 -1.06774889e-001 1.16547113e-002 4.19968739e-002
      -6.45165890e-002 -3.80967617e-001 1.01675086e-001 -7.06095994e-002
      -8.85159299e-002 -1.81219310e-001 -2.92747710e-002 3.03276237e-002
      2.07506225e-001 1.14630230e-001 2.77546365e-002 1.53394476e-001
      6.84416760e-003 -2.61897352e-002 -6.47348389e-002 4.86159213e-002
      -4.55902107e-002 2.68936098e-001 1.41316876e-001 6.85410872e-002
      1.07966602e-001 -2.25091502e-002 -1.20983850e-002 -4.68687564e-002
      -2.30082437e-001 -1.35260686e-001 1.33063823e-001 2.16070153e-002
      -4.02253509e-001 1.01864211e-001 -8.84299278e-002 -1.48031458e-001
      -2.01737463e-001 2.87399031e-002 1.79036707e-002 1.52642533e-001
      1.83264703e-001 -3.56363684e-001 2.38392339e-003 -7.66900852e-002
      -9.11102518e-002 1.16870934e-002 -6.47454932e-002 -9.38197151e-002
      1.51052386e-001 3.26476321e-002 -9.35822204e-002 6.48263618e-002
      9.95108392e-003 9.14128274e-002 -1.38412729e-001 -4.52916929e-003
      -1.25829548e-001 1.12158462e-001 1.50399655e-001 -3.67863595e-001
      6.26785085e-002 1.60743799e-002 6.77776858e-002 1.77002940e-002
      3.18568572e-002 2.15453766e-002 -1.71602722e-002 -2.02997357e-001
      -1.69867739e-001 -2.21058950e-001 -1.77687019e-001
      -1.04201876e-001 -1.29061505e-001 -7.79692605e-002 2.27756966e-002
      -3.84449437e-002 -8.60360935e-002 -1.06344484e-002
      -2.31189039e-002 -5.77324368e-002 -8.28245133e-002
      -7.70568475e-002 -1.03811912e-001 7.70218670e-002 -2.85492130e-002
      -8.23945180e-002 -1.22370966e-001 -2.15607271e-001
      -1.84025422e-001 -6.76830951e-003 -1.49929062e-001
      -4.59964946e-002 9.46932361e-002 8.01797360e-002 -8.95846710e-002
      -7.15927184e-002 -4.10437770e-002 -4.11938541e-002
      -1.88927744e-002 -2.02633828e-001 -1.23874154e-002 7.02242702e-002
      -5.44788837e-002 -1.93825468e-001 -2.58295350e-002 2.36163419e-002
      1.84807610e-002 -5.41803753e-003 -8.51821899e-002 -7.57460222e-002
      1.66899301e-002 9.12902504e-002 -1.07122496e-001 -3.71432416e-002
      -7.74246082e-002 -6.14612810e-002 2.95078307e-002 -9.31464210e-002
      -8.29998851e-002 3.30333598e-002 8.10912438e-003 -1.21030241e-001
      -4.97249067e-002 -1.80672714e-003 -1.91365220e-002
      -1.17898665e-001 -1.48222700e-001 -1.12435125e-001
      -4.50409055e-002 -8.45925286e-002 -1.11947834e-001
      -6.90172687e-002 8.83735716e-002 6.56001568e-002 3.89357135e-002
      -6.43315585e-003 4.62241918e-002 5.23199281e-003 5.58811687e-002
      -8.66999999e-002 3.29522677e-002 -8.52249488e-002 -1.33625910e-001
      7.48582482e-002 8.24236944e-002 -2.41208345e-001 -1.18049972e-001
      -1.29603177e-001 -1.84671924e-001 7.29265511e-002 -1.33716479e-001
      -9.76979285e-002 -6.54055029e-002 -7.31026083e-002
      -4.28040773e-002 -4.31691669e-002 -5.79126775e-002
      -7.44119361e-002 7.34173181e-003 1.12644419e-001 5.28175235e-002
      1.47262841e-001 7.99440313e-003 -1.40471935e-001 -2.85271388e-002
      -1.97642762e-002 -1.71956345e-001 -7.00811967e-002
      -5.90946451e-002 -4.97263782e-002 2.06958386e-003 -5.67530394e-002
      -6.20373972e-002 -6.56476691e-002 -1.51931614e-001
      -2.41144359e-001 6.46944642e-002 -1.06721343e-002 -1.29098818e-001
      -7.01478347e-002 -4.79164487e-003 -9.72239226e-002
      -1.45731896e-001 -1.78883255e-001 -1.66715905e-001
      -8.11965242e-002 -6.30927533e-002 -9.78347734e-002
      -7.38443807e-002 -1.20991170e-001 2.63930205e-003 6.99768886e-002
      2.20755748e-002 -8.69148150e-002 1.47094309e-001 9.95488986e-002
      -7.46751577e-002 5.94838895e-002 4.84591052e-002 8.80907550e-002
      2.06953391e-001 1.70267120e-001 5.60256280e-002 9.75003187e-003
      -3.72562408e-002 -5.27273417e-002 -1.62827577e-002
      -3.43184806e-002 -1.24319158e-001 -2.46425852e-001
      -1.36620596e-001 -2.02770114e-001 -1.62777275e-001 2.17687562e-002
      -7.77254179e-002 -1.00300528e-001 -1.26820639e-001
      -7.02910200e-002 -3.11459243e-001 1.76563952e-002 -1.11687824e-001
      -8.05621669e-002 -4.99337874e-002 -4.53848355e-002 3.47641967e-002
      7.84312040e-002 -1.47569656e-001 -3.60026509e-002 8.25045407e-002
      -5.08043170e-002 -3.11129503e-002 -2.24062111e-002 3.06853019e-002
      -4.74324264e-003 -1.12425454e-001 -1.94838643e-002
      -9.87268835e-002 2.86290739e-002 -3.01927030e-002 -1.26414895e-001
      1.10239210e-002 8.76462907e-002 -3.26871611e-002 4.15747240e-002
      -1.04980849e-001 -1.85956702e-001 3.55053018e-003 -1.35615543e-001
      -1.29269063e-001 -2.01341584e-002 -4.28649895e-002
      -2.21293028e-002 -2.73459032e-002 -6.12219833e-002
      -2.44757950e-001 -1.61612540e-001 -2.29060009e-001
      -5.08572757e-002 -1.17460132e-001 -6.25116825e-002
      -3.12954858e-002 -6.24712706e-002 -2.29875073e-002
      -7.39234164e-002 3.58145945e-002 -1.50876179e-001 -1.09495692e-001
      -2.51149144e-002 5.43594547e-002 1.58005208e-003 8.96762237e-002
      1.87576134e-002 -5.04174866e-002 -4.85023893e-002 -1.91017941e-001
      1.81761328e-002 2.51045506e-002 -1.08715355e-001 1.91521663e-002
      1.28777251e-001 2.45624781e-002 -3.99332419e-002 1.46663427e-001
      -4.60520089e-002 -1.40522033e-001 9.08736885e-002 1.40274301e-001
      1.98158547e-001 5.06387185e-003 -4.94521298e-002 9.07579996e-003
      3.48195136e-002 -1.05666727e-001 -4.43057537e-001 -1.72054961e-001
      -7.12399036e-002 1.43302744e-002 -3.03903744e-002 9.20163542e-002
      6.95734099e-002 9.22559351e-002 -6.60029650e-002 -3.48233879e-002
      1.24222673e-001 6.26074150e-002 9.23110098e-002 1.60367846e-001
      6.79350123e-002 -6.09925427e-002 9.72150452e-003 -1.15027547e-001
      -4.50161815e-001 -1.44625634e-001 5.49023785e-003 -1.74460765e-002
      9.12993774e-002 -4.29960266e-002 2.14915201e-001 3.43247391e-002
      -4.03938517e-002 -8.70133936e-002 -9.29492265e-002
      -2.25541919e-001 -6.48435727e-002 -8.94204155e-002
      -7.96851590e-002 1.13183774e-001 1.66351840e-001 -1.10451356e-001
      -1.25817508e-001 -5.62533662e-002 -2.18557492e-001
      -1.70894444e-001 -9.61949527e-002 1.08048320e-001 1.82253495e-001
      1.58086836e-001 2.15102844e-002 1.20368838e-001 -3.50222252e-002
      -8.12482908e-002 -3.64789218e-002 -4.58219461e-002
      -5.71576059e-002 2.81646457e-002 -2.51497999e-002 1.25123467e-002
      1.66018829e-002 -1.01112209e-001 -2.06884831e-001 -1.85740560e-001
      -2.15777401e-002 1.30766720e-001 7.24491104e-002 9.79373157e-002
      -3.04080229e-002 3.20689566e-002 4.63690311e-002 -7.63597786e-002
      1.80955548e-002 1.54212475e-001 -9.35555920e-002 -1.72254313e-002
      -1.01482563e-001 -7.05990121e-002 9.57791600e-003 2.00767387e-002
      4.76545654e-002 7.08010122e-002 1.30378872e-001 -5.98300919e-002
      -6.23721746e-004 -1.18438592e-002 6.22425973e-002 -7.84952193e-002
      -1.43422320e-001 -6.99639022e-002 -2.26234347e-002 2.39400733e-002
      -1.89733684e-001 -1.45631433e-001 -1.17363401e-001
      -1.10743523e-001 -1.27443835e-001 -1.31887898e-001 4.32415633e-003
      -8.47091898e-002 -2.69833161e-003 -1.43989161e-001
      -7.95032009e-002 -4.29204181e-002 -1.24361046e-001
      -6.89945966e-002 -1.66882258e-002 -1.06461495e-001
      -1.98414810e-002 -5.06679453e-002 -1.56009063e-001 3.64406519e-002
      -1.13050342e-002 -5.51934466e-002 -1.55983213e-002
      -9.10756886e-002 -6.16435381e-003 1.09294564e-001 -3.88786010e-002
      -1.50712738e-002 -5.45561649e-002 -2.62722299e-002
      -1.71580955e-001 -1.28560856e-001 -1.10230118e-001
      -1.33548051e-001 -2.06093475e-001 -1.57772958e-001
      -4.57016677e-002 -2.66570970e-002 5.57704307e-002 -2.03337595e-002
      -2.61113085e-002 -1.51976019e-001 -1.76738903e-001
      -1.21548541e-001 -1.24517195e-001 -1.30782083e-001
      -2.72894446e-002 -3.69806588e-002 -2.40232766e-001
      -1.66094333e-001 -8.30584168e-002 -1.44143134e-001
      -7.27294609e-002 -3.96137014e-002 -2.29518451e-002 2.19943114e-002
      -4.05942164e-002 -2.77482122e-001 -1.30129039e-001
      -2.25912988e-001 -1.40710548e-001 -7.37809315e-002
      -1.66258201e-001 -1.21320628e-001 5.28667234e-002 1.74695998e-002
      -2.21914366e-001 -1.14266008e-001 -2.63657384e-002 1.04007415e-001
      1.14902079e-001 2.05124542e-002 3.05052381e-002 1.37154832e-001
      1.90971598e-001 -3.36383283e-002 5.56290038e-002 -6.93338588e-002
      7.89864659e-002 -2.59505436e-002 4.40919138e-002 -7.36913309e-002
      -5.33899069e-002 -1.22880191e-001 -7.03466386e-002
      -8.77484009e-002 -1.05007946e-001 -1.02816202e-001
      -1.08685628e-001 -1.68472692e-001 -1.17948949e-001
      -1.22349441e-001 -4.42774855e-002 -6.62520006e-002
      -1.63303882e-001 2.66576931e-003 1.77884959e-002 -1.31532252e-001
      -3.66589203e-002 2.02494264e-002 -2.73727849e-002 6.35768846e-002
      4.43209568e-003 9.36770514e-002 -7.62799159e-002 6.23424798e-002
      -7.94146433e-002 4.26013283e-002 1.32241771e-001 1.06083706e-001
      1.44445812e-002 -4.25322168e-002 4.80751731e-002 -4.17287797e-002
      -2.06082202e-002 -8.40277299e-002 2.00824335e-001 -1.05554581e-001
      -1.97898112e-002 9.57938135e-002 -4.18577567e-002 -4.01833840e-002
      1.93118080e-002 1.05080031e-001 1.81699432e-002 -8.45168307e-002
      -1.30454794e-001 -7.62432441e-002 -1.12192363e-001
      -1.38117000e-001 -1.18957395e-002 9.44199413e-003 -1.35704540e-002
      1.61751602e-002 -3.68306637e-002 -3.56076509e-002 8.18169191e-002
      8.68171230e-002 -2.19536349e-002 1.31696075e-001 -7.34689087e-002
      1.32770509e-001 1.14795245e-001 1.43395409e-001 -1.60426721e-001
      -1.38990894e-001 -1.11261524e-001 -1.79303080e-001
      -7.59628564e-002 1.57811418e-002 -3.54144610e-002 3.21082808e-002
      3.15188430e-002 5.60675375e-002 3.34588066e-002 -3.00829299e-002
      -5.45827933e-002 -3.18645425e-002 2.03558460e-001 5.13674952e-002
      5.71154570e-003 2.09805258e-002 -7.65432278e-003 4.87394026e-003
      -1.36094820e-002 -2.25859895e-001 -2.62794495e-001
      -5.77306114e-002 -2.83788294e-002 -1.22598879e-001
      -7.13814944e-002 5.46837673e-002 2.32371166e-002 -4.13731970e-002
      8.59346800e-003 6.75115436e-002 2.11740240e-001 8.79276544e-003
      4.98224720e-002 7.73207471e-002 3.59122977e-002 7.00782910e-002
      -6.90789223e-002 -4.76278141e-002 -1.04455039e-001 2.75859721e-002
      5.15040122e-002 -5.15336506e-002 1.30545348e-002 1.29855707e-001
      9.24696773e-002 1.25440806e-001 3.87726687e-002 5.59326820e-002
      4.08314466e-002 7.54056207e-004 1.13085680e-001 5.11261076e-002
      -1.22319236e-001 -1.66939631e-001 -1.22787997e-001
      -9.04644653e-003 -1.03355147e-001 -2.19387636e-002
      -9.87096131e-002 2.56659277e-002 2.71963645e-002 3.62635963e-002
      1.02172747e-001 5.55637702e-002 -6.18752725e-002 -6.72565028e-002
      -8.81923810e-002 -1.12444520e-001 -1.24536172e-001
      -7.48715997e-002 -3.10608178e-001 -9.22712982e-002
      -3.25585268e-002 -1.14358149e-001 -2.21105158e-001
      -1.17733695e-001 -6.44512698e-002 -9.68106911e-002
      -2.37978011e-001 -5.18233143e-002 -1.27109066e-001
      -9.17284563e-002 8.00833404e-002 -1.37846991e-001 -6.80461377e-002
      -4.11133952e-002 1.45115688e-001 6.62276372e-002 -1.90247390e-002
      -8.84572640e-002 -3.23911943e-002 -9.80378017e-002
      -1.01787075e-001 -4.67897430e-002 -6.42746538e-002 1.16209062e-002
      3.07151563e-002 -1.02793835e-001 1.24407941e-002 -2.62840148e-002
      -8.92070830e-002 -1.94140002e-001 -4.84109111e-002
      -1.99628947e-003 1.04728132e-001 -5.60940355e-002 -2.00129878e-002
      4.90080044e-002 3.67642120e-002 -2.59717982e-002 -1.44936711e-001
      -2.13905498e-002 4.42520939e-002 -5.80131589e-003 -2.34430339e-002
      -4.09258269e-002 -1.13120675e-001 -1.04171418e-001
      -1.41276985e-001 -9.62156132e-002 -1.23760507e-001
      -2.13545784e-001 -1.42972976e-001 -2.24162906e-001
      -5.01431152e-002 4.36838623e-003 -6.37811273e-002 -1.47006409e-002
      2.05269717e-002 -8.06135163e-002 -5.72425388e-002 -4.48633097e-002
      -1.61507636e-001 -2.23543085e-002 7.04225749e-002 3.42136584e-002
      2.68250126e-002 -1.45830885e-002 -7.36724287e-002 -8.51658136e-002
      -1.25014067e-001 -1.68834656e-001 -5.95587417e-002 6.04826286e-002
      -1.58526823e-002 -1.85349379e-002 -3.25250961e-002
      -1.02110788e-001 -3.37179974e-002 8.19592848e-002 -7.86820501e-002
      -2.01593056e-001 -1.07269667e-001 -9.71002430e-002
      -2.56631106e-001 -2.82678157e-001 -1.27777904e-001 4.62301411e-002
      7.42857829e-002 -1.74548194e-001 -8.98636654e-002 -3.11298091e-002
      6.22047856e-002 -1.04364127e-001 -1.78882666e-002 8.34180936e-002
      1.57510027e-001 1.00999482e-001 -9.62413177e-002 -1.80410370e-001
      -2.10946172e-001 -2.04333857e-001 -3.61134946e-001
      -1.96218178e-001 -1.84014738e-001 5.28660556e-003 3.52118313e-002
      -1.43098265e-001 -1.80914000e-001 -1.52152508e-001
      -2.44701449e-002 -1.94600374e-001 2.97943596e-002 4.01576534e-002
      2.10248590e-001 1.25324413e-001 -1.19611755e-001 -9.38270018e-002
      -7.26259500e-002 2.56055184e-002 -1.86781753e-002 1.55665860e-001
      -1.33676995e-002 5.63546978e-002 -2.26547923e-002 -5.84379621e-002
      -1.69965699e-002 9.20814201e-002 -5.52255809e-002 -4.46051322e-002
      -7.67910033e-002 -1.27142057e-001 1.45649649e-002 -8.92586634e-002
      5.23605160e-002 -1.60281852e-001 -7.47866184e-002 1.62202548e-002
      -1.02567393e-002 1.14627086e-001 -9.43448171e-002 1.30006135e-001
      1.14899844e-001 -9.47302952e-002 -1.77555576e-001 -7.48156458e-002
      -4.67903614e-002 -1.27062455e-001 -1.96548048e-002
      -4.68946584e-002 1.30568389e-002 3.12441476e-002 -2.83061191e-002
      7.33813718e-002 1.61332577e-001 8.25263187e-002 7.93385431e-002
      1.46787047e-001 -9.33556166e-003 1.87703129e-002 1.15523934e-001
      1.71900690e-001 2.96508856e-002 -7.32108876e-002 -9.45976377e-002
      -1.91227913e-001 -1.03715785e-001 -2.19041467e-001
      -2.26018295e-001 -4.27585468e-003 4.97753583e-002 1.21837936e-001
      -3.31792720e-002 2.58914959e-002 1.25523031e-001 2.69599348e-001
      1.42175466e-001 8.67773518e-002 1.93140224e-001 1.91674963e-001
      -3.17559913e-002 -1.33077115e-001 -2.16539040e-001
      -2.02146649e-001 -4.97291274e-002 -1.76356420e-001
      -1.12286411e-001 -5.13476431e-002 -3.20265368e-002 2.31308937e-002
      -1.40616829e-002 -1.04781866e-001 4.06379178e-002 6.79249540e-002
      -1.97648909e-002 -2.01745987e-001 -2.90991925e-002 2.81920321e-002
      -2.62842234e-002 4.30962555e-002 -2.07048934e-002 1.79477185e-002
      1.75467264e-002 -1.18637960e-002 2.85866391e-002 -9.50119644e-003
      -8.51640664e-003 -8.05458501e-002 -2.23793134e-001
      -1.98805988e-001 5.28698303e-002 -2.46463288e-002 -1.13629632e-001
      -1.61510319e-001 -1.39547572e-001 -8.45243633e-002
      -1.67786568e-001 -1.51283875e-001 2.44825799e-002 1.35673661e-004
      -6.51596189e-002 2.92851925e-002 -7.09184706e-002 -1.47324473e-001
      -1.64217830e-001 -3.53846252e-002 1.11864777e-002 -1.19256843e-002
      -3.56561914e-002 2.89713684e-002 -4.31556292e-002 8.21695477e-002
      -5.00315316e-002 9.15527716e-002 -2.64747262e-001 4.62897588e-003
      -3.01566757e-002 -6.46915808e-002 -1.34897381e-001
      -1.29049169e-002 5.03182784e-002 9.19799879e-003 -1.81023940e-001
      1.07987560e-001 -1.28132282e-002 -3.14118937e-002 -8.42278078e-002
      1.85648189e-003 -1.16499439e-001 -7.41944695e-003 -8.06581378e-002
      1.62735805e-001 -1.79651603e-001 -1.13891773e-001 -2.05360260e-002
      -1.12931348e-001 -4.73477878e-002 -3.97819877e-002 1.89577758e-001
      9.54165310e-002 -6.54141903e-002 -1.82162613e-001 2.84234853e-003
      -5.17531037e-002 -2.04964936e-001 -2.12788701e-001 1.86039205e-003
      -1.06008396e-001 -5.61827272e-002 -1.22376598e-001
      -5.23394383e-002 -6.10144809e-003 1.11857578e-001 -4.39459532e-002
      -1.06675111e-001 -1.39968805e-002 -2.56184842e-002
      -6.52888045e-002 -7.53949583e-002 -1.65239304e-001
      -4.19473387e-002 -4.76442501e-002 -6.25549331e-002
      -1.13932259e-001 -1.65914558e-002 1.64047442e-002 2.77323881e-003
      1.42871989e-002 -1.69540234e-002 -3.71879041e-002 7.71093220e-002
      -2.16977987e-002 -1.36037514e-001 -2.05267873e-002 6.73811436e-002
      -1.36090526e-002 -5.56215234e-002 -1.19290184e-002
      -1.46242455e-002 3.21391299e-002 -6.99908435e-002 -4.53228056e-002
      4.10345010e-002 -9.24306661e-002 -2.33696532e-002 -9.06909704e-002
      5.22265919e-002 -9.83791202e-002 2.94479467e-002 -9.48803127e-002
      1.68286450e-002 -4.26259600e-002 -6.51814193e-002 1.66592235e-003
      -4.25961800e-002 3.14301200e-004 -1.49508506e-001 -1.92094948e-002
      -9.91240069e-002 -9.48323533e-002 -2.26150919e-002
      -3.64091173e-002 -4.55811992e-002 -6.20155670e-002
      -5.45584857e-002 -1.83149263e-001 -8.41607302e-002
      -4.54236455e-002 -1.17653236e-002 -4.74724658e-002
      -6.56189844e-002 -5.94266467e-002 -2.61074910e-003 4.61653769e-002
      -1.18283719e-001 -5.99665605e-002 -2.85920203e-001
      -4.46406193e-004 -8.53845030e-002 2.47094147e-002 1.11913215e-002
      -4.62389700e-002 -1.18097447e-001 -1.17639989e-001
      -5.99211268e-003 -1.41395748e-001 4.88120653e-002 -8.12559873e-002
      1.89707577e-001 1.91798687e-001 -7.43990839e-002 -7.03128502e-002
      -1.85610294e-001 4.18236516e-002 -2.60879695e-001 -8.37138221e-002
      -1.02072738e-001 2.90843751e-002 -6.77404180e-002 -4.07893769e-002
      -5.12822606e-002 -1.47848859e-001 -2.97468621e-002
      -1.61426291e-001 1.33976489e-002 -1.49423048e-001 -4.53057736e-002
      4.67860363e-002 -7.90071040e-002 -9.81670916e-002 -5.57507649e-002
      8.53552595e-002 1.24538325e-001 4.51480187e-002 -2.18264952e-001
      3.34732533e-002 5.94742447e-002 -9.79648978e-002 -3.88959944e-002
      -6.77085575e-003 -2.79001892e-003 4.07357402e-002 1.36416972e-001
      -3.81214395e-002 6.41137138e-002 -3.10322903e-002 -3.00759245e-002
      -1.87131781e-002 -1.63880244e-001 -1.34103656e-001
      -5.19849174e-002 -1.15408465e-001 -1.65538624e-001
      -3.91456448e-002 -7.35263200e-003 -1.35644376e-001
      -8.96416008e-002 -1.39764085e-001 -1.64044365e-001
      -2.38715217e-001 -9.48512927e-002 -1.53783321e-001
      -6.71837553e-002 -9.07305181e-002 -9.78643075e-002 1.22842111e-001
      1.40368072e-002 6.09490722e-002 2.04215422e-001 3.23781461e-001
      1.93199679e-001 2.38274224e-002 1.62058994e-001 1.10317498e-001
      -2.17552041e-003 -1.49943829e-001 -2.60215282e-001
      -2.13119745e-001 -1.25946417e-001 -1.67333633e-001
      -2.21937314e-001 -1.05086952e-001 -4.34561586e-003
      -3.40548009e-002 -7.92738348e-002 -8.01696703e-002 1.08298875e-001
      2.14383841e-001 1.53722182e-001 1.36288360e-001 1.01637915e-001
      2.04805303e-002 3.04896981e-002 -8.02442655e-002 -2.44929001e-001
      -1.55097678e-001 -1.86572282e-003 -3.42550501e-002
      -1.26975849e-001 -1.18018284e-001 -8.28132629e-002 2.45748088e-002
      -1.01905257e-001 -2.03290820e-001 -3.40400264e-002 4.60424982e-002
      -3.27467956e-002 -1.68900564e-001 -6.61307648e-002 3.63158584e-002
      -1.28099546e-001 -1.54686600e-001 -3.40918675e-002
      -4.72365320e-002 -8.08025822e-002 9.72678959e-002 -9.83160287e-002
      -7.55588487e-002 3.61891910e-002 9.93944779e-002 8.10787007e-002
      -9.65482369e-003 -1.15264922e-001 -2.61694901e-002
      -9.67114270e-002 -1.18345074e-001 -8.82784128e-002
      -2.11532563e-002 9.29204524e-002 -1.32494764e-002 -1.30746383e-002
      -1.57200649e-001 -9.97881889e-002 -2.46764511e-001
      -1.01348177e-001 -1.84906796e-002 7.14762583e-002 8.04323051e-003
      -7.68657103e-002 1.15378452e-002 -1.08905733e-001 -4.40704562e-002
      -2.02069781e-003 -1.44437142e-002 -2.17833340e-001 2.95679569e-002
      -7.19905272e-002 -8.31012428e-002 -7.02302298e-003
      -7.10883886e-002 -8.24352428e-002 -5.98949380e-002 1.43198475e-001
      2.21358542e-003 -9.88502055e-002 -6.39155060e-002 -9.60648060e-002
      3.71476710e-002 -8.93186182e-002 6.21849671e-002 1.79399904e-002
      3.81838754e-002 -1.65884897e-001 1.30450604e-002 -6.29790425e-002
      -2.41938848e-002 1.10368416e-001 7.47380704e-002 5.27312979e-003
      4.74003404e-002 1.08944789e-001 -1.27855614e-001 -8.74412730e-002
      -1.00581264e-002 2.18613297e-002 -2.01767683e-002 -6.54837191e-002
      -4.74135205e-002 4.09136200e-003 1.12954706e-001 3.61408815e-002
      -3.73940170e-002 1.10116281e-001 2.12096572e-002 6.11757338e-002
      -1.58981487e-001 1.74907409e-002 -2.48585138e-002 4.27446403e-002
      6.62590414e-002 1.01394340e-001 -1.02155991e-001 -2.76438911e-002
      9.97817237e-003 -4.25371379e-002 9.23645794e-002 1.56106025e-001
      1.72610685e-001 1.65627208e-002 6.35045841e-002 -3.02352179e-002
      -2.76699159e-002 6.03170581e-002 -1.71460971e-001 6.59669340e-002
      1.72352586e-002 -1.45385843e-002 7.41752447e-005 3.64231155e-003
      1.15035372e-002 -8.16074759e-002 -8.06541815e-002 3.16476822e-002
      8.90014395e-002 1.85622256e-002 7.01258751e-003 1.99317858e-002
      1.14225067e-001 -2.03871503e-002 -5.23390770e-002 -4.26752195e-002
      3.78184230e-003 -7.04032853e-002 -6.06708787e-002 -9.21036899e-002
      -3.60672325e-002 7.07382709e-002 3.43517363e-002 -5.20035364e-002
      6.19858541e-002 -2.13187141e-003 4.39925790e-002 -2.60383468e-002
      -1.24452539e-001 -4.13315184e-002 4.22073863e-002 -1.46212295e-001
      3.78421843e-002 -6.87471852e-002 -8.75143334e-002 -1.25205070e-001
      -1.13405772e-001 -2.65586078e-001 -7.34790713e-002
      -9.58076492e-002 1.51093379e-001 5.46029471e-002 7.74154291e-002
      2.22288519e-002 7.81403854e-002 6.92325681e-002 -2.93863453e-002
      6.54754937e-002 2.07263544e-001 1.01883344e-001 -5.54256467e-003
      -1.31074255e-002 5.56022301e-002 2.12480322e-001 1.07315645e-001
      -1.33172413e-002 6.56167790e-002 1.67285621e-001 1.44549608e-002
      -6.51758090e-002 -1.88717932e-001 -6.79190382e-002
      -5.60740642e-002 -1.35147959e-001 -2.30681360e-001
      -2.26809029e-002 7.01401234e-002 -1.31952375e-001 -1.79713428e-001
      -9.86584648e-002 -6.78027943e-002 -3.12106144e-002
      -1.72942787e-001 -1.39937386e-001 -9.43348259e-002
      -1.20272823e-001 1.48579568e-001 1.70818225e-001 4.97955680e-002
      -2.86024865e-002 -1.55979944e-002 5.32892793e-002 -8.38433877e-002
      9.60630924e-002 1.57113373e-001 -1.04830094e-001 1.40924025e-002
      1.51530668e-001 -8.48833546e-002 -5.97536750e-002 7.19441548e-002
      1.03531100e-001 6.59076050e-002 4.36251387e-002 -4.91502844e-002
      -1.77790653e-002 3.89157608e-002 -6.52364865e-002 -2.17726946e-001
      -2.04282135e-001 -1.88178807e-001 -9.34406444e-002
      -9.16759074e-002 -2.99717575e-001 -8.20280984e-002 1.43451765e-001
      -1.30673543e-001 -1.48075908e-001 -6.16189688e-002
      -4.96160723e-002 8.74742493e-002 -3.44532073e-001 -6.78580031e-002
      -4.68359254e-002 -1.01687647e-002 8.88275504e-002 1.25347853e-001
      1.07009634e-001 8.73357281e-002 -1.41196121e-002 -3.11375707e-002
      -4.94756885e-002 -6.32897317e-002 -2.55550265e-001
      -1.49112433e-001 5.34861721e-002 -3.00794709e-002 1.44721856e-002
      1.70829386e-004 -1.26840577e-001 -1.96483120e-001 -1.32415786e-001
      -1.40938088e-001 -5.94269000e-002 7.19870860e-003 -1.07899960e-003
      8.78114477e-002 2.56558657e-002 -1.96045026e-001 -2.37112105e-001
      -2.54125506e-001 -2.60010034e-001 -1.49145067e-001
      -3.88362482e-002 -1.22253962e-001 -5.71385175e-002
      -1.23399630e-001 -2.61483014e-001 6.19786978e-002 8.27862024e-002
      -7.48367608e-002 -1.49929330e-001 1.13262825e-001 2.50652283e-002
      -9.42610428e-002 8.25019015e-005 2.93758996e-002 5.75947985e-002
      3.23128961e-002 -6.84649572e-002 -1.95459515e-001 1.26878787e-002
      -1.96798459e-001 -2.23703578e-001 -2.45561805e-002 1.38708621e-001
      -7.26048499e-002 -1.33216813e-001 -1.89578801e-001
      -5.02084047e-002 1.64338768e-001 -2.09684521e-002 -2.04670373e-002
      6.66002259e-002 3.72451879e-002 1.25751190e-003 -9.43487957e-002
      -1.08093306e-001 5.39734634e-003 1.29105628e-001 -9.07958969e-002
      -4.08374034e-002 2.77721398e-002 4.37362641e-002 7.42302388e-002
      4.88193054e-003 1.46885619e-001 1.06289282e-001 1.81644633e-001
      -7.30865374e-002 -5.85857667e-002 -2.59441406e-001 4.29328494e-002
      -3.21062021e-002 -6.96228370e-002 1.41404316e-001 1.59411967e-001
      1.48366600e-001 2.73619294e-002 6.77760839e-002 -1.37677297e-001
      -1.01109438e-001 6.81941435e-002 -1.85570158e-002 3.56901586e-002
      7.72155374e-002 -2.74064839e-002 -3.92691582e-001 -3.13588440e-001
      -4.22702283e-001 -1.37164176e-001 -1.49996966e-001
      -2.09464833e-001 -9.69098285e-002 2.22358108e-002 5.53212315e-002
      -1.32743135e-001 -1.63897708e-001 -2.86341578e-001
      -2.18171299e-001 -3.52582112e-002 3.27105373e-002 1.01532862e-001
      4.66848575e-002 1.88892648e-001 1.60902724e-001 9.97846276e-002
      2.38963682e-002 -6.89864112e-003 -2.83393692e-002 -5.96202202e-002
      7.15260655e-002 -2.24967450e-002 1.07992746e-001 -6.50350899e-002
      -3.20062302e-002 -8.80836323e-002 -5.89324683e-002 1.87886804e-002
      -8.11568797e-002 -3.13330069e-002 8.74683261e-002 1.70746252e-001
      1.20211050e-001 6.69859499e-002 -6.21710345e-002 -2.50510545e-003
      -8.21886733e-002 -2.08348885e-001 -1.19991988e-001 1.57221295e-002
      -4.45161611e-002 -7.70969763e-002 3.74922194e-002 -1.92153633e-001
      -1.19915277e-001 6.06838688e-002 3.74863520e-002 1.15576558e-001
      1.45951763e-001 1.83942497e-001 5.52162193e-002 -2.21830630e-003
      -7.71219283e-002 -2.23179366e-002 -5.22270612e-002
      -4.95139435e-002 -9.13250595e-002 -7.35475942e-002 2.05301289e-002
      -3.48534547e-002 -6.36507869e-002 -7.01745898e-002
      -5.51015313e-004 5.82351573e-002 -1.97994664e-001 -5.64022139e-002
      2.86453776e-002 -7.54163489e-002 -5.70315197e-002 2.30420213e-002
      -6.75213784e-002 7.13166520e-002 -1.16612621e-001 -1.68987736e-001
      1.44705586e-002 -9.75971296e-002 -3.88037413e-002 -7.74748484e-003
      -1.10322654e-001 -1.32782042e-001 -1.40278831e-001 1.59486726e-001
      1.19548462e-001 6.69701165e-003 3.37417386e-002 -3.57994847e-002
      -1.36291990e-002 -1.25809774e-001 1.13871135e-001 1.11705184e-001
      3.62401232e-002 2.56406646e-002 -2.66644567e-001 -7.30260015e-002
      -5.21849394e-002 -1.29058033e-001 -1.16490871e-001 9.41407159e-002
      -1.02654442e-001 9.30388719e-002 1.32311642e-001 1.03539385e-001
      7.26480633e-002 -1.59034699e-001 -8.89552087e-002 -1.76841259e-001
      2.23716833e-002 -3.52527164e-002 -1.82667095e-002 -1.22832455e-001
      -1.13762356e-001 -1.02191716e-001 -6.46878853e-002
      -2.51780659e-001 -9.60407853e-002 -3.40490304e-002
      -1.29173979e-001 6.61927536e-002 1.64802164e-001 2.68734898e-002
      6.84908703e-002 -6.97310567e-002 -1.14895344e-001 -1.48127019e-001
      1.07035369e-001 -6.16692863e-002 -3.78218666e-002 1.07335046e-001
      2.21085057e-001 7.39697192e-004 2.56181713e-002 7.26840943e-002
      -1.10319024e-003 2.28515893e-001 -3.84165160e-002 -1.48828998e-001
      -1.88264266e-001 3.36507708e-002 4.94456515e-002 6.78861961e-002
      -1.99579000e-001 -1.29333898e-001 -9.47532132e-002
      -1.29801407e-001 -2.00405363e-002 -1.19174914e-002 1.33720756e-001
      5.67514971e-002 8.22990164e-002 -1.58269629e-001 -8.76089483e-002
      -7.43753985e-002 -3.30497622e-002 -3.18977311e-002 1.88926551e-002
      9.19146463e-002 -3.11382730e-002 1.03777081e-001 1.58721060e-001
      8.71677026e-002 1.01318978e-001 -1.13291377e-002 1.26461005e-002
      1.63102433e-001 7.66004473e-002 2.19276268e-002 7.52922744e-002
      2.67929547e-002 1.10448740e-001 9.14832670e-003 3.80193032e-002
      -1.23914696e-001 -8.98790061e-002 -1.10632114e-001
      -1.09868601e-001 -8.72052759e-002 -1.48916394e-001
      -2.64122356e-002 1.78823376e-003 -1.37293130e-001 -1.01843983e-001
      -1.27054095e-001 -1.42951244e-002 2.97885183e-002 -1.27566800e-001
      1.02682747e-002 -7.71010816e-002 -4.41198014e-002 -1.87448248e-001
      7.84861948e-003 1.95811898e-001 3.42302471e-002 5.40708303e-002
      1.21607920e-002 -3.81291583e-002 -3.36464532e-002 -3.67775038e-002
      -2.36389618e-002 6.87181652e-002 1.26903161e-001 3.51217052e-004
      -1.56956427e-002 -1.83231123e-002 -1.90134570e-002
      -2.88367756e-002 2.95284521e-002 7.11275935e-002 -1.20516434e-001
      -3.92141603e-002 -1.21247277e-001 5.29108234e-002 -1.46016240e-001
      -5.25836758e-002 -1.48497239e-001 -7.58595988e-002
      -1.16910465e-001 9.76356640e-002 1.10948097e-003 -1.68374166e-001
      -2.56739914e-001 -1.54343024e-001 1.61684565e-002 -8.70680809e-002
      -1.06602339e-002 1.32643431e-001</_>
    <_>
      -7.57086650e-003 1.79261193e-001 -9.49429255e-003 5.55986874e-002
      1.68197617e-001 1.08954072e-001 3.02832518e-002 6.58525974e-002
      -1.23511918e-001 -1.09871894e-001 -1.37120613e-003
      -6.49201795e-002 2.26962939e-001 -9.63456370e-003 -6.18633293e-002
      2.28261594e-002 5.59680313e-002 -1.06207713e-001 4.27908897e-002
      9.90626216e-002 -5.92198931e-002 -5.91099262e-002 1.26612484e-001
      4.64221723e-002 -5.39094843e-002 1.86618809e-002 -4.41709459e-002
      -3.64968553e-002 -5.33075333e-002 -1.59293473e-001 4.92720045e-002
      5.73614500e-002 -3.22898738e-002 -5.79537004e-002 -7.27486098e-003
      -1.29437074e-001 -1.50434285e-001 8.75754375e-003 1.92204826e-002
      2.56479263e-001 -1.94243938e-002 -1.34023815e-001 -4.69565578e-002
      6.34397417e-002 -1.16045177e-001 -1.01891058e-002 7.89003745e-002
      1.16340611e-002 1.39327884e-001 -1.26775473e-001 -1.62026241e-001
      1.01665850e-003 -3.42125148e-002 -1.31041044e-002 -4.33454104e-002
      -1.56581402e-003 1.02073304e-001 1.47313744e-001 3.51526551e-002
      2.05093268e-002 -2.49352865e-002 8.67321156e-003 -1.11914575e-001
      6.40295073e-002 4.04724814e-002 -1.64243917e-003 1.10771909e-001
      -1.56669654e-002 5.14861830e-002 1.21904016e-001 3.11300866e-002
      -1.84621231e-003 -1.07712038e-001 -1.02585346e-001
      -7.38288760e-002 -2.33662892e-002 -2.11479247e-001
      -4.93531600e-002 -3.17493081e-002 -1.19437754e-001
      -1.64624788e-002 -2.29333699e-001 -1.66395992e-001 2.20233314e-002
      -2.26065330e-002 -1.26479223e-001 -3.01256329e-002
      -1.94196597e-001 1.51389157e-002 -1.46187678e-001 4.19995300e-002
      -1.30954728e-001 3.34481932e-002 4.99381423e-002 1.06742335e-002
      9.67501923e-002 1.28180996e-001 6.43687472e-002 1.57639384e-001
      1.66977644e-002 6.71388656e-002 1.50380075e-001 1.11857206e-001
      2.12521046e-001 1.71351627e-001 1.04231760e-001 1.23082556e-001
      8.69687796e-002 -2.04409316e-001 -4.24863100e-002 3.83430487e-003
      5.47888339e-004 -1.57911126e-002 -1.08331189e-001 -1.07142955e-001
      2.96272170e-002 -2.11071566e-001 -1.36835024e-001 -4.34296094e-002
      -1.98667943e-002 1.39913887e-001 1.27169313e-002 -1.37272999e-001
      -1.76307321e-001 -4.23562564e-002 -1.87797397e-001
      -7.98744708e-002 1.13973401e-001 8.38584155e-002 7.97925070e-002
      1.78532213e-001 1.02106616e-001 4.71674614e-002 9.59023461e-002
      3.09272688e-002 3.14005241e-002 7.50062242e-002 8.24923068e-002
      9.00182799e-002 5.92094883e-002 1.69809945e-002 -2.84289122e-002
      1.50544375e-001 -1.73931606e-002 -5.58161661e-002 -3.87794562e-002
      6.01636013e-003 7.78560415e-002 7.28585478e-003 -3.11986785e-002
      -2.03370854e-001 -5.54180183e-002 -1.06225811e-001
      -1.56870008e-001 -9.54649299e-002 2.83101387e-003 9.74758044e-002
      -1.06102236e-001 8.21773931e-002 -1.05315119e-001 -5.29853962e-002
      -1.22239672e-001 9.22861397e-002 5.62202744e-002 1.30787835e-001
      8.34858343e-002 7.84486309e-002 -3.63626741e-002 -3.24946828e-002
      7.20434487e-002 -2.40291152e-002 2.80600111e-003 4.18500900e-002
      9.73132029e-002 1.06313489e-001 1.47354633e-001 -3.84243727e-002
      4.89594080e-002 4.64481004e-002 -3.75555456e-002 -1.04775205e-001
      -1.27797216e-001 2.12348122e-002 4.98337485e-002 -2.20067039e-001
      -2.34559458e-003 -3.70967276e-002 -8.66183490e-002
      -1.35160923e-001 -1.16960062e-002 3.76618397e-003 1.34066626e-001
      1.20302729e-001 -1.70287535e-001 9.54879597e-002 8.48696604e-002
      -4.48312871e-002 -1.41090564e-002 -7.45318159e-002 1.61431059e-002
      5.07596619e-002 1.52254291e-002 -6.86935186e-002 -2.20660299e-001
      8.91740322e-002 -2.84925979e-002 -9.74413157e-002 -1.10889874e-001
      6.19332455e-002 1.24040388e-001 7.84253329e-002 -1.01145543e-001
      1.87031589e-002 8.16159695e-002 -5.63375372e-003 -1.54703379e-001
      5.99146709e-002 1.44442162e-002 1.02700271e-001 1.08270906e-001
      -1.58622488e-001 -1.78854484e-002 -5.70670292e-002
      -8.57290924e-002 -3.40367816e-002 3.21312547e-002 -5.90819009e-002
      3.67680341e-002 8.07829201e-002 -1.21306114e-001 1.04533099e-001
      9.37440470e-002 6.20930307e-002 -7.63218105e-003 3.76713928e-003
      3.99356522e-003 3.25915366e-002 8.48941654e-002 -6.06995448e-002
      -2.55544316e-002 -2.06191078e-001 -1.68314278e-001
      -2.08679155e-001 8.37384015e-002 -3.41831595e-002 2.06400100e-002
      1.08296964e-002 -8.85701627e-002 1.33089870e-001 3.84870097e-002
      1.21056307e-002 5.54485656e-002 8.22295099e-002 1.82071999e-001
      -1.51075736e-001 -5.49957454e-002 -1.69163365e-002 8.57537705e-003
      -2.97791045e-002 9.85793490e-003 3.74516807e-002 -8.59767422e-002
      5.93384877e-002 -1.08128667e-001 2.95922402e-002 3.18247080e-003
      6.54990599e-003 -4.58955728e-002 6.04500100e-002 1.03742229e-002
      9.05504003e-002 6.79136589e-002 -8.95723775e-002 -1.30398527e-001
      -7.04218214e-003 5.97035997e-002 1.61591351e-001 1.29800588e-001
      1.39794886e-001 -1.66276619e-002 5.32694627e-003 -9.51272100e-002
      5.60360551e-002 1.82551757e-001 1.83503330e-002 8.78440142e-002
      6.67596608e-002 9.91375819e-002 -3.32402289e-002 -1.61317885e-001
      -7.72967786e-002 -3.28895487e-002 -7.05815405e-002
      -5.72719984e-002 -2.78102346e-002 -6.33760840e-002
      -1.05266966e-001 6.59184381e-002 6.55854726e-003 -2.51638994e-004
      3.01352572e-002 -9.12683755e-002 3.65063846e-002 1.07335061e-001
      -3.48959863e-003 3.32608819e-002 3.48136127e-002 1.92175880e-002
      -7.22802989e-003 4.53630090e-003 -1.78206358e-002 -5.97025640e-002
      2.55021546e-002 -3.79762836e-002 4.54702415e-002 1.20537944e-001
      1.15567923e-001 1.03592411e-001 1.15371734e-001 4.54026274e-003
      3.80814597e-002 1.26614124e-001 1.17557913e-001 1.15475543e-001
      -1.13674872e-001 -2.39734665e-001 -1.81906000e-001
      -2.00046301e-001 -2.42687166e-001 -1.28370434e-001
      -3.53159420e-002 -1.17112428e-001 -4.24095318e-002
      -1.00464731e-001 -1.31221265e-001 -2.43300181e-002
      -9.76997539e-002 -7.33370408e-002 2.20346041e-002 2.04077587e-002
      -5.99589199e-002 -9.29842442e-002 2.30134707e-002 -3.81279439e-002
      5.61324395e-002 -7.97082558e-002 -5.58280423e-002 -5.18007316e-002
      -2.85658948e-002 -1.35877319e-002 -2.22610682e-002 7.61303753e-002
      1.08369507e-001 1.84659809e-001 -6.16783416e-003 9.57353599e-003
      6.65804520e-002 5.97014185e-003 -2.00567171e-002 2.25746408e-002
      -1.98549461e-002 2.92945802e-002 -5.45145310e-002 -1.09266751e-001
      -9.42645445e-002 -1.55951604e-002 5.03745712e-002 -3.67425680e-002
      -2.67608892e-002 -3.69305946e-002 -4.88994345e-002
      -7.45400116e-002 -1.94986582e-001 -1.91352129e-001
      -1.99695066e-001 -9.20360759e-002 -1.03246257e-001
      -7.63771757e-002 6.16260879e-002 5.20091169e-002 4.03165892e-002
      -3.00037507e-002 5.53875091e-003 8.56444538e-002 1.45209301e-002
      1.32605731e-002 2.71262489e-002 1.84455644e-002 -4.45317151e-003
      8.18989147e-003 -1.39108449e-001 -9.27956402e-002 -1.06088974e-001
      -5.29391393e-002 2.23144926e-002 8.51866156e-002 1.02057243e-002
      -3.04663256e-002 2.30371878e-002 -6.31593615e-002 -1.52177185e-001
      -4.43569273e-002 -4.39854600e-002 1.22924848e-002 -6.81668241e-003
      -1.08419999e-001 -5.38184717e-002 -2.04431508e-002
      -1.24517240e-001 -2.43821532e-001 -1.31126523e-001
      -9.25708860e-002 -1.23329401e-001 -7.78485611e-002 2.86473297e-002
      3.60365734e-002 9.63151455e-002 9.77136847e-003 -6.67508617e-002
      -3.20882164e-003 5.35720997e-002 1.37928754e-001 1.40673831e-001
      2.22542919e-002 1.41912088e-001 1.24077544e-001 -1.37234777e-001
      -1.73953518e-001 1.04945652e-001 3.92971896e-002 5.25110438e-002
      4.87900227e-002 -7.68258050e-002 6.48050830e-002 7.17624649e-002
      -4.99769561e-002 -1.41331375e-001 -2.09918573e-001 1.19232394e-001
      -2.69319508e-002 -1.52889833e-001 -5.03110476e-002 3.63989919e-002
      7.14161769e-002 3.98330837e-002 -1.08889341e-001 -3.04233823e-002
      -8.14126134e-002 -5.36644012e-002 -1.52677000e-001 6.44877106e-002
      1.37605712e-001 1.03264317e-001 -1.00146189e-001 -2.22589135e-001
      2.49640923e-003 5.30795492e-002 -5.46866842e-002 -5.48486738e-003
      7.60298371e-002 4.80031706e-002 5.52083133e-003 -4.94894013e-002
      -1.69638827e-001 -1.28917452e-002 6.78293854e-002 3.16340029e-002
      4.10322752e-003 -3.39324772e-002 4.37829271e-002 -1.15734646e-002
      -2.33631022e-002 6.63569346e-002 -3.14348303e-002 -1.22694470e-001
      -2.02456683e-001 -8.62826630e-002 -5.77834900e-003 7.77151575e-003
      2.15387866e-002 5.39891720e-002 4.49641198e-002 1.15072783e-002
      -1.70138478e-002 -4.04190319e-003 3.71091813e-002 -3.71594690e-002
      -1.42394472e-002 -1.23220108e-001 -2.93132104e-002
      -5.35511225e-002 -1.25387698e-001 -1.42158970e-001
      -2.67535057e-002 -1.69833545e-002 4.50586677e-002 7.34422728e-002
      -1.92099884e-002 3.29584219e-002 -1.39177456e-001 -1.57166019e-001
      8.94454643e-002 5.67457415e-002 1.55562043e-001 3.66390720e-002
      6.63420483e-002 -1.27149925e-001 -3.63985121e-001 -9.23592597e-002
      -5.93969412e-002 1.61433533e-001 1.13545619e-001 1.32859305e-001
      -8.17268491e-002 -7.00939447e-003 -1.44366786e-001 6.16954528e-002
      5.81135340e-002 7.94984214e-003 3.05075478e-002 -5.18670082e-002
      -1.05889642e-003 1.57235205e-001 1.66255057e-001 2.78701168e-003
      -1.24586448e-001 -3.56632657e-002 -6.83681620e-003 1.22031137e-001
      2.03935668e-001 1.48382798e-001 8.95236153e-003 1.15766287e-001
      5.21619618e-002 1.38340801e-001 1.61984518e-001 1.03466205e-001
      5.10624796e-002 9.41889212e-002 1.38231292e-002 -7.64726177e-002
      -8.37156251e-002 -9.43400487e-002 -1.30796105e-001
      -1.14964120e-001 -1.31364614e-001 -1.41470551e-001
      -1.04967728e-001 -3.91739644e-002 1.91002805e-002 -8.52225050e-002
      5.80436252e-002 -5.65210879e-002 -8.60555544e-002 -8.26683417e-002
      -6.16669729e-002 3.41499038e-002 2.56249420e-002 -3.07958592e-002
      4.38880809e-002 7.98347518e-002 1.50976032e-002 4.91943322e-002
      -2.60400623e-002 -1.11117601e-001 -4.98731807e-002
      -7.06086382e-002 6.22347556e-002 1.04463421e-001 1.30822003e-001
      4.98908907e-002 8.23757350e-002 1.15265206e-001 3.69284898e-002
      5.94730489e-002 1.95497014e-002 -1.75053656e-001 -1.65915191e-001
      -7.24954605e-002 -9.47122052e-002 -1.45433292e-001
      -1.92847833e-001 -1.69553354e-001 -5.51622063e-002
      -1.16434120e-001 -9.83031467e-002 -1.87208913e-002 5.14450744e-002
      4.38900944e-003 2.49322644e-003 4.59773317e-002 1.54618733e-002
      -2.30354462e-002 -3.64831090e-002 -1.23335123e-001
      -6.59346953e-002 7.07133580e-003 2.70591467e-003 2.99294549e-003
      -2.83062160e-002 -1.19573167e-002 -2.41136923e-002
      -9.62041095e-002 4.66097258e-002 8.77609253e-002 9.47420970e-002
      1.16140641e-001 1.04568340e-001 1.14444390e-001 1.17623590e-001
      3.43335420e-002 6.61449954e-002 -1.81442022e-001 -9.13853273e-002
      -1.34618968e-001 -1.44917801e-001 2.36983020e-002 1.24144204e-001
      3.36464727e-004 -6.17712922e-002 -7.28440806e-002 -1.02980286e-001
      -1.23739108e-001 -7.10785165e-002 -9.78343487e-002
      -1.24417976e-001 -1.36166900e-001 -5.36800176e-002
      -8.32361579e-002 -8.58066529e-002 3.54815908e-002 2.36496981e-002
      -6.62603602e-003 3.35654728e-002 7.46646374e-002 9.08199474e-002
      1.33733213e-001 3.60578410e-002 1.19790651e-001 2.43911576e-002
      -1.76101048e-002 2.48638336e-002 1.12627288e-002 1.16502643e-001
      8.07697549e-002 1.15451761e-001 -2.47910176e-003 -1.90556943e-002
      -9.38731655e-002 -4.27826829e-002 4.34422530e-002 -2.69783270e-002
      -1.04868613e-001 -1.45313427e-001 -5.92582300e-002
      -6.40030876e-002 -6.65215626e-002 -1.87446728e-001 8.18142109e-003
      -6.99735731e-002 -9.07896236e-002 -1.83496863e-001
      -5.67230955e-002 -1.19956709e-001 -6.83739781e-002
      -1.98463485e-001 2.48508304e-002 5.17412797e-002 1.47515327e-001
      1.07370928e-001 1.12259075e-001 9.30685923e-002 1.15708835e-001
      4.80050594e-002 -7.91687425e-003 -8.94901156e-002 4.90639508e-002
      1.00752659e-001 2.01881845e-002 7.04876520e-003 2.03281865e-002
      9.06419232e-002 5.75122014e-002 -1.02075152e-001 -1.41613454e-001
      2.20442619e-002 -6.00921102e-002 -8.30176547e-002 -1.53578237e-001
      4.95546758e-002 -5.40523045e-003 -4.42297235e-002 -1.07805684e-001
      -1.76267445e-001 -9.64477509e-002 -2.13197514e-001
      -4.26667519e-002 -1.56799629e-001 -5.27284145e-002
      -5.08242957e-002 -2.84524113e-002 -1.40286162e-001
      -2.97656059e-002 7.18358234e-002 3.38619202e-003 5.75684272e-002
      3.36327106e-002 7.14579150e-002 1.26328066e-001 1.31000087e-001
      2.19560750e-002 -2.01198924e-003 -1.69927068e-002 -6.05732910e-002
      7.00766817e-002 -1.08989395e-001 1.04940116e-001 1.22710600e-001
      8.14874619e-002 9.47990716e-002 -1.25773496e-003 -1.90690085e-002
      -1.75546542e-001 -6.88959658e-002 -9.31244642e-002
      -4.69757281e-002 -4.50735688e-002 -7.91937038e-002
      -4.23486978e-002 1.19139776e-001 1.19836740e-001 -6.19313605e-002
      -2.80209966e-002 -1.45066842e-001 -2.03184336e-001
      -3.75974327e-002 -2.73727141e-002 7.95446783e-002 3.55705507e-002
      8.10983479e-002 -9.36689973e-002 -2.45701931e-002 -3.95716019e-002
      5.70149198e-002 1.52856279e-002 -5.96368760e-002 1.04814656e-002
      1.16930909e-001 2.15485007e-001 -4.34288234e-002 5.87300677e-003
      -1.15328386e-001 -9.45519283e-002 -8.91126618e-002
      -1.11813448e-001 3.20093930e-002 1.29491135e-001 6.72060400e-002
      -3.58175822e-002 -1.85950801e-001 -9.23342332e-002 6.21096976e-002
      2.60640290e-002 1.82465971e-001 1.02177054e-001 -2.09901724e-002
      6.68953778e-003 -3.63659975e-003 5.48763424e-002 2.41073579e-001
      7.44816139e-002 -4.32474650e-002 1.04307353e-001 -1.63356867e-002
      1.52262419e-001 1.19215779e-001 -8.86805952e-002 -2.00524732e-001
      -6.99705854e-002 -1.75355151e-001 -4.28178273e-002 1.32402942e-001
      5.67782223e-002 4.67524752e-002 8.15798622e-003 4.55559082e-002
      5.22912927e-002 1.91036493e-001 6.33972660e-002 4.89206612e-003
      7.16221780e-002 -8.10195226e-003 -1.05401158e-001 -6.14389516e-002
      1.78128220e-002 4.27803919e-002 1.09576233e-001 -4.65261079e-002
      -2.56814569e-001 -1.24042280e-001 -1.26370922e-001
      -4.51295637e-002 -4.46263887e-003 -1.64479073e-002 5.74002266e-002
      1.48329601e-001 1.88052937e-001 1.61140617e-002 -5.78425415e-002
      -3.51046808e-002 -7.95267373e-002 -9.70533043e-002
      -6.57765046e-002 3.37126036e-003 1.64634660e-001 -3.44156637e-003
      -1.13230675e-001 -1.30519003e-001 -9.12913457e-002
      -1.43402731e-002 -5.37372939e-002 -3.63168959e-003 8.73945281e-002
      9.93716344e-002 1.24577671e-001 7.57285506e-002 4.65094969e-002
      1.17925756e-001 -1.04847692e-001 -9.83895883e-002 -8.44033584e-002
      8.29576980e-003 -1.77793056e-002 -4.06689830e-002 -6.81662783e-002
      -7.64079541e-002 -7.71182552e-002 4.70061526e-002 2.35879496e-002
      6.33363575e-002 1.28498763e-001 9.02999640e-002 8.44786968e-003
      -9.40649584e-003 -4.52263691e-002 4.90056584e-003 -1.34268388e-001
      -1.83513328e-001 -2.60627028e-002 -3.62777412e-002
      -2.47912928e-002 -2.63562705e-002 -1.79002937e-002
      -7.82575980e-002 2.14972906e-002 -5.94847873e-002 5.63784549e-003
      -4.60866559e-003 6.30158931e-002 2.80946605e-002 -2.00924929e-002
      9.51577723e-003 -4.45498750e-002 -3.59122120e-002 -1.03563471e-002
      -6.29848987e-002 -7.85684288e-002 -7.12020742e-003
      -1.77994426e-002 -1.03341512e-001 -5.23742735e-002
      -1.50609687e-001 -2.21358780e-002 -3.37158027e-003
      -1.08764715e-001 -5.06762005e-002 -4.45931330e-002 6.37838393e-002
      8.78112912e-002 5.76490350e-002 -7.65802786e-002 -4.62877788e-002
      -9.75758135e-002 -4.80194204e-002 -1.18881524e-001 5.86033799e-003
      -1.33551985e-001 -1.06856301e-001 -1.04677178e-001
      -1.03128813e-001 -1.08331598e-001 -1.26778409e-001
      -9.30035338e-002 -1.16703227e-001 -7.14703575e-002
      -1.02997795e-001 -5.87969960e-004 -1.21679250e-003
      -8.10193717e-002 -9.86963287e-002 -2.93746646e-002
      -2.36152373e-002 2.78509576e-002 1.38264298e-002 6.09166548e-002
      2.10406389e-002 3.85344103e-002 -4.21879962e-002 -6.22597151e-002
      -1.85410585e-002 -7.09179714e-002 -7.83382170e-003
      -7.61588383e-003 -3.89151685e-002 -7.39341602e-002
      -4.64806333e-002 -1.26525745e-001 -1.51164725e-001 1.42220939e-002
      3.02557222e-004 -2.29818467e-002 3.86219448e-003 -1.13621550e-002
      -6.26238212e-002 9.70156118e-003 -4.40101884e-002 -2.55713835e-002
      9.19288676e-003 -5.39675355e-002 -4.24749255e-002 -1.78147275e-002
      -1.34977922e-001 -1.34853289e-001 -1.12922169e-001
      -9.14396048e-002 -6.16629757e-002 -3.00630275e-002
      -3.05850580e-002 -2.81360615e-002 9.30688903e-002 1.50989853e-002
      -2.61439551e-002 5.13559431e-002 2.42182612e-003 -1.03609167e-001
      -5.89424893e-002 -1.36412218e-001 -8.04827064e-002 7.91611746e-002
      -4.63888980e-002 -7.59296641e-002 -6.78503960e-002
      -2.60985177e-002 -9.67684016e-002 8.03256873e-003 -8.38313028e-002
      -7.56045431e-002 1.95355397e-002 -5.16588278e-002 1.22925146e-002
      2.75812037e-002 2.00649053e-002 -5.47484728e-004 -1.66794360e-002
      -1.57925561e-001 -7.79430419e-002 -1.89599663e-003
      -9.70843658e-002 -1.01987822e-002 4.32380773e-002 -6.24953471e-002
      -1.16954237e-001 6.97939992e-002 3.70573215e-002 -3.14186811e-002
      1.37128964e-001 8.27813298e-002 3.15021649e-002 -2.54604835e-002
      1.91495121e-002 7.10293800e-002 4.32933941e-002 9.06054005e-002
      -4.46653329e-002 -3.88841964e-002 -8.51153433e-002
      -9.12900716e-002 9.98883974e-003 -2.28327047e-002 4.75897640e-002
      8.90060067e-002 6.88688271e-003 -1.53423613e-003 1.34525016e-001
      8.00846741e-002 -1.06879501e-002 -5.58978468e-002 1.01585202e-001
      8.11454728e-002 9.00008902e-002 2.88608000e-002 -1.54518828e-001
      5.68871163e-002 -1.35809466e-001 -6.64570853e-002 -2.49461308e-002
      8.21725056e-002 1.78048387e-001 1.57785937e-001 9.55306962e-002
      6.16376521e-003 -1.29561320e-001 -1.71055458e-002 -1.99021146e-001
      -8.68268535e-002 -8.81068408e-003 6.42698705e-002 6.44550892e-003
      1.17962092e-001 -1.83062367e-002 1.17981732e-001 2.03084260e-001
      1.01191655e-001 3.84217240e-002 -1.05646923e-001 -1.60947256e-002
      1.51039720e-001 1.16788141e-001 -6.33086339e-002 -1.91031963e-001
      -1.99297126e-002 5.90222478e-002 -6.90116063e-002 -9.18393508e-002
      1.63601879e-002 4.03745985e-003 3.22545618e-002 -7.33426064e-002
      5.37705906e-002 1.63127795e-001 2.58513331e-001 1.60165086e-001
      -7.05187023e-002 -1.21145872e-002 -4.28944603e-002 6.37397841e-002
      -8.33915360e-003 2.27340255e-002 1.27848223e-001 5.64031787e-002
      2.20708828e-002 -2.37420537e-002 -6.77438304e-002 3.65379155e-002
      6.06901161e-002 9.19924751e-002 1.25696838e-001 -2.06543580e-002
      4.50690500e-002 6.61603063e-002 1.32211611e-001 9.57491845e-002
      1.43358968e-002 -5.87010533e-002 -9.23355594e-002 -4.01745401e-002
      1.40349209e-001 3.69028971e-002 4.10206243e-002 -9.73655283e-002
      -1.61854371e-001 5.81120839e-003 -1.36009231e-002 -5.82969151e-002
      -5.98232150e-002 3.79720032e-002 9.25970972e-002 1.33998683e-002
      -9.17909725e-004 -3.57204191e-002 3.36853005e-002 -8.66325945e-002
      -3.73884998e-002 1.97384693e-002 -1.04325730e-002 -2.41631307e-002
      9.99625474e-002 1.37926921e-001 1.36534303e-001 1.11396670e-001
      -9.40430071e-003 3.89848314e-002 8.92757550e-002 9.33723450e-002
      -1.89851336e-002 9.19229463e-002 6.14517033e-002 1.21963874e-001
      -3.72322574e-002 -2.26289839e-001 -1.47309050e-001
      -1.35408163e-001 -9.43789333e-002 -2.34266706e-002
      -7.99993798e-002 5.71166687e-002 6.27293363e-002 4.70212288e-002
      -1.11249432e-001 -8.95703118e-003 2.29154080e-002 6.07255008e-003
      -5.95330708e-002 -4.94610518e-002 -1.01222612e-001 2.16228254e-002
      1.14348140e-002 -1.93781080e-003 5.90354316e-002 8.96985978e-002
      -1.74701866e-002 -1.56096136e-002 4.35997322e-002 -3.90109941e-002
      3.15274708e-002 -4.07106057e-002 -2.09447667e-002 8.39292724e-003
      3.11931781e-003 2.81662773e-003 9.26120132e-002 3.89968790e-002
      -8.34505726e-003 -3.21833678e-002 -3.11063789e-002
      -1.02235116e-001 -3.55144590e-003 1.19498102e-002 -1.04370922e-001
      1.83543446e-003 -7.88742602e-002 -1.33216649e-001 -1.03720792e-001
      -9.17017385e-002 -4.29657213e-002 -1.48646301e-002
      -6.76642582e-002 -4.42718202e-003 3.28426883e-002 -9.15899277e-002
      -1.69944569e-001 -1.04325607e-001 2.56891772e-002 6.67575151e-002
      5.64417318e-002 2.21291333e-002 1.18222833e-001 4.45943624e-002
      4.43705730e-003 2.92809238e-003 7.24715665e-002 9.90314633e-002
      -5.48316725e-003 3.55023257e-002 -2.61207391e-003 -5.30199148e-002
      1.15398020e-002 -7.47953057e-002 -2.03517638e-002 9.65014324e-002
      -1.38636097e-001 -1.25672221e-002 -9.70894247e-002
      -6.87384373e-003 1.04094118e-001 7.96716511e-002 -1.87021587e-002
      -1.94206476e-001 -1.54593393e-001 -5.86839318e-002
      -4.20909524e-002 2.77874377e-002 -3.47982682e-002 -9.02330726e-002
      -2.84152366e-002 -4.31825854e-002 -1.45105779e-001
      -4.12889160e-002 9.02971625e-002 -5.09235114e-002 -4.81325202e-002
      -4.53495644e-002 4.02914174e-002 6.76508546e-002 -5.65884914e-003
      1.54023692e-002 5.21167442e-002 -2.80957739e-003 -8.38875845e-002
      -1.10903271e-001 -5.25411032e-003 -7.38019198e-002 7.21836314e-002
      -3.37636285e-002 -7.25035518e-002 -3.73033509e-002
      -6.99267089e-002 -1.40196353e-001 6.55309930e-002 -3.40485163e-002
      8.10198337e-002 1.53793925e-002 5.59925698e-002 -1.20960422e-001
      -1.10004619e-001 -9.90423560e-002 -1.62474930e-001
      -1.28474474e-001 -3.69007364e-002 -1.52760521e-001 6.16355948e-002
      -4.01573703e-002 -1.35520086e-001 -2.38943830e-001 8.45197588e-002
      2.27625892e-002 -1.66793913e-002 7.39427507e-002 -8.29941127e-003
      -6.34936318e-002 1.30280359e-002 9.84398052e-002 6.07663505e-002
      6.74008951e-002 -9.33610648e-003 -1.55609950e-001 -4.27070893e-002
      -5.71600497e-002 -2.52606571e-002 1.02565866e-002 9.65132639e-002
      1.06016003e-001 -3.69833671e-002 3.22572999e-002 -6.84269667e-002
      -6.02159612e-002 -1.18501201e-001 5.56377694e-002 1.20281361e-001
      1.66620031e-001 -7.79318139e-002 -3.63736637e-002 -8.01102296e-002
      -2.17452571e-001 -1.22446746e-001 -1.49142414e-001 3.59862223e-002
      9.87626985e-002 1.13791443e-001 -4.47622780e-003 1.39873132e-001
      1.33862704e-001 -5.48649915e-002 -2.13777080e-001 -1.02873398e-002
      1.29197717e-001 1.95962451e-002 -3.18322219e-002 7.14129806e-002
      7.48446584e-002 3.89280804e-002 -1.05991185e-001 -5.07864654e-002
      5.10706790e-002 1.06368713e-001 1.11658908e-001 -4.33531068e-002
      -8.42890441e-002 9.90797430e-002 1.38290614e-001 -4.46302593e-002
      -8.36805105e-002 -5.00145815e-002 9.64744985e-002 1.54662728e-001
      6.32089972e-002 3.46028470e-002 7.45790526e-002 1.00167312e-001
      -5.63583486e-002 -6.88883588e-002 -9.89741907e-002
      -5.75518655e-003 -2.34875474e-002 -8.65129009e-002
      -5.38262054e-002 8.60830098e-002 3.47143710e-002 -1.05276480e-001
      -8.11133999e-003 7.39789307e-002 4.70606349e-002 1.13796808e-001
      -6.80137053e-002 -2.58379336e-002 1.00422010e-001 6.91893101e-002
      1.00886272e-002 3.17437351e-002 1.11437850e-001 1.21891394e-001
      -8.19170251e-002 4.75514717e-002 7.28230476e-002 6.84600696e-002
      1.10409662e-001 -2.39668395e-002 -6.27535433e-002 -1.88311841e-002
      1.21761030e-002 4.87413444e-002 -2.41120495e-002 -3.97682600e-002
      7.65857287e-004 -1.27809523e-002 2.30642520e-002 -3.43431272e-002
      6.91892905e-003 3.65662090e-002 6.91783056e-002 -4.95456457e-002
      5.78896655e-003 1.01892337e-001 5.56304194e-002 4.66003604e-002
      1.54695045e-002 4.11024988e-002 1.84551012e-002 2.17732247e-002
      8.00737143e-002 7.70341381e-002 1.07300103e-001 2.92373523e-002
      9.64241102e-002 8.15455243e-002 3.34128477e-002 2.50424854e-002
      1.01971842e-001 4.81078541e-003 7.99013898e-002 1.62106212e-002
      -6.16066158e-002 -3.41678150e-002 -5.38887344e-002
      -6.97176754e-002 -6.13231137e-002 -7.33280778e-002
      -5.29771252e-003 -4.90522617e-003 2.73576379e-002 -2.99414303e-002
      9.96348709e-002 2.75580236e-003 -1.26219571e-001 -1.17579829e-002
      2.29460839e-002 1.24549055e-002 1.20319255e-001 8.73690248e-002
      3.61581519e-002 1.25663549e-001 2.13882774e-002 -2.55596712e-002
      -8.03426281e-002 -7.41724074e-002 -5.37614748e-002 4.80198860e-002
      3.38646173e-002 4.99703847e-002 1.02770545e-001 4.42802012e-002
      1.16751250e-002 6.01807125e-002 2.22290456e-002 -1.36133982e-002
      -7.08628399e-003 -6.54492900e-003 -9.73039344e-002 4.05722558e-002
      -6.38181567e-002 -9.69903842e-002 -1.52773827e-001
      -9.71255302e-002 -5.83353266e-002 4.64829355e-002 -7.39264190e-002
      -8.12071189e-002 6.41823467e-003 -2.27685086e-002 3.10082957e-002
      -7.25178719e-002 9.30518135e-002 -5.06373532e-002 -1.03786521e-001
      9.13315732e-003 4.38539684e-002 2.50409506e-002 2.40568398e-003
      8.97680968e-002 8.97578448e-002 1.34848375e-002 8.47868249e-003
      1.52356438e-002 -1.98853854e-002 2.97803394e-002 1.07542187e-001
      -4.50663222e-003 -2.81359889e-002 5.66203007e-003 1.43876551e-002
      -9.31742713e-002 4.46606241e-002 -8.19509476e-002 -2.52269302e-002
      7.39270821e-002 -1.09059565e-001 2.61491369e-002 -5.74584752e-002
      -4.21145232e-004 -2.26677017e-004 -9.96048972e-002
      -1.38427570e-001 -5.74738011e-002 2.48088539e-002 -8.63155946e-002
      -1.54384658e-001 -1.58064529e-001 -1.16771776e-002
      -1.33384481e-001 -1.50407359e-001 -5.65054044e-002
      -3.90084311e-002 8.06610510e-002 -4.52437736e-002 3.94077152e-002
      3.07353735e-002 2.84817163e-002 -5.00889644e-002 -6.96145114e-004
      -5.26540354e-002 2.25901529e-002 5.19480556e-002 -7.35458359e-003
      -9.36349332e-002 1.04355343e-001 -4.58586914e-003 -5.09635434e-002
      -4.45312783e-002 -1.33509845e-001 -1.85394719e-001 3.83408158e-004
      -7.58743212e-002 -5.10201715e-002 -1.04783535e-001
      -4.47045937e-002 -1.24531612e-001 -1.15081310e-001
      -1.19129293e-001 3.68601875e-003 9.87422243e-002 -6.98538171e-003
      -1.93794165e-003 -6.38921931e-002 -1.00231051e-001
      -1.65251225e-001 -2.20612288e-001 -7.27551430e-002 4.74939384e-002
      -6.76962212e-002 -1.33178994e-001 -8.15866590e-002 7.69855082e-002
      1.00651480e-001 1.31078526e-001 4.50700615e-003 -3.38089541e-002
      1.16700474e-002 -1.15630254e-001 -9.85225067e-002 -1.61906838e-001
      -1.06149308e-001 9.27085206e-002 1.41270652e-001 6.43719658e-002
      -4.20054011e-002 7.12021440e-002 6.88707158e-002 -7.03203157e-002
      -5.82653210e-002 -8.04192126e-002 -4.14447151e-002
      -1.66131556e-002 -4.74227741e-002 -3.07938792e-002
      -8.84378981e-003 -2.81877909e-002 -2.45325714e-001
      -2.02347368e-001 -2.03399301e-001 -8.02327469e-002
      -5.22011817e-002 2.39300095e-002 2.09442720e-001 1.06802210e-001
      1.06787384e-001 2.63125021e-002 -1.56368762e-002 -1.56845711e-002
      1.58939585e-001 -5.50942905e-002 4.34959121e-002 4.52002324e-002
      5.40985614e-002 5.32384850e-002 -1.45581663e-001 -1.10254519e-001
      -1.32781282e-001 -1.44809395e-001 -1.32598549e-001
      -1.82832256e-001 1.94111168e-001 7.03006387e-002 1.71758831e-001
      3.72581258e-002 7.73752108e-002 -5.92674389e-002 2.16511860e-001
      -3.58050652e-002 7.16178790e-002 1.55073488e-002 -2.80610658e-002
      7.47746378e-002 -9.51581672e-002 -4.22696956e-002 4.42226268e-002
      7.71599784e-002 -1.25337154e-001 -7.72601292e-002 8.90741572e-002
      1.40406236e-001 1.04794413e-001 -1.21459821e-002 3.95223647e-002
      7.69324787e-003 1.23662055e-002 3.75616588e-002 -9.73873585e-002
      -3.77685530e-003 8.61132815e-002 5.38251847e-002 -9.05508325e-002
      -5.34640029e-002 -7.94003978e-002 2.71367189e-002 -8.91955849e-003
      -1.58463702e-001 4.74113189e-002 4.24721353e-002 1.81400925e-002
      1.90007258e-002 6.78445026e-002 6.97948039e-002 1.48191571e-001
      3.32608330e-003 7.85864517e-003 -1.21723935e-001 -2.43287850e-002
      1.62267275e-002 -6.58845231e-002 -2.16745697e-002 -1.10689953e-001
      3.64368869e-004 -8.62501040e-002 -7.27568194e-002 -7.10011497e-002
      -6.21741116e-002 3.65300626e-002 -3.67525890e-002 -4.31557521e-002
      -3.22922654e-002 -8.46239403e-002 4.49350849e-002 -1.03897378e-001
      2.46169325e-002 7.58036748e-002 1.11399785e-001 -2.16266718e-002
      -5.06134192e-003 9.03588310e-002 6.78367093e-002 1.29986003e-001
      1.32970378e-001 -1.60283372e-001 -8.36913660e-002 4.39088233e-002
      1.09519437e-002 -2.54214462e-002 -8.17780644e-002 -8.05805251e-002
      -8.80579650e-003 -4.45700139e-002 4.69936356e-002 2.19688043e-002
      2.89655868e-002 -2.07858626e-002 -1.93736050e-002 -2.60730628e-002
      -2.47737586e-001 -1.31280320e-002 1.87309593e-001 -3.02787381e-003
      7.36992061e-002 8.46663043e-002 5.18842461e-003 7.08607957e-002
      2.78006215e-002 3.91958691e-002 6.47996217e-002 8.89830217e-002
      -4.72552925e-002 2.97677480e-002 5.22792302e-002 2.86399554e-002
      1.24191508e-001 5.62509596e-002 1.18849084e-001 5.89116216e-002
      7.96976686e-003 -1.19045405e-002 8.84403065e-002 4.58337590e-002
      7.12231025e-002 3.77301574e-002 3.84839475e-002 -2.42227405e-001
      -1.31363034e-001 -4.43556681e-002 7.02923909e-002 -6.79180250e-002
      -6.43759519e-002 -1.52766099e-002 1.03638873e-001 1.57185867e-001
      -5.81703708e-002 -1.05902329e-001 -1.27221430e-002
      -3.13764438e-002 7.26445094e-002 3.73099409e-002 -5.56141101e-002
      6.00826964e-002 8.11492801e-002 1.13562144e-001 7.41125643e-002
      -6.92334119e-003 -5.69840446e-002 8.63328204e-002 3.14909965e-002
      -2.87692947e-003 -4.25964966e-002 -9.37053654e-003 5.35808951e-002
      -6.71574427e-003 -5.49881794e-002 -5.34783117e-002
      -1.29625320e-001 -9.77456570e-002 -1.28677353e-001
      -1.45578846e-001 3.25574283e-003 -1.66866109e-002 -4.66874801e-002
      -1.25600889e-001 -7.22960010e-002 -5.94866090e-002 3.47592831e-002
      3.39046568e-002 -2.52620075e-002 3.20125297e-002 8.65443982e-003
      -1.23068001e-002 -1.27617151e-001 -1.83041450e-002
      -1.71860959e-002 -7.19193369e-002 -4.35357653e-002 1.70027260e-002
      -3.74234701e-003 1.84734855e-002 3.90638933e-002 2.27958709e-002
      -5.98430783e-002 5.73898330e-002 1.45913512e-001 -7.77168944e-002
      9.80598032e-002 -1.44881625e-002 3.76317315e-002 1.15290061e-002
      -2.51128320e-002 -1.50529027e-001 6.74378872e-003 7.53262788e-002
      5.97246662e-002 6.68701902e-002 7.40837678e-002 -4.32183146e-002
      -1.57970581e-002 -1.20309256e-001 -1.65887684e-001
      -4.65352386e-002 -1.79041289e-002 -1.11764051e-001 5.72500825e-002
      3.58664542e-002 3.80109511e-002 -1.03294000e-001 -2.74296761e-001
      -7.83035904e-002 6.55616401e-003 8.81503001e-002 -1.02646418e-001
      3.36785391e-002 6.00442514e-002 7.03066634e-003 3.62687372e-002
      6.71290830e-002 -6.20980710e-002 1.06706895e-001 1.60258889e-001
      -7.75948614e-002 -1.04116648e-001 -8.07293355e-002 1.37519762e-002
      8.72844234e-002 1.19335979e-001 -7.75496140e-002 -1.34273777e-002
      -1.31790629e-002 -9.14798155e-002 1.77472029e-002 1.03256233e-001
      6.81273267e-002 1.82602759e-002 -9.40981805e-002 -5.74354716e-002
      -7.68916029e-003 4.43820991e-002 -7.39895105e-002 -9.57845151e-002
      -9.25368816e-002 6.28406927e-002 5.05124591e-002 -4.86737292e-004</_>
    <_>
      1.48223996e-001 3.08238089e-001 1.52501032e-001 5.54041043e-002
      9.65544879e-002 8.16682875e-002 1.24763250e-001 2.18046397e-001
      -1.76561642e-002 -1.00044645e-001 -3.88031863e-002
      -1.47730764e-002 6.42439201e-002 2.13245288e-001 -1.36324046e-002
      4.01249640e-002 -2.87830643e-002 -2.32514530e-001 1.51709944e-001
      1.35280296e-001 -1.71307027e-001 -6.69928938e-002 2.92855445e-002
      -1.66771501e-001 3.89455520e-002 3.20379324e-002 5.09331413e-002
      -2.14518115e-001 -2.79312074e-001 -2.29515180e-001
      -1.69188306e-001 3.68476883e-002 -1.09211259e-001 6.93157688e-003
      -2.71672066e-002 -1.62885681e-001 -3.84786315e-002 7.60949776e-002
      9.02818441e-002 2.08075583e-001 3.75021696e-001 6.69897497e-002
      1.20926816e-002 -4.72199917e-002 -1.26527086e-001 -2.33981922e-001
      6.29076511e-002 -8.76892582e-002 4.39771861e-002 1.76744998e-001
      -5.89707829e-002 -2.65298169e-002 -3.48964147e-002
      -2.56485075e-001 -9.57903489e-002 -1.04214707e-002 5.55251203e-002
      8.91023874e-002 2.08471268e-001 -6.30934015e-002 2.15992574e-002
      5.04836328e-002 -5.09667061e-002 -4.25106362e-002 -8.17872360e-002
      -1.69103190e-001 -8.21259916e-002 -4.39632311e-002
      -1.52979448e-001 4.66053141e-003 -6.66478649e-002 -1.13985978e-001
      -8.52128416e-002 1.07746921e-001 -5.82070882e-003 3.49838566e-003
      1.14199907e-001 -3.08047887e-002 7.51096755e-002 2.37730052e-002
      -8.58776271e-002 -1.95656523e-001 -7.21316636e-002
      -1.09471949e-002 -6.51870221e-002 -1.13768093e-001
      -2.81435959e-002 -3.81295122e-002 2.55063102e-002 -1.46540955e-001
      -2.12796629e-004 -3.26771513e-002 -9.58318710e-002
      -1.55989937e-002 2.48543844e-002 -6.59055412e-002 5.15048131e-002
      4.01741229e-002 -7.98972994e-002 -9.64791253e-002 -1.24458417e-001
      -7.64784440e-002 -1.33548617e-001 -4.45913570e-003
      -1.62678193e-002 2.97206901e-002 1.30821916e-003 -1.00265816e-001
      -2.03770533e-001 -9.58242044e-002 1.52064981e-002 -1.50618898e-002
      -4.31030877e-002 -3.65002714e-002 -7.89253861e-002 6.86975941e-002
      -4.34652623e-003 -1.91144243e-001 -1.19275354e-001
      -1.73558611e-002 2.28502266e-002 -4.80995364e-002 -1.03744231e-001
      -9.32718441e-002 7.16485381e-002 -6.18643500e-002 -1.54563040e-001
      -1.77786455e-001 -5.02349548e-002 -2.31471136e-002 3.80933918e-002
      -6.36483431e-002 -2.85367128e-002 -6.84821382e-002
      -1.13624465e-002 -1.43564105e-001 -1.36084005e-001
      -1.18524015e-001 -6.40937686e-002 5.91150001e-002 -1.62034184e-001
      -1.20850429e-001 -1.32056577e-002 -2.18453612e-002
      -1.91785261e-001 -2.93088052e-003 5.44907004e-002 3.15902755e-002
      1.61268011e-001 1.67528130e-002 -1.41418567e-002 -2.42441520e-002
      -1.71805710e-001 -1.97252274e-001 -2.53197215e-002 1.31419688e-001
      5.23507502e-003 7.00833574e-002 1.15705520e-001 -4.51750830e-002
      -2.39869878e-002 -1.33202419e-001 -1.27054185e-001
      -1.67541638e-001 -6.18003979e-002 -1.32354558e-001 6.79208487e-002
      -1.39883712e-001 -2.09407657e-001 -1.62406087e-001
