<?xml version="1.0"?>
<opencv_storage>
<opencv_ml_svm>
  <format>3</format>
  <svmType>C_SVC</svmType>
  <kernel>
    <type>LINEAR</type></kernel>
  <C>1.</C>
  <term_criteria><epsilon>1.1920928955078125e-007</epsilon></term_criteria>
  <var_count>1764</var_count>
  <class_count>6</class_count>
  <class_labels type_id="opencv-matrix">
    <rows>6</rows>
    <cols>1</cols>
    <dt>i</dt>
    <data>
      1 2 3 4 5 6</data></class_labels>
  <sv_total>15</sv_total>
  <support_vectors>
    <_>
      1.11072086e-001 2.21714824e-001 3.80465016e-002 1.81433424e-001
      3.59132230e-001 2.73875505e-001 1.13113590e-001 4.90985401e-002
      -1.78200901e-002 3.35210375e-002 2.07219422e-002 6.84781671e-002
      1.43023774e-001 -6.92501366e-002 -1.05496064e-001 -1.49365827e-001
      -2.22340032e-001 -6.30412474e-002 2.42823977e-002 2.70586237e-002
      -1.04988724e-001 -2.53512621e-001 -1.47216059e-002 5.11993803e-002
      5.41019440e-002 3.97860035e-002 -5.82153536e-002 -1.74873099e-001
      -7.19007850e-002 -1.87119231e-001 -3.19558978e-001
      -1.44723073e-001 -2.22047776e-001 6.91547319e-002 -6.37812391e-002
      -2.30929211e-001 2.91160464e-001 6.09455183e-002 1.82056539e-002
      1.59380555e-001 -4.81470674e-002 -1.79463610e-001 3.37162614e-002
      3.10815070e-002 1.10748589e-001 -3.13375220e-002 1.38795257e-001
      4.99129370e-002 6.57122955e-002 1.32201044e-002 -3.14354487e-002
      6.43841028e-002 -5.07815406e-002 -2.47017577e-001 -1.94074691e-003
      1.39883091e-003 -3.00143547e-002 -2.10025191e-001 -8.44159052e-002
      -1.44344389e-001 8.75228718e-002 1.00748343e-002 -5.53038418e-002
      -3.13564003e-001 -3.20505172e-001 -1.84145644e-001
      -6.29200265e-002 -1.54792309e-001 -1.56638145e-001
      -8.04838911e-003 -1.39085561e-001 -3.41816783e-001 1.58609539e-001
      4.46018167e-002 2.06788659e-001 2.52786696e-001 1.74227893e-001
      1.40258148e-001 1.13226138e-001 -1.15076848e-003 -4.94519109e-003
      2.51531955e-002 6.23833798e-002 1.08713359e-001 7.95278251e-002
      5.54189384e-002 -1.50440559e-001 -1.14821076e-001 -7.89757967e-002
      -1.11249968e-001 -1.55456364e-001 -4.83800769e-002
      -2.16286462e-002 5.49633466e-002 6.95597753e-002 4.86293137e-002
      3.66454162e-002 9.21084732e-002 -2.23243728e-001 -2.12475657e-001
      -8.34987089e-002 -2.93213814e-001 -4.50500727e-001
      -4.19770300e-001 -1.47104532e-001 -3.31427306e-001
      -8.65954012e-002 -4.54946905e-001 -6.23091422e-002 5.07616028e-002
      1.49370864e-001 1.17626630e-001 1.84120595e-001 -5.44554600e-003
      -5.11763096e-002 4.27703485e-002 -1.31594807e-001 -2.56669521e-001
      -4.06958014e-002 -6.05771095e-002 -1.23751841e-001
      -2.18751490e-001 -4.86900173e-002 1.50817826e-001 -9.46575329e-002
      -3.28666002e-001 3.45323719e-002 3.02226981e-003 -1.20048240e-001
      -2.08065033e-001 -1.28858939e-001 -1.28737167e-001
      -1.20621473e-001 1.81724150e-002 -1.12365097e-001 -9.01967958e-002
      -2.37344772e-001 -2.54300445e-001 -1.96566939e-001
      -6.47473484e-002 -4.14072424e-002 1.04979128e-001 4.23797369e-002
      -3.70331407e-001 -1.23434648e-001 -1.21749741e-004
      -2.40368918e-002 -3.64509672e-002 -4.55985636e-001
      -9.38123614e-002 1.44497514e-001 -8.25408697e-002 -2.21343011e-001
      -1.93513576e-002 -1.03803448e-001 7.86952525e-002 -5.84539399e-002
      -1.35428742e-001 -9.87400264e-002 4.85519394e-002 -2.06179947e-001
      -9.56741869e-002 -1.65931344e-001 -1.13666587e-001
      -2.68977582e-002 1.38176054e-001 -2.95441691e-002 -1.26293316e-001
      6.11581169e-002 5.62401339e-002 -1.40892908e-001 -6.09012283e-002
      -1.09303601e-001 -2.84424741e-002 -2.06498265e-001
      -6.06719330e-002 -8.01610872e-002 2.32346766e-002 8.22208971e-002
      -2.25381032e-002 -1.10840715e-001 -2.15744868e-001 1.50480792e-001
      -1.08191192e-001 -8.15760624e-003 4.68495004e-002 7.43735395e-003
      -2.34380662e-001 -2.16956183e-001 -1.91395357e-001 2.94126309e-002
      1.76513374e-001 1.24226369e-001 1.06005505e-001 3.63443375e-001
      2.53398776e-001 1.61022805e-002 -1.61472231e-001 -1.96645066e-001
      -2.08047897e-001 -7.52725899e-002 -4.44472015e-001
      -1.31557122e-001 -3.42482887e-002 -1.09518727e-003
      -6.36943476e-003 -1.52510434e-001 1.30587528e-002 3.97142358e-002
      3.91216539e-002 -8.31457004e-002 -1.35452792e-001 -1.54244555e-002
      9.37585086e-002 2.18636587e-001 1.03273444e-001 -2.16726556e-001
      2.80258451e-002 9.76327807e-002 -1.45693719e-001 -7.06375390e-002
      -1.71080101e-002 -4.71689738e-002 -2.08914623e-001
      -2.39028811e-001 1.35851085e-001 2.47406438e-001 4.00649160e-001
      2.08083123e-001 -2.22352207e-001 4.91495043e-001 6.39460310e-002
      5.90458624e-002 1.40809834e-001 -2.41899133e-001 -1.05116904e-001
      -6.55284673e-002 -2.42181256e-001 -3.33064854e-001
      -1.65899426e-001 -1.84779778e-001 -1.84387088e-001
      -5.51281795e-002 1.88220501e-001 7.43434653e-002 2.94965744e-001
      1.96716160e-001 -4.35499638e-001 1.95503369e-001 -8.86636600e-002
      -5.16323037e-002 2.44824961e-001 1.62510365e-001 2.38497093e-001
      -3.53293605e-002 -1.60986349e-001 7.48406276e-002 2.15896174e-001
      3.60278524e-002 -6.77264202e-003 1.61611378e-001 -2.78117713e-002
      7.90538713e-002 -2.45322399e-002 -2.38579124e-001 1.86236948e-001
      1.45965397e-001 4.82376590e-002 -1.11787021e-001 -3.47367346e-001
      -5.29417209e-002 3.88865322e-002 8.92148465e-002 -1.57578185e-001
      -4.09835875e-002 -6.36510774e-002 1.40357828e-002 4.34296858e-003
      1.06358649e-002 -2.58790672e-001 -1.49497136e-001 -6.27423823e-002
      -2.56020457e-001 -1.51632145e-001 4.41456996e-002 -1.53010339e-001
      -1.94758013e-001 -3.68756473e-001 1.60399124e-001 3.67307812e-002
      1.91842280e-002 -2.28212457e-002 -9.58455279e-002 -6.24265894e-002
      1.20587490e-001 5.86725622e-002 -1.67859476e-002 -5.33839688e-002
      -6.01459928e-002 1.70483887e-001 1.69249937e-001 -2.49011256e-002
      -1.38085157e-001 -1.38317896e-002 1.87383108e-002 1.93184130e-002
      -1.19962841e-001 -1.19939268e-001 5.84965311e-002 7.29592890e-002
      -2.81533878e-002 -4.24814299e-002 1.64782107e-001 2.85784733e-002
      -1.44034967e-001 -1.81207865e-001 -2.12658569e-001
      -1.70923397e-002 4.45894822e-002 -1.64499193e-001 -1.10097349e-001
      -1.49326444e-001 -1.51628882e-001 -1.04309149e-001 1.89186051e-001
      -1.64854154e-002 -1.39412567e-001 4.23154980e-003 -1.95591543e-002
      -5.12657966e-003 -2.29129568e-002 2.21460223e-001 1.63124442e-001
      -3.70255560e-002 -7.57712722e-002 -2.36855686e-001
      -1.56645179e-001 -1.70293689e-001 -1.50962189e-001
      -1.36129171e-001 2.62507889e-002 -3.01042706e-001 8.08806047e-002
      5.58675155e-002 -7.49988407e-002 1.93483625e-002 -5.14494069e-002
      1.18433774e-001 -5.64061701e-002 8.76735374e-002 7.43457526e-002
      -6.65046573e-002 -3.64885218e-002 -2.04049647e-001
      -1.54866785e-001 -2.17731327e-001 -1.69579148e-001
      -2.06223410e-002 -4.92759496e-002 -2.34459624e-001 1.78095493e-002
      -1.37774944e-001 -2.87549406e-001 -1.48392811e-001 2.97719869e-003
      -1.94621176e-001 -2.50652999e-001 2.41811424e-002 -1.02668568e-001
      -1.48319229e-001 -2.22505316e-001 -1.32418856e-001
      -3.41503099e-002 1.58669367e-001 -8.40429068e-002 -2.30426658e-002
      1.54105648e-001 -7.43672252e-002 9.48682576e-002 -4.10668254e-002
      -3.59621197e-002 -6.58190548e-002 9.32036415e-002 -2.34691203e-001
      -1.55242279e-001 -6.18288852e-002 3.73274498e-002 -6.60748854e-002
      -3.32832485e-001 5.83837517e-002 -3.49587537e-002 2.27737743e-002
      -1.07567348e-001 1.49548098e-001 2.73202896e-001 7.42120445e-002
      -2.17762753e-001 -1.17680348e-001 -2.98064519e-002 4.86949235e-002
      1.49622053e-001 -1.80597723e-001 -1.84190661e-001 -3.01355291e-002
      -2.43411168e-001 -1.23544306e-001 8.62978306e-003 -1.03638738e-001
      -1.02820173e-001 1.25265270e-001 -1.48616537e-001 -9.21655297e-002
      -6.10518865e-002 -1.84158996e-001 -1.92002267e-001
      -2.41957843e-001 -1.03225812e-001 -2.00731978e-001 5.04344702e-002
      -1.34375229e-001 -3.16694565e-003 8.95513520e-002 -1.14776164e-001
      6.34324327e-002 -1.34225518e-001 -2.91992366e-001 -2.37698287e-001
      -7.35200883e-005 -4.85466644e-002 1.16189323e-001 8.54151603e-003
      -5.18674776e-002 -6.70386776e-002 -3.62822898e-002
      -1.03052400e-001 -8.48470554e-002 -1.54121090e-002
      -2.72167683e-001 -1.35649502e-001 -9.42251980e-002
      -1.84997231e-001 1.93390660e-002 5.09747751e-002 1.99965104e-001
      9.42152292e-002 -1.11391403e-001 -9.50257927e-002 4.56374232e-003
      -2.07500514e-002 -1.22999512e-001 -1.19983763e-001 1.66365989e-002
      -1.27432823e-001 -3.80492657e-002 -4.39767428e-002
      -2.07178608e-001 -6.34055138e-002 -1.40433013e-001
      -8.82231444e-002 -1.08783074e-001 -1.16550088e-001 1.33552790e-001
      8.04617554e-002 -5.77555001e-002 6.36816844e-002 5.18759340e-002
      -6.69280961e-002 -8.39742720e-002 -1.82070270e-001
      -6.90786466e-002 7.55253211e-002 9.78537202e-002 -8.03028699e-003
      -9.38558653e-002 -1.26316652e-001 -2.62747202e-002
      -7.53149809e-003 2.81401753e-001 1.11664288e-001 2.20786467e-001
      1.58798411e-001 -9.56995711e-002 -4.76060845e-002 -1.57822341e-001
      -1.22944221e-001 2.24407673e-001 -2.97624409e-001 -2.51935363e-001
      -3.11725121e-002 4.23740670e-002 -1.38073564e-001 -5.37105426e-002
      8.80256742e-002 -8.46951380e-002 -1.93089098e-001 2.23692000e-001
      2.28372179e-002 8.05199444e-002 -1.42654106e-001 -1.91364899e-001
      -7.83513784e-002 8.39554146e-002 7.50513449e-002 1.83632240e-001
      1.95260689e-001 1.87434211e-001 2.99863636e-001 -3.26906815e-002
      6.45857826e-002 -8.70242566e-002 1.05056010e-001 -1.10650361e-001
      1.75685763e-001 -1.94900185e-001 -3.66851389e-002 2.62648091e-002
      -2.66772598e-001 -1.99092403e-001 -2.03639314e-001 7.32274773e-003
      -2.43961290e-001 -1.37380525e-001 3.07085127e-001 1.97191820e-001
      3.13471228e-001 9.47011262e-002 9.03541297e-002 1.56962201e-001
      1.05975389e-001 -1.78411707e-001 2.16733202e-001 -3.96051198e-001
      -7.39293173e-002 -4.94907610e-002 -2.46657521e-001
      -1.03553474e-001 2.17411947e-002 1.06464274e-001 -3.51430595e-001
      -2.96998531e-001 -2.43583508e-002 9.55581069e-002 3.68743800e-002
      -4.10850830e-002 5.31914048e-002 -7.02787132e-004 1.61456317e-001
      2.50784576e-001 1.09465733e-001 -9.10640284e-002 -8.04986954e-002
      -9.98053402e-002 -1.34261936e-001 -1.09262317e-001
      -1.31136239e-001 2.39153914e-002 1.65600985e-001 4.73035164e-002
      -1.12258248e-001 2.41682157e-002 6.47571832e-002 -4.05609533e-002
      8.46992731e-002 1.42191485e-001 1.69970661e-001 1.04740024e-001
      -1.10715680e-001 -2.66105294e-001 -1.15367003e-001
      -6.19754288e-003 -3.07218432e-001 -1.44736528e-001
      -1.78975001e-001 -2.25476414e-001 -1.05830925e-002 9.42328200e-003
      3.74204889e-002 -1.03196368e-001 -1.05411023e-001 -9.20993611e-002
      -1.01134703e-002 -4.49677184e-002 -4.83998060e-002 2.65569612e-002
      2.90676672e-002 1.14051126e-001 -1.53836206e-001 -1.14121556e-001
      -1.23010129e-001 -8.54068622e-002 3.90910506e-002 9.83563811e-002
      6.86720805e-003 6.11674897e-002 -5.54681383e-002 -1.21995278e-001
      -1.39991835e-001 -2.76315302e-001 1.64887926e-003 -3.32953632e-001
      -1.14749819e-001 -1.02616854e-001 1.64695203e-001 -1.59237105e-002
      -1.26966491e-001 -1.26946285e-001 -2.29838774e-001
      -6.67912513e-003 8.02471787e-002 2.19644271e-002 2.46665496e-002
      -5.27225377e-004 -8.11361149e-002 -1.16225451e-001 4.62481864e-002
      -5.60211428e-002 5.27084768e-002 -1.53188094e-001 3.85849620e-003
      -2.09370211e-001 -2.40307406e-001 -7.35137463e-002
      -1.47543758e-001 1.09446838e-001 2.56829709e-002 1.81821272e-001
      -1.63834140e-001 3.45996544e-002 -6.69649914e-002 -1.19915076e-001
      -8.11444670e-002 -1.14701912e-001 1.35186044e-002 -8.09415206e-002
      1.45574249e-002 6.26303535e-003 7.60998651e-002 -4.70593721e-002
      -1.17775314e-001 -1.51808575e-001 1.13477953e-001 1.08157456e-001
      -5.67044839e-002 1.31216049e-001 -1.72840327e-001 1.91038791e-002
      -4.74740937e-002 -5.37019297e-002 -1.87763959e-001
      -1.41151905e-001 -4.02376764e-002 -8.57273191e-002 8.17649364e-002
      -1.39674515e-001 -4.26106937e-002 3.87447849e-002 -4.97466661e-002
      -3.84729952e-002 -9.37986225e-002 -2.01841798e-002
      -8.87742937e-002 -8.35301504e-002 -1.28760830e-001 4.45229746e-002
      1.00459997e-002 9.38275084e-002 -1.12918109e-001 1.41063914e-001
      1.64300472e-001 5.68006746e-002 1.78072485e-003 -3.16786647e-001
      -3.20592150e-002 -6.34839460e-002 1.20327890e-001 -9.77590606e-002
      6.76405281e-002 6.74133524e-002 1.39555559e-001 5.86482286e-002
      -1.45551473e-001 8.19219872e-002 7.01086298e-002 2.03086305e-002
      -7.22380355e-002 -1.87192261e-002 1.16338387e-001 -9.29559916e-002
      -2.10172579e-001 -2.59613127e-001 -1.34266555e-001
      -1.99947849e-001 -4.57415618e-002 -3.73637415e-002
      -4.84557003e-002 2.22782791e-001 9.81965438e-002 3.73973884e-002
      -1.77193299e-001 -5.21500818e-002 -1.61715955e-001
      -2.57891323e-002 -2.23485768e-001 -7.07635423e-003
      -3.97011787e-002 -2.70197630e-001 -1.77491531e-001
      -2.67830074e-001 -1.12293772e-001 -2.60486752e-001
      -7.44037554e-002 -2.15697482e-001 -1.02428325e-001
      -1.49010718e-002 -2.31301069e-001 -1.51948968e-003
      -1.46992698e-001 -8.77911747e-002 3.03752795e-002 -8.92346501e-002
      -2.57719159e-001 -2.45477006e-001 -1.22458776e-002
      -1.63095936e-001 -1.62200660e-001 -3.26767325e-001 5.25130965e-002
      -9.40101072e-002 -1.98923349e-001 1.90248534e-001 -1.27489150e-001
      -3.84807885e-002 -7.35181868e-002 -1.58517100e-002
      -1.87340066e-001 5.23126125e-002 1.60529107e-001 -6.82638056e-005
      -3.12890202e-001 -3.40010673e-001 -8.10320303e-002
      -1.94493681e-001 -6.01986237e-002 -2.20974743e-001
      -1.35119423e-001 -8.11146349e-002 -2.86939055e-001 2.64575686e-002
      -3.28731760e-002 4.65172492e-002 1.49085090e-001 6.20275624e-002
      9.83227417e-002 -2.06646416e-002 7.15420917e-002 -1.33773014e-001
      2.68865645e-001 2.35276282e-001 1.57983646e-001 9.68269352e-003
      -8.46332759e-002 2.50999838e-001 -8.36988539e-002 1.38476593e-002
      2.53438473e-001 -1.45002618e-001 -2.10403547e-001 9.73256975e-002
      -1.69043452e-001 -1.77312572e-003 -2.43768115e-002
      -5.55871129e-002 -2.00092569e-001 -2.66588360e-001 1.97380871e-001
      9.42499712e-002 -1.16577975e-001 1.03257753e-001 1.31375954e-001
      1.93422973e-001 1.83325648e-001 2.31380865e-001 1.97592840e-001
      -4.46148366e-002 -2.84372061e-001 -2.34175563e-001
      -1.15451425e-001 -1.72309488e-001 -9.80445221e-002
      -2.79334068e-001 -7.71842599e-002 -1.09773532e-001 6.15033088e-003
      -3.26050408e-002 5.73224910e-002 2.37778556e-002 -6.68348595e-002
      1.27789840e-001 2.56552845e-002 5.22983298e-002 -6.51342049e-002
      -3.21593396e-002 2.64344756e-002 -3.13244835e-002 -1.17838420e-001
      -1.12053864e-001 -1.41259670e-001 -2.44429484e-001
      -6.05138242e-002 2.18611751e-002 -1.82243176e-002 -1.49435967e-001
      5.42105846e-002 -3.34183834e-002 -1.61168516e-001 -6.65736422e-002
      -3.47577920e-003 1.90685302e-001 1.04881711e-001 2.81251278e-002
      -6.05773851e-002 -9.62272938e-003 -1.49373025e-001
      -1.30615532e-001 -3.02814078e-002 -3.32136825e-003 1.72680467e-001
      -1.23144381e-001 -1.39521301e-001 -3.01747657e-002
      -9.53174978e-002 -7.36818537e-002 -8.25685039e-002
      -3.46061230e-001 -3.69045734e-001 -1.89740181e-001 5.86683676e-002
      -6.97100610e-002 1.03731370e-002 4.44283523e-002 3.76493782e-002
      -5.85510582e-003 -4.44124341e-002 -1.39498964e-001
      -6.93332590e-003 -7.40094706e-002 -2.46074703e-002
      -1.06996119e-001 -1.92082599e-001 -1.55866757e-001
      -1.48128420e-001 -4.43458445e-002 -1.25611380e-001 1.83517650e-001
      4.28855456e-002 -5.04987761e-002 -4.99080010e-002 6.36264635e-003
      -3.86370867e-002 -2.36383919e-002 -1.08311348e-001
      -9.21200216e-002 6.62480593e-002 -6.15866594e-002 -9.90895480e-002
      -6.52582943e-002 7.92270675e-002 1.55520318e-002 -3.76602225e-002
      6.06230646e-003 8.61209258e-002 5.87151712e-003 -9.64867696e-002
      5.09164389e-003 2.16500480e-002 -6.98704869e-002 -1.10482588e-001
      -1.85762588e-002 -3.19900475e-002 8.99532139e-002 -6.82246163e-002
      -7.37797245e-002 -5.17321266e-002 -7.89379701e-002
      -4.75605950e-002 -2.31387705e-001 -8.26343894e-003
      -1.42833725e-001 4.76118773e-002 2.90242191e-002 -1.21114895e-001
      -4.43815291e-002 -4.31659259e-002 -1.51579663e-001
      -1.94055974e-001 -3.73742431e-002 -5.18330820e-002 7.81302247e-003
      -9.35458951e-003 -6.26871809e-002 -1.15967374e-002 7.04250336e-002
      -6.07448332e-002 3.20052430e-002 1.86291523e-002 -1.54951766e-001
      -1.43766195e-001 -8.17013532e-002 -4.45425399e-002
      -3.85485217e-002 7.79025853e-002 2.01375894e-002 -7.40455389e-002
      4.47003022e-002 -5.79977073e-002 -2.13837177e-002 -1.82225672e-003
      1.79826729e-002 -8.88816416e-002 -5.13715297e-002 -1.52180165e-001
      -1.76717341e-001 5.55980531e-003 -2.01943725e-001 -4.20451425e-002
      5.09320907e-002 -6.49869954e-003 -7.14920163e-002 1.14524022e-001
      3.10913753e-002 -9.71621424e-002 8.80547091e-002 -1.23343199e-001
      3.99622582e-002 1.81322441e-001 -5.01014851e-002 -7.64797404e-002
      2.94343457e-002 -3.04693375e-002 -3.29275370e-001 -1.33413464e-001
      -1.20998673e-001 -1.34768933e-001 -1.14279725e-001
      -5.30753322e-002 -4.94393371e-002 -1.81104362e-001
      -2.73282416e-002 -1.58260614e-001 4.30713817e-002 -1.27921812e-002
      7.88242370e-002 8.75122920e-002 1.76446512e-002 -2.05517650e-001
      2.31879987e-002 2.69107893e-003 -1.63773358e-001 -1.82902142e-001
      -1.47706449e-001 -2.16059163e-002 -8.21048468e-002
      -1.94115534e-001 -1.14920683e-001 -6.61673322e-002 1.39061928e-001
      5.28081553e-003 1.52800053e-001 6.83770478e-002 9.10179093e-002
      2.80137360e-002 -6.05110936e-002 -1.35792270e-001 -3.36391330e-001
      -2.90703923e-001 -6.50668740e-002 -1.87152207e-001
      -1.90153897e-001 -1.08218886e-001 -1.34797156e-001
      -1.90757066e-001 1.64298669e-001 -8.77913646e-003 -4.30740714e-002
      1.14621304e-001 -2.10593924e-001 -1.46665230e-001 3.37673463e-002
      1.02693941e-002 1.51947051e-001 -1.12076528e-001 -1.92205861e-001
      -7.85002932e-002 -9.00985971e-002 -4.16185540e-005
      -1.65507466e-001 -1.09288163e-001 -1.22274898e-001
      -1.02616698e-001 1.96131960e-001 1.21447094e-001 1.27761662e-001
      1.44433275e-001 -3.01422309e-002 -5.46336286e-002 1.65333822e-001
      4.76611592e-002 3.68359447e-001 1.88655898e-001 1.15179762e-001
      4.43344191e-002 -1.03785038e-001 -8.26549828e-002 4.31896821e-002
      1.50628000e-001 8.02497268e-002 1.44232556e-001 -1.37229159e-001
      -3.76308002e-002 -9.06863809e-002 -7.75498077e-002
      -1.95127547e-001 -2.28304863e-001 -2.54456818e-001
      -1.81864619e-001 -8.10198784e-002 2.17980787e-001 1.42108396e-001
      2.25294858e-001 -1.13835916e-001 -1.06908437e-002 3.83367501e-002
      1.04851253e-001 2.33343571e-001 1.37634069e-001 -1.06472626e-001
      4.99104671e-002 7.56606460e-002 -7.19245076e-002 -1.72473397e-002
      -3.55267189e-002 -1.17446028e-001 -7.74409994e-002
      -2.36858711e-001 -2.57329434e-001 -7.28500262e-002 7.59190544e-002
      -5.88290170e-002 -1.15074970e-001 -1.83931068e-001
      -2.09407479e-001 -3.54391076e-002 -8.55798051e-002
      -1.43968344e-001 -2.05644891e-001 -1.86081659e-002
      -1.21987917e-001 -7.44979829e-002 -1.49514124e-001
      -1.56966582e-001 -1.47081777e-001 -1.80011183e-001 6.49251565e-002
      1.95352972e-001 2.19298363e-001 -1.54959662e-002 9.57753956e-002
      2.88325716e-002 5.46359345e-002 6.92180321e-002 -2.64940690e-003
      1.19384721e-001 3.61074097e-002 -2.12058611e-002 3.79181409e-004
      3.42122931e-003 -4.51375432e-002 -1.33112058e-001 5.18476591e-002
      4.85109910e-002 -1.56713277e-002 -1.09131508e-001 -1.40370592e-001
      -1.12292565e-001 -1.74979687e-001 -8.44650641e-002
      -1.22402109e-001 -8.02061185e-002 -1.22282095e-001
      -4.52852137e-002 -1.40386010e-002 -1.88596155e-002
      -1.92371979e-001 -5.99140339e-002 -1.99776247e-001
      -2.02093393e-001 -1.73639536e-001 -1.03477649e-001 5.38144857e-002
      -6.06951453e-002 1.60686616e-002 -1.55396357e-001 -1.22733705e-001
      -1.78715229e-001 -1.88117042e-001 -9.92123485e-002
      -1.09846652e-001 -5.35561517e-002 -8.63277987e-002
      -2.53463034e-002 -2.36812532e-001 7.73650631e-002 -8.78513232e-002
      2.76428722e-002 1.54559491e-002 -1.59056306e-001 -9.51431096e-002
      -2.70444751e-002 -3.04665770e-002 -1.76085874e-001
      -8.34309161e-002 -2.02933758e-001 -2.97455732e-002
      -1.88935567e-002 -1.27741069e-001 -1.62041023e-001
      -1.00975946e-001 5.16259298e-002 -1.89118445e-001 -6.05816469e-002
      -1.47730336e-001 -6.81070983e-002 -8.72425884e-002
      -2.15304732e-001 -1.48918286e-001 -1.53723389e-001
      -8.27090219e-002 -3.20219398e-001 1.18195899e-002 -1.62871685e-002
      4.80097085e-002 1.85860768e-001 -3.99514623e-002 -1.70186926e-002
      -1.07598752e-001 6.57127798e-002 -4.94903214e-002 -1.32243028e-002
      -1.19747564e-001 -9.21715498e-002 2.52576335e-003 -1.34062052e-001
      -1.53864443e-001 -5.40901423e-002 -3.16042528e-002
      -2.46076137e-001 2.35972181e-002 -9.46279615e-002 -1.18298717e-001
      -7.74840266e-002 -1.58197865e-001 -5.66090979e-002 1.83543877e-003
      -2.01190040e-001 -2.80099273e-001 6.73318356e-002 -1.33090720e-001
      1.08699292e-001 1.35357097e-001 -1.20955952e-001 -6.56368881e-002
      -2.46848743e-002 1.42324239e-001 -1.13197990e-001 4.67671603e-002
      -8.42378065e-002 -2.24066302e-002 -1.52687460e-001
      -1.85153931e-001 -6.05175532e-002 2.58600544e-002 -1.52081355e-001
      -1.25410497e-001 9.23643634e-002 -4.90052253e-002 1.23383075e-001
      -2.42092777e-002 -1.25374980e-002 -1.21491596e-001
      -1.73042547e-002 -2.25058958e-001 -1.00052603e-001
      -3.10510337e-001 -2.90159076e-001 -1.76420882e-001
      -1.80395901e-001 -2.71608204e-001 -1.30298465e-001 1.22472733e-001
      -7.64644099e-003 9.58563983e-002 -2.04261728e-002 -5.11575192e-002
      -6.49479404e-002 -1.69658497e-001 -1.62836134e-001
      -1.45028736e-002 -1.43459842e-001 -2.26869270e-001
      -1.49560615e-001 -1.66603163e-001 -1.05348080e-001
      -1.37428299e-001 -1.17299199e-001 5.29432204e-003 -7.27589279e-002
      1.20599069e-001 6.36425242e-002 5.97769096e-002 1.71266243e-001
      2.33299695e-002 9.28489715e-002 6.33909479e-002 -5.07514849e-002
      -1.10542616e-002 -5.65686375e-002 -1.29997671e-001
      -1.47375882e-001 -1.12710044e-001 -5.26202731e-002
      -2.29047418e-001 -2.66889066e-001 -1.11643180e-001 2.80574650e-001
      8.23487490e-002 -1.47417799e-001 -1.12056792e-001 5.25958370e-004
      1.09553911e-001 1.22505434e-001 6.15596846e-002 2.69326031e-001
      -1.87092200e-001 -6.42272383e-002 -2.81921457e-002
      -1.16595469e-001 -2.11162977e-002 -2.57798672e-001
      -1.26266167e-001 -2.68090934e-001 -2.72001714e-001 2.71045148e-001
      1.09938592e-001 9.75392535e-002 -2.85635889e-002 2.63946086e-001
      1.45865470e-001 -1.21465037e-002 -8.35031867e-002 2.06017688e-001
      4.02646884e-002 -4.90351953e-003 1.71089768e-001 -2.10560858e-001
      2.53025237e-002 -2.33066455e-003 1.05687812e-001 7.62708783e-002
      -1.76358409e-002 -2.74818420e-001 -3.08480971e-002 1.27863377e-001
      -2.96738774e-001 -1.45235300e-001 -5.54766059e-002
      -9.61403623e-002 -1.39609963e-001 -4.13448691e-001
      -1.33141614e-002 2.95993086e-004 1.72632977e-001 -5.16832359e-002
      7.85613880e-002 1.14451855e-001 1.93911225e-001 -7.66006708e-002
      -1.75066330e-002 -1.24394454e-001 -2.14562893e-001 4.52300198e-002
      -1.02911390e-001 7.01976046e-002 3.74828689e-002 1.74914449e-002
      7.23055378e-002 -1.78339556e-001 5.69420829e-002 9.65751708e-002
      1.01057827e-001 -1.42283857e-001 -1.38033852e-001 4.98573900e-005
      -1.35563225e-001 -1.49358779e-001 -1.94245011e-001
      -1.66471824e-001 -2.32003834e-002 3.68268900e-002 -1.41282797e-001
      -1.05650976e-001 -1.23350397e-001 -1.34730339e-001
      -1.41351506e-001 -1.93532988e-001 5.23985550e-002 2.31423229e-002
      8.44746009e-002 -1.72800124e-001 -1.64856210e-001 3.25704329e-002
      4.32831235e-002 4.98474687e-002 6.11982048e-002 -1.29144832e-001
      -1.23992682e-001 9.39932317e-002 -6.07491508e-002 -2.02748358e-001
      1.05713896e-001 4.99257818e-002 -8.29172209e-002 -2.64982551e-001
      -4.09862660e-002 5.77418655e-002 1.69704407e-001 -1.88956074e-002
      -1.49401315e-002 -1.00251399e-001 -1.76556528e-001
      -2.04343833e-002 -1.01223260e-001 -1.06460184e-001
      -1.33749276e-001 1.19746439e-002 -1.74254566e-001 1.09123364e-001
      1.97681691e-002 -8.67428482e-002 -9.73065868e-002 -2.09609959e-002
      -1.02759423e-002 6.15606718e-002 7.16978684e-002 -5.98609783e-002
      2.85388008e-002 5.31541407e-002 -1.05739623e-001 5.92130125e-002
      8.44163224e-002 -5.09374067e-002 -2.38230396e-002 -1.06243394e-001
      -1.77313730e-001 -2.10997984e-001 -1.46709561e-001
      -1.10112734e-001 -1.34600490e-001 -3.76562104e-002
      -2.03861035e-002 1.04189701e-002 6.11758828e-002 1.50126433e-002
      1.75047189e-001 1.53150605e-002 7.82780126e-002 7.50029460e-002
      8.42484310e-002 -1.12963757e-002 2.88537890e-002 5.98534569e-002
      2.46790107e-002 -8.15309733e-002 -8.47593397e-002 4.13446780e-003
      1.18618757e-002 -3.89538668e-002 -2.28917040e-003 6.24517165e-002
      -3.39766182e-002 -1.69286359e-005 -1.17429048e-001
      -7.14739636e-002 4.79898788e-002 -1.12241276e-001 2.22424231e-003
      -7.01379329e-002 -8.16430598e-002 -1.10913843e-001
      -1.30568936e-001 -7.29217455e-002 -9.57130119e-002 1.14684114e-002
      -1.41504824e-001 -1.53404906e-001 -5.72091267e-002 6.06576614e-002
      2.86957230e-002 -7.34036788e-002 -5.18024564e-002 -2.43064821e-001
      5.33916168e-002 -1.94269449e-001 -8.30020458e-002 5.91028901e-003
      8.05816427e-002 -4.58218753e-002 -3.16287056e-002 1.63456798e-002
      -1.65229261e-001 3.15445438e-002 -5.88201173e-002 -6.23933114e-002
      -1.38865128e-001 -2.16884203e-002 -3.67208794e-002
      -2.77512431e-001 -8.75741914e-002 -1.20089591e-001 7.02645630e-002
      -1.50652379e-001 -4.51860018e-002 -1.65365096e-002 7.01772794e-002
      1.33003011e-001 7.03986287e-002 -7.27358162e-002 1.19001821e-001
      7.50387833e-002 -5.62193617e-002 1.72667503e-002 -6.40310496e-002
      -2.41458550e-001 -3.25759798e-001 -1.80723771e-001
      -7.51298070e-002 -1.22972324e-001 -3.16635221e-002
      -9.37197879e-002 -1.07046627e-001 -2.65289433e-002
      -1.06955439e-001 -1.51667902e-002 -1.14030376e-001 2.18543351e-001
      1.29836742e-002 1.08435608e-001 1.13798209e-001 -5.11788577e-002
      -7.27338791e-002 -9.87405851e-002 -7.03583136e-002 3.64051014e-002
      -7.59504214e-002 8.76360573e-003 -4.73682173e-002 -6.03143647e-002
      -1.33108616e-001 -1.07679861e-002 -1.72529239e-002 1.23731330e-001
      -1.22171054e-002 1.72007963e-001 8.72027536e-004 4.69892994e-002
      7.18573555e-002 4.35346290e-002 -1.29405975e-001 -1.06253766e-001
      -2.37931497e-002 -1.23560190e-001 -2.33140122e-002
      -1.65920854e-001 -1.71507955e-001 -1.82557896e-001
      -1.57029361e-001 2.41021544e-001 1.74905434e-001 -4.60752100e-003
      -1.64620906e-001 6.79401234e-002 1.55792609e-001 -5.02225244e-003
      -7.76091367e-002 1.67087823e-001 -1.04190640e-001 -5.64201549e-002
      -1.77503809e-001 -1.31146401e-001 1.20666407e-001 -4.34903093e-002
      -1.28110752e-001 -1.21184252e-001 -1.10290878e-001 2.68548757e-001
      2.07149133e-001 -7.08719268e-002 -1.69489607e-001 -4.57936898e-002
      2.54509151e-001 3.02942917e-002 -1.37711987e-001 6.55108392e-002
      -9.21782628e-002 -2.05219120e-001 1.33470923e-001 -1.66917607e-001
      -5.87118343e-002 4.84328531e-002 5.27596995e-002 -1.49817228e-001
      -6.25063777e-002 -2.12060794e-001 -1.22933179e-001 2.96933372e-002
      -1.86674401e-001 -1.97870746e-001 -1.88736141e-001
      -2.87163079e-001 -2.93381721e-001 -2.75914222e-001 1.73181549e-001
      1.57325357e-001 4.71791923e-001 -8.87180641e-002 2.91688135e-003
      2.65088268e-002 2.60635000e-002 -1.50998428e-001 1.02479614e-001
      -1.26000389e-001 -2.78856512e-003 9.60409194e-002 -1.19171448e-001
      1.81611836e-001 -2.75541004e-002 -5.11872172e-002 -2.26239264e-001
      -7.58057227e-003 6.66949078e-002 2.71016080e-002 1.68401316e-001
      5.46600409e-002 2.06410512e-002 1.65908083e-001 5.94107322e-002
      -1.97389349e-002 -3.65275443e-002 -2.00628832e-001
      -2.25275606e-001 -3.49765345e-002 -7.13356286e-002
      -1.07499577e-001 1.42844871e-001 -7.45625272e-002 -2.23744541e-001
      -1.96845636e-001 6.99795932e-002 1.64405391e-001 1.52938351e-001
      -4.85040471e-002 5.53846098e-002 4.64857854e-002 5.60613759e-002
      3.39514464e-002 -7.54999444e-002 -1.62708804e-001 -1.27108693e-001
      -1.32526755e-001 -2.25497469e-001 1.50700205e-003 8.19553882e-002
      -6.61574900e-002 -1.23687461e-001 -2.83822060e-001 1.28656495e-002
      1.47227794e-001 1.60957068e-001 9.03262496e-002 -1.08887896e-001
      2.74734907e-002 -6.90057725e-002 1.80042058e-001 1.21851213e-001
      -1.54588476e-001 -1.19955704e-001 -2.51730859e-001
      -3.16828161e-001 -3.72523546e-001 -1.44667000e-001
      -1.12592794e-001 1.50762558e-001 -7.07330480e-002 -2.22175419e-002
      -5.68052800e-003 -3.38397659e-002 -1.29723728e-001 3.82428430e-002
      1.27218917e-001 5.53383417e-002 8.53818804e-002 -5.56433983e-002
      -8.44069421e-002 -3.47550601e-001 -2.60926664e-001
      -2.92792559e-001 -1.69312090e-001 3.44407447e-002 7.22664371e-002
      2.72076093e-002 1.02763670e-002 -6.30775988e-002 -5.16449660e-002
      -2.00339288e-001 -5.63580282e-002 -1.32763073e-001
      -6.82689995e-002 -2.59473436e-002 -1.55057460e-001
      -1.62995622e-001 1.63207240e-002 -1.86756924e-002 -1.94665983e-001
      -7.92894512e-002 -9.71310735e-002 -9.44227725e-002
      -1.32521108e-001 -1.20130382e-001 -2.13670969e-001
      -2.63585951e-002 -3.01350355e-002 -1.13889026e-002
      -1.63188111e-003 -5.68121076e-002 -1.20460279e-002
      -5.27664423e-002 -1.49734229e-001 -1.95868030e-001
      -1.05316588e-003 2.29590550e-001 2.22554296e-001 -3.44902873e-002
      -2.27060542e-001 -1.77598774e-001 -3.10755432e-001 1.13118161e-002
      -1.58277407e-001 -1.75741434e-001 -1.15489937e-001
      -2.16068298e-001 -3.50466937e-001 -4.39407714e-002
      -2.56570131e-002 -9.53330472e-002 -5.61688282e-002
      -1.65714875e-001 -1.86826766e-001 8.64382535e-002 1.29456133e-001
      -8.92092288e-003 -4.46266159e-002 2.23906741e-001 -4.30837832e-002
      1.42504955e-002 -6.70004413e-002 -1.65515244e-001 -1.00051247e-001
      1.74867455e-002 -2.41484120e-001 -1.08371668e-001 -1.04119696e-001
      -8.54320452e-002 8.12769867e-003 -5.36305122e-002 -2.47311816e-001
      1.78971067e-001 3.40807974e-001 1.57895938e-001 4.87254672e-002
      1.32371560e-001 6.42595487e-003 4.67997156e-002 -1.03436574e-001
      -1.95104897e-001 -6.75905049e-002 6.86249956e-002 -1.93032145e-003
      -1.88153759e-001 -1.31453946e-001 -2.31308818e-001
      -7.91221559e-002 -8.28649402e-002 3.54792103e-002 1.45337537e-001
      1.55923069e-001 1.12693444e-001 1.96966641e-002 -2.30091006e-001
      -1.89187210e-002 8.34582150e-002 1.74816936e-001 -2.36286685e-001
      3.94044854e-002 1.05197623e-001 -1.61135346e-001 -4.25135493e-002
      -2.55803049e-001 -1.64109379e-001 -6.52126074e-002
      -1.46733850e-001 -6.60459104e-004 1.35218099e-001 8.01737905e-002
      -4.28256504e-002 1.64169058e-001 -6.64190426e-002 -2.79076379e-002
      1.74810603e-001 1.55671850e-001 1.23698851e-002 1.04367673e-001
      -1.32171065e-001 -6.47301450e-002 7.25380480e-002 -8.16329494e-002
      -1.29940659e-001 -9.26006958e-002 -8.01315717e-003 2.33511299e-001
      5.67647927e-002 -2.34081253e-001 -2.71540999e-001 -4.72861715e-002
      7.89624378e-002 -2.88017318e-002 -4.83822785e-002 1.20716453e-001
      1.66235212e-003 -9.08068940e-002 8.83083194e-002 -2.34225038e-002
      -2.20235623e-003 -7.66091347e-002 -4.30236980e-002
      -6.70725433e-003 8.77562463e-002 4.71643448e-001 5.82491942e-002
      -5.09302169e-002 -8.55608359e-002 8.91385674e-002 5.10502718e-002
      1.27820196e-002 2.50431389e-001 3.33497077e-001</_>
    <_>
      3.82221073e-001 3.17491859e-001 2.33067125e-001 8.05942193e-002
      3.36665183e-001 9.96159092e-002 1.00112386e-001 1.56589583e-001
      4.09646124e-001 -3.40393454e-001 -1.12189993e-001 -1.60728559e-001
      1.69604598e-003 -1.21794976e-001 -4.82617766e-002 -1.05973490e-001
      -1.94705427e-001 -2.00211272e-001 1.29178688e-001 -1.01085573e-001
      -2.69745678e-001 -2.83065170e-001 -3.64134610e-002 1.70244873e-001
      1.27956830e-002 -1.98300425e-002 3.05240750e-001 -3.28525066e-001
      -2.38509372e-001 -2.06718653e-001 -2.74275303e-001
      -1.39617801e-001 -2.49231845e-001 -2.97712386e-001
      -3.61603707e-001 -2.11288109e-001 -3.53982411e-002 2.71077961e-001
      2.82392427e-002 2.02221572e-001 3.90381008e-001 4.64084804e-001
      8.72140974e-002 6.09178953e-002 3.87488119e-002 -4.27641049e-002
      2.68693298e-001 -4.67769615e-002 3.70354682e-001 3.24914306e-001
      -4.53856066e-002 6.00990281e-002 1.87782183e-001 -2.83649415e-001
      -1.32082194e-001 4.23359960e-001 1.03354827e-001 1.59138367e-001
      9.54803303e-002 9.48882923e-002 5.22399740e-003 -4.71363124e-003
      1.94704890e-001 -1.55635595e-001 3.82331982e-002 -4.88939732e-002
      1.72082409e-001 -1.75749362e-001 -6.37145191e-002 6.36108816e-002
      -6.62463531e-002 -2.32741937e-001 3.51392217e-002 3.23604882e-001
      -5.26473522e-002 3.42503428e-001 1.85210034e-001 -1.12679116e-001
      -6.70271814e-002 2.28619576e-001 -2.44172528e-001 6.13772273e-002
      2.45187297e-001 -9.69069079e-002 4.76980396e-002 -1.32613316e-001
      -1.62320882e-001 -2.06539229e-001 -1.18304566e-001
      -3.84427518e-001 -1.70784593e-001 9.72573236e-002 -1.92916766e-001
      6.85994476e-002 -1.33776605e-001 -4.24270816e-002 1.03539012e-001
      3.32530066e-002 -2.28988707e-001 -6.17521210e-003 -3.90057601e-002
      -1.83382571e-001 -8.36386383e-002 -1.36646375e-001
      -1.69151619e-001 -9.24942717e-002 -3.30941081e-002
      -4.98406827e-001 -7.99139217e-002 2.21459847e-002 -1.78598106e-001
      -3.08313612e-002 -2.09874064e-001 -2.66231835e-001 5.39156422e-002
      -1.91636384e-001 -2.35081375e-001 9.27504338e-003 -1.05452761e-001
      -4.00451005e-001 -6.55178875e-002 1.59563795e-001 -2.27064371e-001
      2.33000368e-001 1.51788890e-001 -1.25639588e-001 -2.30095331e-002
      3.69084813e-002 -1.33107364e-001 6.24946505e-002 -4.68545407e-002
      -6.00206666e-002 -2.31940532e-003 -1.90714691e-002
      -2.38093704e-001 -2.84454208e-002 5.76880835e-002 -1.39252990e-001
      -5.48727885e-002 1.65087000e-001 -2.18255743e-001 9.71471146e-002
      9.55560878e-002 -1.54949263e-001 -1.48064569e-001 -7.20285028e-002
      -1.52144521e-001 -3.11621297e-002 2.23525301e-001 -2.32513160e-001
      -2.20762447e-001 -1.90942630e-001 -1.85383692e-001
      -2.80631483e-001 1.15393467e-001 -2.45587267e-002 -1.29392937e-001
      -2.69784600e-001 -2.74249911e-001 -1.54715538e-001
      -1.42259836e-001 -1.15002833e-001 -3.77229750e-002 4.26181071e-002
      -8.27105641e-002 5.05999178e-002 2.68459737e-001 -3.45219165e-001
      -1.59815639e-001 -4.98449430e-002 -1.66530713e-001
      -2.24010423e-001 -5.22074550e-002 4.86593284e-002 -5.02988994e-002
      -2.80794762e-002 -3.17016065e-001 -7.50692189e-002 8.64725038e-002
      -2.27615461e-001 -2.53108293e-001 2.94125900e-002 -4.32343408e-002
      -1.59994572e-001 -1.79487765e-001 2.78952364e-002 -5.43896109e-002
      5.26275672e-002 -9.26497877e-002 -3.55665118e-001 6.80630505e-002
      -2.43894339e-001 -1.79169729e-001 -3.21082085e-001
      -3.85575965e-002 -2.35892758e-002 -1.00257553e-001
      -2.19809473e-001 -1.04633927e-001 4.33157533e-002 9.61795729e-003
      -1.01075664e-001 -4.37841304e-002 -4.42805886e-002 1.36928007e-001
      2.32034802e-001 -2.09006086e-001 -1.48457840e-001 7.83523321e-002
      -2.23824605e-001 -1.55665576e-002 -1.97992817e-001 1.26316458e-001
      2.21259445e-001 9.94458273e-002 -1.06819108e-001 -4.82179075e-001
      -8.64544660e-002 -1.73397899e-001 -2.84620553e-001
      -4.42192793e-001 -1.83298215e-001 -1.15091182e-001
      -2.16871530e-001 -2.56412774e-001 2.11806029e-001 2.67041028e-001
      2.83028275e-001 3.58867139e-001 -1.39650628e-001 5.07665455e-001
      3.40460777e-001 -3.07975803e-002 2.29563326e-001 -3.86976868e-001
      -7.58236796e-002 -2.42477357e-001 -3.38235915e-001
      -5.31346262e-001 -2.59105891e-001 -1.61530152e-001
      -2.63935924e-001 -5.75895786e-001 2.52694070e-001 3.15842003e-001
      2.70247668e-001 1.25466004e-001 -2.98104376e-001 -3.35029930e-001
      3.48480903e-002 -1.36897579e-001 2.30872318e-001 2.77983010e-001
      -1.12369163e-002 4.20083962e-002 -7.04370439e-002 -8.34206566e-002
      2.28941053e-001 1.51795177e-002 3.09620261e-001 4.01813626e-001
      -1.03393763e-001 3.42223532e-002 1.58924326e-001 -3.31993401e-002
      -5.59056662e-002 -1.56214297e-001 -2.35713080e-001
      -7.11863022e-003 1.98342707e-002 -4.80256006e-002 -2.30634645e-001
      1.79053321e-001 -5.71338367e-003 4.06418703e-002 2.20034614e-001
      2.39924714e-001 1.56383030e-002 2.35652447e-001 -1.86382487e-001
      -7.50570446e-002 -1.53360620e-001 -1.62123770e-001 2.31249072e-003
      3.28276396e-001 -2.94033382e-002 4.26628366e-002 -7.55638292e-004
      5.92019483e-002 -8.89155343e-002 3.26121002e-002 5.15234768e-002
      3.89192719e-003 1.65339515e-001 -1.06627434e-001 6.10781126e-002
      4.35098886e-001 1.04726411e-001 1.35378510e-001 -7.76378140e-002
      9.83916000e-002 3.08601279e-002 1.35449842e-001 -4.00727196e-003
      1.51556656e-002 3.17087531e-001 7.69376159e-002 3.10866628e-003
      4.42748740e-002 -1.60343334e-001 -1.75809842e-002 3.01481962e-001
      -1.97523320e-003 9.63403732e-002 3.09720099e-001 1.03478879e-001
      3.26555222e-001 1.32096589e-001 -7.88430423e-002 1.46307364e-001
      3.60865951e-001 -9.10328515e-003 -1.94342226e-001 1.13061406e-001
      1.58127263e-001 -1.74096107e-001 -1.96663782e-001 -3.10536306e-002
      6.00453233e-003 1.04582563e-001 -1.69686586e-001 1.76767670e-002
      2.30842710e-001 1.35672793e-001 -2.87857682e-001 -2.40427554e-002
      -6.65921420e-002 7.76561499e-002 2.37984419e-001 2.72385292e-002
      3.06702167e-001 1.78658292e-001 -1.50577471e-001 -3.46995816e-002
      1.07771926e-001 -6.95259795e-002 2.41023097e-002 2.10803255e-001
      -8.20899084e-002 9.95863695e-003 1.08520083e-001 -1.71719305e-002
      -1.17432691e-001 -5.02608307e-002 -1.44597247e-001
      -1.20488644e-001 1.79537028e-001 5.83293289e-002 -1.91693887e-001
      1.32937565e-001 -8.29324350e-002 -2.62247503e-001 1.17275111e-001
      -4.57231291e-002 1.00863092e-001 9.67699960e-002 -2.06937075e-001
      -1.80484071e-001 -7.54087642e-002 -4.36582528e-002 5.41348532e-002
      -6.35373499e-003 4.91267964e-002 1.35402232e-001 -5.37276752e-002
      -1.15883641e-001 -2.21735582e-001 -1.54672593e-001
      -8.66774172e-002 -8.13271254e-002 -4.95232567e-002
      -9.91440564e-002 -1.15970997e-002 1.55510321e-001 2.00906232e-001
      2.99113858e-002 2.81383663e-001 -1.15151770e-001 2.23321289e-001
      9.74345356e-002 -1.54635876e-001 2.99273938e-001 1.31312326e-001
      1.16323099e-001 5.16674332e-002 2.62505770e-001 1.79425031e-001
      1.41002744e-001 -3.18765827e-002 -7.75695518e-002 2.47730128e-002
      -1.86926469e-001 -2.33841643e-001 -2.18480423e-001
      -5.33863977e-002 2.50703488e-002 -5.63491657e-002 -1.20802887e-001
      -9.89122242e-002 7.34380446e-003 -3.49529892e-001 -6.62518889e-002
      3.82823944e-002 -6.63812906e-002 2.43230060e-001 8.72433782e-002
      8.39872807e-002 -1.41417742e-001 2.32314214e-001 1.79604232e-001
      1.57779723e-001 -1.01208143e-001 3.27478975e-001 1.41633004e-001
      -1.24635823e-001 -1.19160071e-001 7.34356269e-002 -4.61124517e-002
      -1.40125394e-001 1.74308673e-001 6.91599846e-002 -3.02657876e-002
      9.75104123e-002 -1.64321616e-001 -3.05902183e-001 1.32621396e-002
      1.92759469e-001 -3.14931750e-001 3.36731859e-002 -1.25823691e-002
      -5.21960780e-002 -6.21325597e-002 -1.31395251e-001
      -1.95544124e-001 1.32524138e-002 -2.98148930e-001 -9.24003720e-002
      -6.19579256e-002 7.20674172e-002 -1.69510856e-001 -2.77833249e-002
      -3.50952417e-001 -2.82353342e-001 5.14850281e-002 2.06943586e-001
      -1.76903024e-001 9.56699252e-002 7.73094967e-002 -9.48569737e-003
      -2.97437645e-002 -1.10839736e-002 2.14230880e-001 1.70818850e-001
      -7.69734457e-002 -4.13504466e-002 3.80186029e-002 4.12747525e-002
      -2.41115186e-002 -1.63268536e-001 1.37667820e-001 -1.91305876e-001
      -3.51614267e-001 -2.43104354e-001 -1.77771583e-001
      -2.45481446e-001 -3.57589275e-001 -3.80334765e-001 3.12768936e-001
      2.28939697e-001 1.05787933e-001 4.83300909e-002 1.00714587e-001
      -1.67568460e-001 3.49574387e-002 -1.85326234e-001 2.65413880e-001
      -5.38056716e-002 1.31559119e-001 8.72480646e-002 -1.94399282e-001
      -8.49160701e-002 -1.97104231e-001 -3.46712977e-001
      -2.77556628e-001 -2.42494717e-001 1.22239381e-001 2.39215240e-001
      1.73586175e-001 1.38556752e-002 -1.23515144e-001 -3.30841333e-001
      6.48590103e-002 1.74607374e-002 2.69201964e-001 1.38885707e-001
      1.74759161e-002 1.48290694e-001 -9.07928869e-002 -1.94944844e-001
      1.63346216e-001 -1.45877168e-001 4.48689163e-002 1.36810347e-001
      5.68328314e-002 9.84464511e-002 3.19457762e-002 4.08695638e-002
      5.40184863e-002 2.75614023e-001 -2.06885815e-001 2.80602067e-003
      4.90175970e-002 3.90115917e-001 1.22764289e-001 1.07178681e-001
      4.62514721e-003 -8.44556093e-002 2.65913248e-001 -2.85014790e-002
      3.44182312e-001 1.49300635e-001 7.40397573e-002 2.23852232e-001
      1.14112049e-002 -6.40050173e-002 2.45358258e-001 2.97050089e-001
      -2.59103477e-002 9.17018950e-002 -1.66684121e-001 -8.80116075e-002
      1.17157675e-001 -7.90250450e-002 -7.37912953e-002 -3.51323336e-002
      2.89294481e-001 -1.19932957e-001 -6.26799166e-002 5.59364557e-002
      -9.38042626e-002 1.23180874e-001 -2.19878349e-002 5.60505688e-002
      1.33926332e-001 1.16261803e-001 -2.91550793e-002 -7.40249604e-002
      -1.28599666e-002 4.33475375e-002 9.33065414e-002 2.49384984e-001
      -4.76012342e-002 -6.89797550e-002 -9.95228067e-003
      -1.78679436e-001 -1.02891065e-001 1.52555071e-002 -5.81807131e-003
      -1.27188697e-001 -1.53398171e-001 5.23876771e-002 1.47722075e-002
      -6.69465438e-002 5.79084158e-002 1.01764016e-001 1.10896952e-001
      -1.32317647e-001 1.51791219e-002 -1.17209805e-002 1.03852808e-001
      1.75853297e-001 -5.93219809e-002 -1.88093424e-001 -4.37066443e-002
      5.30349240e-002 -2.18906462e-001 5.77332638e-002 1.16653115e-001
      2.51444131e-002 -9.11922604e-002 3.51366848e-002 -4.01769727e-002
      -8.46244097e-002 1.05370812e-001 -3.88257205e-002 2.49806084e-002
      -1.97068587e-001 6.26505613e-002 1.86085045e-001 -9.21329409e-002
      -1.66448697e-001 2.10423052e-001 1.95989832e-001 -7.17874384e-003
      6.04825541e-002 1.59153491e-001 -1.38205700e-002 -1.44346282e-002
      4.13612835e-002 -9.19000953e-002 -4.84232157e-002 6.14678375e-002
      -7.72989765e-002 -2.56277435e-002 5.48130907e-002 -9.92181003e-002
      -1.46528199e-001 9.58122499e-003 -6.79946393e-002 5.84209561e-002
      2.67219245e-001 -1.83075458e-001 -1.50864050e-001 4.71300110e-002
      -1.34749398e-001 7.59108439e-002 -3.01929433e-002 3.33426632e-002
      5.88601716e-002 1.19040810e-001 -1.98429033e-001 1.93950623e-001
      1.82188824e-001 -2.72264212e-001 -1.73245683e-001 6.99422583e-002
      -1.62647992e-001 -3.94041464e-002 4.23045643e-003 -3.53844106e-001
      1.26053274e-001 2.57988095e-001 -2.42326722e-001 -1.47276446e-001
      -6.65329099e-002 8.82685259e-002 1.64265558e-002 -1.88243389e-001
      -1.74915090e-001 -2.05631435e-001 9.90371406e-003 -4.07076925e-002
      3.11638772e-001 -7.11086616e-002 -1.66610062e-001 -1.05341837e-001
      -6.62341639e-002 2.14163288e-001 -6.00405931e-002 -2.36433893e-002
      9.69270691e-002 6.98728710e-002 2.03203201e-001 4.51253690e-002
      -8.48747417e-002 8.16810578e-002 5.60417678e-003 4.29548733e-002
      1.35458633e-001 -9.12754685e-002 1.29339561e-001 3.20915431e-002
      -3.86048411e-003 -5.71761914e-002 2.12032899e-001 1.15519308e-001
      2.36671716e-001 1.44862443e-001 7.15281162e-003 5.99897802e-002
      3.09009850e-001 2.36764833e-001 4.47663404e-002 2.06166208e-001
      5.01720197e-002 -3.58639285e-002 -2.01413944e-001 -3.63839790e-002
      3.56124192e-002 -1.74834907e-001 -3.44167680e-001 -2.38979295e-001
      -1.07157215e-001 -3.30787927e-001 -1.91695005e-001
      -9.97197479e-002 3.27345654e-002 -1.56350404e-001 -1.21944830e-001
      8.51655286e-003 -7.37064779e-002 -1.44112483e-001 1.87962249e-001
      1.50571451e-001 -7.44505897e-002 -6.02484606e-002 2.31212363e-001
      -6.56623915e-002 -1.45734310e-001 -1.88835114e-002 2.43636239e-002
      2.30601113e-002 1.66886486e-002 6.95247948e-002 -1.78888097e-001
      2.69588679e-001 2.28254393e-001 -3.76004428e-002 1.06668942e-001
      1.07135788e-001 -2.45282084e-001 -4.45423573e-002 -3.89665440e-002
      2.00234875e-002 6.13789149e-002 -1.45006910e-001 -1.38755724e-001
      -1.92819118e-001 -2.03957841e-001 -1.09088458e-002 1.48922652e-001
      -1.10540032e-001 2.66966015e-001 -3.05031180e-001 -4.29567099e-001
      2.61788517e-001 1.63139954e-001 9.72589478e-003 -2.70077109e-001
      -1.17546476e-001 -9.45360363e-002 -1.63182214e-001 2.85308272e-001
      -5.56932483e-003 4.27471809e-002 -1.11224502e-001 -7.13308752e-002
      -1.00765549e-001 -8.29693154e-002 -2.46226549e-001 1.03832982e-001
      -2.14016035e-001 -1.61438510e-001 2.90613353e-001 -6.32428825e-002
      1.09068759e-001 1.30720600e-001 -1.49054424e-004 -1.36392102e-001
      -3.33309114e-001 -3.01474899e-001 -7.94375837e-002 4.89621945e-002
      2.14741245e-001 -8.81819576e-002 1.02874666e-001 4.96961735e-002
      -2.76967827e-002 8.38739723e-002 1.85400784e-001 1.30505577e-001
      -6.90153912e-002 2.39360938e-003 2.07289960e-002 -1.28181592e-001
      1.28180608e-001 -2.19535064e-002 -2.37389907e-001 -2.13340878e-001
      -1.27227977e-001 -1.58525974e-001 3.17335218e-001 -5.15881479e-002
      -2.57909089e-001 7.87935928e-002 8.04415047e-002 1.11351028e-001
      2.38488555e-001 4.60966945e-001 5.80641925e-002 2.66006052e-001
      -4.35850620e-002 3.17782983e-002 1.46867111e-002 7.93491825e-002
      1.06806278e-001 -8.32016394e-003 7.62514845e-002 -1.69961214e-001
      -8.53354558e-002 7.57783577e-002 -6.63618743e-002 -7.92669877e-003
      -1.10248111e-001 -2.22149238e-001 3.93704660e-002 -1.00001460e-002
      -9.12765712e-002 7.56839067e-002 1.40892893e-001 -8.93882290e-002
      7.82731399e-002 9.42291990e-002 3.70375365e-001 5.68793640e-002
      6.47704974e-002 -2.62050945e-002 2.83023775e-001 3.25858921e-001
      -4.43154685e-002 2.55753845e-001 1.62419394e-001 -1.30016610e-001
      1.69506863e-001 -1.00978889e-001 -1.34672478e-001 1.16124757e-001
      2.17316896e-001 -9.63658467e-002 9.70645994e-002 -9.84012932e-002
      -2.17096135e-001 4.68737260e-002 -4.17355001e-002 9.96681154e-002
      2.62236595e-003 -2.20597014e-002 -1.42150626e-001 1.24906719e-001
      -1.08253628e-001 -3.77562903e-002 -1.55492097e-001
      -1.89232290e-001 -5.31674623e-002 -1.82734042e-001
      -2.75331855e-001 3.73361781e-002 1.67030826e-001 5.65936863e-002
      -1.39935270e-001 1.44366711e-001 1.70501694e-002 1.85167059e-001
      1.98780328e-001 1.73069894e-001 -2.14941204e-001 -4.86301910e-003
      7.79197812e-002 -2.91268304e-002 -1.48602039e-001 -1.12918697e-001
      1.04425356e-001 1.04711078e-001 -2.26986796e-001 -8.75645503e-002
      1.64139032e-001 8.69682431e-002 -1.31000830e-002 -8.67345743e-003
      -6.34651706e-002 3.09899319e-002 -5.89035861e-002 2.90874708e-002
      -3.10581833e-001 4.84208390e-002 7.45508820e-002 -1.81765288e-001
      2.96158567e-002 -6.82229251e-002 4.73199366e-003 -1.52234901e-002
      -9.60622281e-002 -1.89463943e-001 2.20983895e-003 -8.18575546e-003
      -6.48925826e-002 5.63103668e-002 1.52912010e-002 1.23334579e-001
      7.63912499e-002 -2.10960042e-002 1.28341103e-002 1.41381174e-001
      -4.82740290e-002 -5.35672717e-002 6.49352074e-002 1.53693194e-002
      -1.58735067e-002 -1.12296538e-002 -9.26630273e-002
      -7.28598908e-002 -8.76207277e-002 -3.58108175e-003
      -3.38039011e-001 -1.80212528e-001 -9.41487849e-002
      -7.05349222e-002 -1.76191479e-001 9.70412269e-002 -3.34693976e-002
      -6.41355570e-003 8.15909076e-003 -5.95591962e-002 -1.47264332e-001
      8.92266631e-002 1.81127757e-001 1.27011135e-001 1.15001701e-001
      3.14282104e-002 -5.00747971e-002 -2.37382501e-002 -1.31213456e-001
      -3.70863229e-002 -5.20252921e-002 -9.74210501e-002 1.70248784e-002
      -3.98493372e-002 1.38904497e-001 2.44767323e-001 2.72264183e-001
      2.72527725e-001 1.89324334e-001 2.09541440e-001 2.01227561e-001
      5.78233320e-003 1.27616510e-001 1.69707507e-001 -2.49603111e-002
      -9.98627469e-002 -9.18986648e-002 3.62661369e-002 -7.20041394e-002
      -1.34838834e-001 3.03229666e-003 -5.59614189e-002 7.34983757e-002
      -2.66462900e-002 2.08125845e-001 -2.15967938e-001 1.95773035e-001
      1.35029435e-001 -7.71639124e-002 -5.83405653e-003 2.05121730e-002
      5.64433374e-002 3.99642773e-002 1.03343025e-001 9.55059007e-002
      1.15434118e-001 1.78567752e-001 4.40260842e-002 -4.61629555e-002
      -1.92776114e-001 -5.86977554e-003 -4.03216034e-002 7.26756752e-002
      1.24844037e-001 1.26590729e-001 2.80057192e-001 6.78248852e-002
      1.51263580e-001 9.53816697e-002 -1.01047248e-001 5.84107637e-002
      2.18489189e-002 -1.70822367e-001 1.63757712e-001 1.41706496e-001
      -2.55262852e-001 -2.76280701e-001 -1.67322218e-001
      -1.92898959e-001 5.84582379e-003 -1.97809130e-001 -7.72534087e-002
      -3.38088214e-001 2.07735039e-003 3.54968607e-001 -1.79904059e-001
      -7.78952464e-002 2.73794904e-002 1.01348616e-001 -2.09297821e-001
      3.03942990e-002 2.79413816e-003 -6.86473325e-002 2.03956626e-002
      -8.70789681e-003 3.22914533e-002 -1.80757008e-002 1.59583747e-001
      -9.35066715e-002 1.10963874e-001 -2.99391866e-001 -3.19711357e-001
      3.71190339e-001 -7.46754110e-002 6.97568730e-002 7.54769519e-003
      1.73404709e-001 6.88572526e-002 -9.75734890e-002 -2.25981072e-001
      -1.36771187e-001 -3.71599764e-001 7.81159550e-002 2.30191067e-001
      -1.07079208e-001 -1.20968126e-001 1.31968737e-001 1.05181217e-001
      2.62121171e-001 1.06577329e-001 1.21262312e-001 -5.25867846e-003
      1.23256721e-001 3.57948750e-001 3.24112535e-001 1.94446072e-001
      1.17252162e-002 -1.37283772e-001 -1.35698721e-001 -1.33226261e-001
      9.60991532e-002 2.27831930e-001 -1.23658411e-001 -8.63469765e-003
      6.88438267e-002 7.33591989e-002 2.21318245e-001 2.15920419e-001
      -9.66873169e-002 2.47370042e-002 1.45112688e-003 -2.68896312e-001
      -3.11253101e-001 -2.97236647e-002 1.00470804e-001 8.46190006e-002
      2.53140330e-002 8.99259672e-002 -3.48663069e-002 8.49122703e-002
      -1.43546671e-001 -1.22300386e-001 -1.43739164e-001 5.21005951e-002
      -7.51451775e-002 -9.85689014e-002 -1.63230091e-001 4.38840166e-002
      -4.46966849e-002 1.44328298e-002 -1.71549112e-001 -1.31647378e-001
      -1.03030659e-001 8.57976824e-002 9.65627879e-002 4.51105880e-003
      2.36830227e-002 2.50304937e-001 -3.78336757e-002 1.44637704e-001
      -2.49197092e-002 1.22707330e-001 2.34617013e-002 -1.60064146e-001
      -4.94113490e-002 2.85551623e-002 1.28226370e-001 1.92414090e-001
      8.91988631e-003 -6.78734854e-002 -2.83433627e-002 8.19439068e-002
      3.11526917e-002 -1.92532420e-001 -6.38808683e-002 8.77180547e-002
      -1.61334693e-001 -1.00526951e-001 -8.56714994e-002
      -6.64068013e-002 -7.59519935e-002 -1.27316251e-001
      -1.41794592e-001 -4.30365205e-001 -3.36094290e-001
      -1.20132834e-001 1.25546157e-001 5.85514605e-002 7.55991414e-002
      2.51882851e-001 6.65440932e-002 1.12762220e-001 1.80292934e-001
      2.27734149e-001 -3.25953484e-001 -9.47826579e-002 9.97004882e-002
      9.97516233e-003 -1.05770677e-002 1.65639281e-001 -8.32973793e-003
      -2.93978572e-001 -2.01216504e-001 -9.26400349e-002 7.82214850e-003
      -9.48853977e-003 -1.94235593e-001 -9.57281515e-002 3.53148580e-002
      -4.31380719e-002 -6.75911643e-003 -5.29590286e-002
      -9.07367766e-002 -2.08428517e-001 -1.65420175e-001
      -2.12237537e-001 1.12670874e-002 -1.50702372e-001 -8.90563652e-002
      3.72901335e-002 1.31506883e-002 -2.89139628e-001 4.36081700e-002
      4.11251280e-003 -1.36778921e-001 -1.06316939e-001 2.31082365e-001
      7.83595890e-002 -1.25285804e-001 -3.31312418e-002 -2.13495597e-001
      6.82677105e-002 1.84988126e-001 -1.55366182e-001 -1.69786438e-002
      -1.12942480e-001 -5.00732996e-002 -1.90286681e-001
      -1.04977116e-001 -4.54179123e-002 -2.84800678e-001
      -8.47061425e-002 -5.78801595e-002 3.07180822e-001 -1.87252939e-001
      -1.97234556e-001 1.72083929e-001 1.18712269e-001 -3.23983394e-002
      1.55910775e-002 8.29201341e-002 9.45584625e-002 1.68828979e-001
      3.06092314e-002 1.81896657e-001 -4.97894222e-003 -2.33468283e-002
      -4.89151403e-002 -1.80439472e-001 -2.11103391e-002
      -8.26534107e-002 2.13344648e-001 -1.49360359e-001 5.77835962e-002
      -2.37886772e-001 1.68139637e-001 5.26020005e-002 4.18985151e-002
      -4.25832719e-002 4.66272123e-002 1.22175023e-001 -1.40199587e-001
      5.59715107e-002 6.39718026e-002 1.51235089e-001 -2.33522087e-001
      5.49507178e-002 6.40139207e-002 -1.19329788e-001 -9.48245227e-002
      1.03101470e-001 1.92509800e-001 1.81938463e-003 -1.20168537e-001
      -8.63509029e-002 -1.66483857e-002 -9.63870715e-003 6.41364753e-002
      3.07307869e-001 6.21949770e-002 -1.73827067e-001 1.22900710e-001
      1.35159329e-001 -1.07768402e-001 -4.77994904e-002 -2.20075846e-001
      -2.08485082e-001 -1.86083332e-001 -8.59420598e-002 2.68475354e-001
      1.46053150e-001 -1.37466453e-002 -1.81785636e-002 3.15991826e-002
      -5.16248569e-002 8.56454074e-002 1.63232177e-001 -1.83047801e-001
      -2.97522873e-001 1.57610014e-001 1.31115755e-002 4.25857864e-002
      2.02956740e-002 -4.51514840e-001 1.49771884e-001 -1.56051274e-002
      1.33494409e-002 -2.05305606e-001 -1.43248767e-001 2.13879850e-002
      1.68627977e-001 1.04896471e-001 1.89641826e-002 6.96206614e-002
      -3.15126956e-001 -1.99882895e-001 2.80319303e-001 -1.19548596e-001
      9.14245695e-002 -8.50170478e-003 1.05343219e-002 -5.07665098e-001
      1.65768549e-001 -1.13561347e-001 6.55165464e-002 -3.04261982e-001
      -1.06892258e-001 -6.08174056e-002 2.71883041e-001 9.56364200e-002
      1.54743463e-001 -7.19827265e-002 -1.26209289e-001 7.22514316e-002
      2.38390729e-001 3.83768138e-003 3.19202572e-001 1.72313645e-001
      1.71782687e-001 2.46193871e-001 1.46608502e-001 -6.60238713e-002
      -2.84292907e-001 -1.22958988e-001 -1.37061238e-001
      -6.46269601e-003 -1.70045674e-001 -1.29860908e-001 8.56780782e-002
      1.43588558e-001 -1.34453386e-001 2.03904644e-001 -1.53932825e-001
      -3.58544171e-001 -2.20246240e-001 2.79322118e-001 4.75415699e-002
      1.10284217e-001 2.14830399e-001 -1.83906898e-001 -1.10540763e-001
      -2.11713668e-002 4.08070236e-002 -1.22122906e-001 1.45435572e-001
      -9.15211588e-002 6.25746846e-002 1.72176719e-001 -2.63823885e-002
      2.48107105e-001 2.75009274e-001 -1.14036396e-001 -1.91987678e-001
      8.52417573e-002 -4.03077826e-002 -9.90854055e-002 8.39334540e-003
      -1.86689198e-002 -1.70943230e-001 -1.09255888e-001
      -8.55215713e-002 1.94257021e-001 -1.42346680e-001 5.83982058e-002
      -9.13758576e-002 1.56606242e-001 -6.26720265e-002 -1.96905822e-001
      -2.22498313e-001 3.52528766e-002 9.20623019e-002 2.31525078e-001
      8.46785828e-002 2.76906174e-002 1.09087273e-001 9.14009660e-002
      1.52914479e-001 4.00402546e-001 1.80587508e-002 1.09653011e-001
      -2.98037659e-002 -5.77410795e-002 -7.76840374e-004 8.53471979e-002
      -1.91629678e-002 6.37545511e-002 -1.25013858e-001 -6.13868721e-002
      -1.73475072e-001 -3.99012230e-002 2.78663682e-003 4.55131754e-002
      3.20629179e-002 1.37308478e-001 -5.36293946e-002 -2.35512421e-001
      1.78711802e-001 1.26102030e-001 -1.31288067e-001 -2.11929739e-001
      -8.98201913e-002 -9.15039405e-002 -5.04009016e-002 6.42161593e-002
      -7.46232122e-002 -6.77100569e-002 -1.38235595e-002 4.11759102e-004
      -9.94641334e-002 4.06503305e-002 1.93385873e-002 1.93015411e-001
      -6.96125478e-002 -1.50513276e-001 1.58990309e-001 -9.69364680e-003
      -1.29893094e-001 -3.07609558e-001 -1.94343016e-001
      -2.39597708e-001 -2.25080192e-001 -2.09014148e-001
      -1.24173872e-001 -5.55663028e-005 -1.14453554e-001 8.56346358e-003
      -4.95729819e-002 1.98287785e-001 -4.39591473e-003 -6.39140382e-002
      -2.85915211e-002 -1.16278253e-001 -1.22904159e-001
      -2.07933132e-002 -3.04786395e-002 -6.51258677e-002 2.13317111e-001
      -1.71062812e-001 5.14496788e-002 -2.17825502e-001 -9.44461524e-002
      -4.15267140e-001 -2.38612249e-001 -1.61380678e-001
      -1.25475526e-001 5.22464234e-003 -7.72259980e-002 -9.19021368e-002
      -5.16167767e-002 -2.57071424e-002 1.62892193e-001 1.26512749e-002
      -2.76983947e-001 -1.03642032e-001 -2.24861018e-002
      -1.18183993e-001 5.99057227e-003 -5.48782572e-003 2.30629947e-002
      -3.71483876e-003 -1.81760550e-001 3.37097570e-002 -6.80853948e-002
      2.75742728e-002 -1.81822583e-001 3.08400653e-002 -1.62128404e-001
      1.03747323e-001 -2.10059091e-001 8.45508948e-002 1.71503931e-001
      1.86365888e-001 -8.05431381e-002 1.02475919e-001 -1.81309566e-001
      -9.80357304e-002 6.60315827e-002 -8.03409070e-002 -5.52702956e-002
      -2.40877286e-001 -3.53844285e-001 -2.31924638e-001
      -9.52272937e-002 1.15891829e-001 -1.75979137e-002 2.80199735e-003
      -1.56773441e-002 -2.27104798e-002 -1.45133380e-002
      -3.57965268e-002 -7.32939690e-002 7.76349977e-002 -1.28375471e-001
      -7.53002381e-003 2.67143011e-001 1.18103206e-001 1.41132399e-002
      2.26403162e-001 1.13462582e-001 -1.82658285e-001 8.67669061e-002
      -7.91130885e-002 -1.22429788e-001 -2.41515948e-003 1.72275119e-002
      1.96799874e-001 9.90487635e-002 -1.10150851e-001 -1.82118818e-001
      3.54575589e-002 2.06268862e-001 -1.60039604e-001 4.93760705e-002
      1.04412831e-001 9.54849720e-002 1.00449696e-001 4.34510559e-002
      3.23438719e-002 2.08115339e-001 6.77409694e-002 1.31886909e-002
      -3.69703881e-002 3.43831927e-002 1.61256969e-001 -1.15695022e-001
      1.17858965e-002 -6.62105158e-003 1.41070798e-001 5.33147715e-002
      8.94897655e-002 1.12043701e-001 3.10982242e-002 2.44156048e-001
      -3.75283398e-002 -1.65760145e-001 -3.92190576e-001 8.27110112e-002
      4.30176407e-002 -6.20041899e-002 -2.31443137e-001 -1.64050668e-001
      -1.44715801e-001 2.13572845e-001 -2.06719004e-002 9.94701833e-002
      4.22041379e-002 -8.37232694e-002 2.34184787e-001 -1.06082987e-002
      1.09200086e-002 2.16960520e-001 -1.19203173e-001 -2.48640582e-001
      -1.92748249e-001 9.40957516e-002 -1.69966131e-001 -1.42073169e-001
      -3.39451104e-001 -1.14371881e-001 4.23284620e-002 2.01071024e-001
      4.65978980e-002 1.76541343e-001 -2.26168275e-001 -1.17895938e-001
      3.59904647e-001 6.97127953e-002 4.54797372e-002 3.34157348e-001
      -6.03187978e-002 8.94426107e-002 1.25582159e-001 2.98687965e-001
      1.29708368e-002 -1.12848647e-001 5.32247126e-003 -2.03615502e-001
      -2.20935494e-001 -1.61713347e-001 -1.06790915e-001
      -1.63869247e-001 -1.49396747e-001 -2.07870871e-001 1.28618062e-001
      -2.58475095e-002 -3.47093880e-001 6.97996020e-002 -8.50948170e-002
      3.16221774e-001 3.11561704e-001 2.63790160e-001 4.01606739e-001
      3.09662167e-002 3.98399949e-001 1.57292768e-001 -8.23419467e-002
      -1.78580239e-001 5.45022562e-002 -3.71235125e-002 -1.17260672e-001
      1.62439607e-002 -9.88537818e-002 9.83504727e-002 1.26333833e-001
      -4.96536009e-002 2.22152293e-001 4.39579301e-002 -1.40075032e-002
      1.08707987e-001 7.01996312e-002 1.24295920e-001 1.35487601e-001
      1.76367033e-002 2.65379578e-001 2.58298963e-002 1.55680642e-001
      2.44335249e-001 1.05852731e-001 1.01814792e-001 -1.79423615e-001
      2.08718870e-002 -1.35910258e-001 6.11767657e-002 -8.79696086e-002
      2.52374291e-001 1.51964262e-001 1.11982115e-001 8.33809599e-002
      -7.16347694e-002 -1.03214262e-002 1.98027089e-001 -1.01319760e-001
      -4.25825238e-001 -3.02795321e-002 8.00485387e-002 1.84886754e-002
      8.03732947e-002 -2.89167285e-001 5.23677878e-002 -2.12581441e-001
      -3.53132278e-001 1.65263623e-001 1.01636864e-001 8.71743932e-002
      -9.88194123e-002 2.19147041e-001 -1.11245796e-001 6.49384856e-002
      6.50587529e-002 5.89038506e-002 -1.68067411e-001 -2.09790528e-001
      -1.73649177e-001 -3.08350503e-001 -1.46820724e-001
      -8.49918127e-002 -6.76435158e-002 -1.70262739e-001
      -2.65066773e-001 -1.54327333e-001 1.03894547e-001 1.43074781e-001
      -8.34681392e-002 -9.77739319e-002 -1.53129220e-001 2.52787652e-003
      -2.00742800e-002 -2.89043318e-002 1.33474711e-002 -2.99532980e-001
      -1.20781422e-001 -3.92131269e-001 -6.69736385e-001
      -2.76434064e-001 -6.91376254e-002 -1.73901364e-001
      -1.43354863e-001 9.08347964e-002 4.49736342e-002 -5.19893616e-002
      -1.94089934e-001 4.72248793e-002 9.76197124e-002 -6.35315180e-002
      9.76657942e-002 -5.75968772e-002 2.06107534e-002 1.28827021e-001
      5.70771508e-002 -1.97780102e-001 -2.21363395e-001 -1.14689954e-001
      -9.49484482e-002 2.10254878e-001 6.87537938e-002 -3.32198262e-001
      -6.46762103e-002 -5.77134751e-002 -3.70418936e-001
      -2.41080225e-002 4.01154906e-002 -2.90283430e-002 -8.81938040e-002
      -1.75041407e-001 -1.20572925e-001 1.43905374e-004 3.24013946e-003
      -1.26015127e-001 2.10897386e-001 -2.24453490e-002 -2.53729343e-001
      1.14810409e-003 -2.27541789e-001 9.32095479e-003 1.84407621e-003
      9.37032253e-002 1.15297146e-001 -1.23384194e-002 4.30222712e-002
      -2.22083047e-001 9.43084508e-002 9.20194909e-002 5.53558022e-002
      1.78777337e-001 -2.03341786e-002 1.77759975e-001 -4.81594056e-002
      2.87687004e-001 1.00568011e-001 -5.02441116e-002 2.80455261e-001
      -2.52940118e-001 -2.10023269e-001 -9.06839743e-002 2.46101677e-001
      1.40847981e-001 -1.83226302e-001 -2.08235100e-001 -8.47870708e-002
      -1.41606882e-001 -3.74962986e-002 2.13849675e-002 1.15732819e-001
      1.24629118e-001 -2.99288146e-002 2.66471744e-001 2.34078951e-002
      1.50765613e-001 -1.49851903e-001 3.18329856e-002 7.29881227e-002
      3.15290950e-002 5.94797097e-002 -6.63902462e-002 1.09317012e-001
      1.49110202e-002 -1.31146252e-001 2.95569927e-001 -1.00714475e-001
      -1.52491227e-001 -1.23603351e-001 5.59571721e-002 1.25744632e-002
      1.73941627e-002 1.05107306e-002 3.51467878e-002 1.67344660e-001
      -2.15594754e-001 5.39139919e-002 2.13389426e-001 1.62818193e-001
      2.59896427e-001 1.23117834e-001 -6.06526583e-002 3.51519287e-002
      -2.89026648e-001 -9.40827206e-002 -3.15057598e-002 3.08438647e-003
      -4.84711565e-002 -2.55621642e-001 -8.23833048e-002
      -1.45037510e-002 1.39390871e-001 -5.55200912e-002 -1.66693687e-001
      -2.68959373e-001 -1.46271408e-001 -9.63869393e-002
      -5.02010822e-001 8.28849524e-002 -3.80694032e-001 -1.88832179e-001
      8.93254429e-002 2.00036600e-001 1.63210824e-001 4.01355654e-001
      -2.96110302e-001 -5.21151483e-001 3.00720811e-001 -8.24884251e-002
      -4.40678149e-002 2.44110450e-001 -2.37631816e-002 2.62649823e-002
      1.77750289e-001 -7.39994645e-002 -2.49847040e-001 -1.79631785e-002
      -1.81172222e-001 -1.46053180e-001 -1.09209061e-001 1.83559790e-001
      2.85187304e-001 5.91984034e-001 -5.88783734e-002 -3.91122669e-001
      2.37595558e-001 6.31130114e-002 -1.62767500e-001 5.88934645e-002</_>
    <_>
      1.32843226e-001 4.32349771e-001 3.67353797e-001 3.72231126e-001
      -3.79099324e-002 -3.31915207e-002 3.53627056e-002 -1.39627069e-001
      -1.32730559e-001 -2.65830755e-001 -3.49796712e-001
      -1.31099775e-001 3.09723318e-001 -2.11305335e-001 -1.98799044e-001
      6.46973103e-002 -1.18686177e-001 -1.81940079e-001 -8.38108957e-002
      -3.57174814e-001 -5.73671579e-001 -9.03415307e-002
      -3.88951033e-001 -2.74337679e-002 -1.21739112e-001
      -1.77805305e-001 -3.10025271e-002 -3.39642048e-001
      -3.52070123e-001 -5.72667241e-001 -5.19050062e-002
      -2.78419942e-001 -3.02625243e-002 4.36607972e-002 -1.03704445e-001
      -1.10586941e-001 1.96833368e-002 -3.61430168e-001 -8.06788132e-002
      3.31411839e-001 -2.21800916e-002 -2.48126462e-002 2.79886108e-002
      -2.58644015e-001 2.47089922e-001 -1.13531150e-001 -1.25474334e-001
      6.01342678e-001 1.23345047e-001 2.40664229e-001 -8.62655416e-002
      1.92711260e-002 -9.62237269e-002 -1.26195118e-001 -1.01631187e-001
      4.76115420e-002 -3.94500166e-001 3.19036931e-001 1.05706498e-001
      5.19912206e-002 2.83566386e-001 -3.62273451e-004 2.21562356e-001
      3.27530093e-002 -2.56453276e-001 8.46119877e-003 3.91762793e-001
      -7.90341496e-002 -1.29275382e-001 3.59596699e-001 -1.30346462e-001
      -2.92909056e-001 -1.76870853e-001 -3.85451987e-002 2.08220318e-001
      7.50024989e-002 6.72870576e-002 5.95635660e-002 -6.56610131e-002
      8.73103663e-002 -1.47612199e-001 -5.77244237e-002 -1.50279507e-001
      1.04667604e-001 9.06232521e-002 2.74757314e-002 -1.83596730e-001
      4.19175774e-002 8.98089260e-002 -6.92060828e-001 -2.72816986e-001
      2.03124387e-003 -1.96250062e-002 9.03350562e-002 1.63905069e-001
      4.42382833e-003 2.75499642e-001 1.32661713e-002 -1.22869782e-001
      -1.15405954e-001 8.92820954e-002 -1.48009777e-001 -2.31502026e-001
      1.20812677e-001 3.35902795e-002 -2.18013432e-002 2.85310388e-001
      -3.42969298e-001 -7.41051063e-002 -1.40004724e-001
      -2.14486480e-001 -2.58175641e-001 -8.55047181e-002
      -3.02067995e-001 -2.70282120e-001 -8.16242322e-002
      -5.89046657e-001 -2.78323442e-001 6.77527413e-002 -3.45817655e-001
      -1.88706100e-001 -5.10313269e-003 -9.19791609e-002 5.86529970e-002
      4.32648621e-002 4.15446870e-002 -2.50248641e-001 2.83046097e-001
      -1.90250948e-001 -2.56791532e-001 1.72562331e-001 2.98694149e-002
      -2.10241843e-002 -4.79713790e-002 -3.92926514e-001
      -2.72558391e-001 -1.46836340e-001 -2.45206431e-001
      -2.06273898e-001 1.10452741e-001 -3.64523940e-002 3.71175930e-002
      1.84371442e-001 2.35495031e-001 -3.15972656e-001 1.31806776e-001
      7.08898753e-002 1.24916635e-001 -1.10471636e-001 -5.10749733e-003
      -1.67550310e-001 -5.74085489e-002 -1.66512236e-001
      -2.31958590e-002 1.03036843e-001 4.45709437e-001 1.43361613e-001
      -1.96744144e-001 -4.46407087e-002 -1.98537093e-002
      -1.24144621e-001 3.15613151e-002 -3.65286112e-001 -1.95871964e-001
      -1.95585385e-001 5.44909872e-002 -1.62320212e-001 -3.13690692e-001
      -1.25781164e-001 1.01430714e-001 -9.66845378e-002 4.32908162e-002
      -7.28694722e-002 -8.42194445e-003 1.28065780e-001 -5.57524189e-002
      -2.39631012e-001 5.03966697e-002 3.36169571e-001 -6.71073496e-002
      -2.03603618e-002 -1.60930085e-003 3.66361290e-001 -4.04417634e-001
      -1.86706617e-001 -7.83987939e-002 1.21430848e-002 -3.88045788e-001
      -1.80907950e-001 1.50022030e-001 -2.80946288e-002 2.96026886e-001
      2.73579955e-001 -1.29374787e-001 3.96543264e-001 1.53535470e-001
      -1.54757231e-001 5.84737258e-003 -9.40315425e-002 -2.93522358e-001
      1.79660209e-002 -4.91440296e-001 -2.07335621e-001 -1.65896118e-001
      1.03028446e-001 1.60150882e-002 -1.86115116e-001 1.15652487e-001
      -2.53094025e-002 1.60046265e-001 7.77073950e-002 -7.30919838e-002
      -7.38210678e-002 8.45071077e-002 1.57283515e-001 3.59986015e-002
      6.53171027e-003 -3.98718677e-002 1.25029698e-001 -8.33960325e-002
      -4.75809902e-001 8.34897086e-002 -3.23435634e-001 -4.26223397e-001
      6.25703260e-002 4.52493817e-001 2.67677814e-001 5.46767533e-001
      1.96890414e-001 -4.05041784e-001 6.02822602e-001 7.40110427e-002
      1.61460992e-002 3.49266022e-001 -2.41505951e-001 -1.10603742e-001
      8.70976746e-002 -2.62517631e-001 -3.87773424e-001 6.98006600e-002
      -5.09598672e-001 -6.65703177e-001 3.85213122e-002 1.27690315e-001
      8.87188837e-002 3.75100315e-001 -1.80375893e-002 -4.01023418e-001
      2.70587146e-001 -5.66232324e-001 -3.08249652e-001 2.41673023e-001
      1.47123352e-001 -2.75274545e-001 -5.61301947e-001 -2.80814052e-001
      -1.40354574e-001 4.18219976e-002 2.30468184e-001 3.00145685e-003
      3.47123384e-001 1.05794281e-001 2.04205856e-001 6.51705861e-002
      8.81735906e-002 -1.41453430e-001 -1.37230922e-002 8.14795271e-002
      6.54132366e-002 1.94183007e-001 -2.65834540e-001 -1.53655514e-001
      -2.78942734e-001 -1.10043883e-001 2.49048606e-001 -1.77430958e-001
      1.44761652e-001 1.11379601e-001 7.49353245e-002 -2.86109209e-001
      9.56822932e-002 9.99855101e-002 3.07455331e-001 7.62285888e-002
      4.08671349e-002 -2.08641589e-001 -3.93942893e-002 -2.70371974e-001
      1.63039833e-001 6.48906007e-002 -2.61768162e-001 -2.50899093e-003
      -3.74672702e-003 -1.03413530e-001 -1.33030638e-001
      -1.63882300e-001 9.20305699e-002 3.29993740e-002 -1.43039934e-002
      -2.17264116e-001 9.87014920e-002 7.41303042e-002 -1.25261307e-001
      -9.62404013e-002 -7.47205317e-002 -6.67584240e-002
      -5.03276326e-002 1.48300484e-001 -1.29257336e-001 -7.72101656e-002
      -1.74677491e-001 -1.45821363e-001 -2.83875525e-001
      -1.79114062e-002 6.68971837e-002 -5.71782105e-002 1.89164475e-001
      1.48488268e-001 -1.88398376e-001 1.65696934e-001 -7.36861899e-002
      -1.91053271e-001 2.99984753e-001 1.05746493e-001 -7.13655353e-002
      4.55535203e-002 -5.03594518e-001 -3.06551784e-001 -2.76958439e-002
      -1.88122511e-001 -4.94231805e-002 -1.69720739e-001 1.60517581e-002
      -2.56889462e-001 5.49131110e-002 -1.42961428e-001 -8.47837776e-002
      -2.17253156e-002 -7.63380155e-002 -1.44187883e-001
      -1.54806972e-002 -9.19094905e-002 -1.61111131e-001
      -2.09096149e-002 7.02356622e-002 -1.65985435e-001 8.09796751e-002
      4.56391610e-002 3.63497473e-002 3.02937776e-001 -1.70832679e-001
      -1.53319724e-002 -7.23988861e-002 1.87574580e-001 1.75138935e-002
      -2.91356463e-002 -1.96456999e-001 1.77743331e-001 8.58940557e-002
      -7.63083398e-002 -2.54052460e-001 -9.74671170e-002
      -4.71101180e-002 -9.32889357e-002 2.70510346e-001 -5.99203631e-002
      -2.02016711e-001 -2.58289665e-001 -3.43196779e-001
      -4.87940460e-002 -1.57500952e-001 -1.25401586e-001
      -1.33374766e-001 1.67538494e-001 -7.04491287e-002 -2.19887316e-001
      -7.38736987e-002 -2.26302207e-001 3.82902510e-002 -2.86182940e-001
      6.91844430e-003 -3.77474315e-002 5.54551147e-002 -1.07918955e-001
      6.53963769e-004 -5.26385121e-002 2.90909559e-001 -2.32153255e-002
      -7.78830051e-002 2.48548448e-001 2.68371683e-002 2.17127770e-001
      8.16089734e-002 2.73026437e-001 2.21151099e-001 2.51996905e-001
      -2.70035058e-001 -1.70576096e-001 -3.57769847e-001
      -6.77212477e-002 -5.18496670e-002 -4.93427783e-001
      -3.55557114e-001 -3.10829580e-001 -3.05674821e-001
      -1.33375913e-001 -1.63350776e-001 -2.85382330e-001
      -2.16869593e-001 1.87329184e-002 -4.45153475e-001 -1.23006757e-003
      6.38754144e-002 -3.22201878e-001 -6.39068708e-002 -1.52487725e-001
      7.10010827e-002 1.18224807e-001 1.25863090e-001 -1.43423080e-001
      1.40560970e-001 4.15260084e-002 2.84221053e-001 2.88805336e-001
      -1.93867192e-001 3.39807980e-002 1.99583266e-002 3.17409784e-001
      -1.58307686e-001 3.48861188e-001 -2.70373542e-002 3.30413908e-001
      -1.97659731e-002 -2.13398382e-001 -1.59034654e-001
      -2.38693818e-001 -9.43458453e-002 -5.35546601e-001
      -3.49601090e-001 -1.38265893e-001 -3.33846629e-001 6.95261061e-002
      -1.42500043e-001 -1.40957862e-001 -2.90836066e-001 5.31699359e-002
      -9.39186290e-002 -1.02848612e-001 9.32413116e-002 -9.13547724e-002
      -9.10592973e-002 -7.54310638e-002 -3.03145081e-001
      -3.08631390e-001 1.15972102e-001 -1.22982897e-001 -3.39977145e-002
      -9.45834629e-003 9.96908024e-002 2.90608797e-002 4.19964269e-002
      -3.11079830e-001 -3.64629775e-001 9.97778922e-002 -3.22128497e-002
      4.93905954e-002 -7.09947273e-002 -5.11146151e-002 -4.28117998e-002
      -8.58075172e-002 -2.85323977e-001 1.34283349e-001 9.17254984e-002
      2.19678313e-001 -6.41448796e-002 2.51684189e-002 3.67955901e-002
      3.53283077e-001 1.44170061e-001 1.05072446e-001 -1.81068271e-001
      -1.08199781e-002 -1.44487098e-001 -2.31553301e-001 2.26681635e-001
      1.92335904e-001 -2.40177229e-001 -1.30299479e-001 -1.93006039e-001
      4.13783491e-002 -1.04293250e-001 1.76873729e-001 -3.26394401e-002
      -1.63866550e-001 -4.72495079e-001 3.38629276e-001 1.24086395e-001
      3.67369018e-002 1.94352120e-002 -1.10816225e-001 -2.59469956e-001
      -1.18792765e-001 6.46291673e-002 1.02583870e-001 2.40429550e-001
      2.31689379e-001 -1.14127927e-001 -2.84019083e-001 -3.92347127e-002
      -3.51503760e-001 1.76199630e-001 4.21042681e-001 2.98899233e-001
      5.44793010e-002 1.65632367e-002 -2.20602155e-001 1.42001286e-001
      1.79234773e-001 -6.82705939e-002 8.29324964e-003 4.01966199e-002
      -3.97982113e-002 2.12926194e-001 1.65836006e-001 4.17839885e-002
      -3.30002367e-001 -1.65009424e-001 -2.02972069e-001
      -1.26468703e-001 3.81310284e-001 4.32905436e-001 -7.12698698e-002
      4.10253592e-002 -6.03788435e-001 1.42244538e-002 5.00859097e-002
      6.46260902e-002 -1.79639041e-001 1.34569868e-001 -2.95438040e-002
      6.21547876e-003 7.08821714e-002 -1.55763552e-001 -1.55258432e-001
      -3.61379720e-002 3.51908952e-002 -2.47252554e-001 -2.27754653e-001
      4.30235527e-002 1.48841828e-001 -1.68010537e-002 2.01207191e-001
      -1.71587929e-001 -2.47345529e-002 4.20157164e-002 -2.26026297e-001
      2.18621135e-001 3.61357033e-001 -2.83994656e-002 -5.74573688e-002
      -2.05967933e-001 -9.62637365e-002 1.39115512e-001 8.66664872e-002
      -3.44181418e-001 -4.34063710e-002 -3.20435345e-001 1.33257389e-001
      -5.93145266e-002 1.82285354e-001 -1.09012704e-002 1.65536329e-001
      -1.76209938e-002 -4.52194223e-003 2.01818228e-001 7.67085552e-002
      -2.53482372e-001 -1.51212528e-001 1.63721323e-001 5.01139276e-002
      -8.72781053e-002 -4.44983207e-002 -4.07193787e-002 6.80808946e-002
      6.89924434e-002 1.00689664e-001 -3.04035246e-001 9.51772258e-002
      -1.14608686e-002 -1.97018236e-002 -2.67317533e-001 1.15255669e-001
      1.63694173e-001 2.31197029e-002 -1.87562674e-001 -1.79276586e-001
      -3.58746052e-002 4.44469899e-002 8.94626826e-002 -9.35592800e-002
      -1.47235289e-001 -1.00223511e-001 4.62719947e-002 -4.51190881e-002
      -2.30893642e-002 7.88300484e-002 -1.73555851e-001 2.03150548e-002
      -1.37197739e-002 3.79681843e-003 2.29184434e-001 -4.68403613e-003
      1.58610567e-001 -1.50672406e-001 -4.28245310e-003 -1.31501615e-001
      1.69627085e-001 -2.93172657e-001 -9.20745954e-002 -5.14434138e-003
      2.94520054e-002 -1.81227792e-002 -9.78340209e-002 -1.74323380e-001
      -1.05208509e-001 2.30458558e-001 -4.90204357e-002 -2.49528661e-002
      1.18720502e-001 2.82076392e-002 -2.40038902e-001 1.92600161e-001
      -1.26378955e-002 -2.33444229e-001 1.82884291e-001 -1.71441138e-001
      9.23787132e-002 1.65573969e-001 7.80880824e-002 -1.54375821e-001
      -5.19377477e-002 3.59199308e-002 -9.67319384e-002 4.06439789e-002
      -7.47206658e-002 -6.59850463e-002 5.78406220e-003 -1.26123235e-001
      1.95117816e-002 -4.24663210e-003 -1.28163010e-001 3.38256247e-002
      8.42980072e-002 -1.53936669e-001 4.95090000e-002 1.01169765e-001
      -4.44586277e-002 -1.27383977e-001 -4.44558524e-002
      -1.36119783e-001 -1.64475843e-001 -3.04908045e-002
      -4.40680347e-002 1.03924118e-001 -2.57713377e-001 1.41854092e-001
      -3.13061886e-002 -1.82615310e-001 -3.80000710e-001
      -1.33015484e-001 1.44984692e-001 1.03591811e-002 -3.97567481e-001
      6.45769611e-002 1.66295797e-001 3.41156758e-002 2.54564464e-001
      1.05997868e-001 -2.09918723e-001 1.19683333e-001 -1.78527474e-001
      1.65991187e-001 9.92644504e-002 1.32261261e-001 -1.39907837e-001
      -1.33052783e-003 -1.93718702e-001 -3.85566801e-001 1.03696682e-001
      -1.46915734e-001 -2.63540208e-001 -1.94070086e-001 5.01668965e-003
      -2.03814451e-002 -3.63761596e-002 2.61405289e-001 -1.50456345e-002
      3.09720099e-001 -1.69297308e-002 -1.15325011e-001 1.11500852e-001
      1.69322863e-001 -2.54176617e-001 6.06114119e-002 2.02467129e-001
      -1.87140509e-001 8.41146037e-002 -1.73525304e-001 -1.28675625e-001
      -1.35609195e-001 -2.03915447e-001 -2.06309944e-001
      -2.58703325e-002 3.21132511e-001 -7.11026192e-002 3.07162851e-001
      6.55855089e-002 -3.36796269e-002 -3.52089912e-001 -1.54335901e-001
      -1.35704294e-001 -3.36481839e-001 -3.11456323e-002
      -2.12193459e-001 -2.29383633e-001 -5.67920841e-002
      -5.15355468e-002 -3.56383175e-002 -2.66749233e-001 5.65541029e-001
      -2.34558899e-002 -2.95515239e-001 -2.21429378e-001
      -3.03513296e-002 -1.88841477e-001 -5.52500784e-001 1.88567024e-002
      1.72585383e-001 -9.69508663e-002 -2.48691291e-002 2.15940699e-001
      -1.89726546e-001 1.86410844e-001 5.48461005e-002 -1.51669100e-001
      -1.10386416e-001 -2.12463379e-001 8.90249088e-002 2.20575124e-001
      -1.07158184e-001 5.79504445e-002 -1.84740335e-001 -1.08206563e-001
      4.71798480e-002 2.84422636e-001 6.15184233e-002 8.84899721e-002
      -3.65772843e-002 -3.97743583e-002 -3.75157654e-001
      -2.74598122e-001 -1.49946630e-001 -3.82975489e-001 1.71042979e-001
      8.74221623e-002 -3.39100994e-002 -1.86960414e-001 -1.78341791e-001
      -1.74362525e-001 2.32655928e-001 2.04167604e-001 -5.52852035e-001
      -6.48416579e-002 -2.70365894e-001 9.95662212e-002 -9.10553932e-002
      -8.46780911e-002 8.65018144e-002 -4.07937430e-002 8.47802684e-003
      -5.30688241e-002 3.41271490e-001 2.08153263e-001 -4.30099294e-002
      1.48191422e-001 2.70909160e-001 1.31197348e-001 3.65634739e-001
      4.90490884e-001 1.42107040e-001 1.70145005e-001 2.20332220e-001
      -1.58572152e-001 -1.58462033e-001 -2.20357612e-001
      -1.69742510e-001 -2.52998690e-003 2.88169652e-001 -4.20520872e-001
      -5.36502860e-002 -7.65895545e-002 -2.38061726e-001 3.16236424e-003
      7.77051970e-003 -1.08822098e-003 2.17984229e-001 -1.33988112e-001
      -5.86448051e-002 4.99788634e-002 1.65095955e-001 1.03966534e-001
      -1.49231427e-003 1.06201753e-001 -9.63192880e-002 3.19908708e-002
      3.37385423e-002 1.02818660e-001 -6.93233237e-002 3.12877297e-001
      2.09918275e-001 6.50944263e-002 -2.13617366e-002 1.19240679e-001
      5.17728478e-002 1.35176396e-002 2.67376900e-002 -6.92083910e-002
      3.59716922e-001 -2.76088089e-001 1.10881673e-002 -9.06620696e-002
      8.82872716e-002 2.39134088e-001 -2.76441842e-001 -2.63593942e-001
      -2.41797358e-001 -6.75418302e-002 -7.43434504e-002 7.97969550e-002
      6.00986890e-002 -1.10016242e-001 1.03802368e-001 2.76486352e-002
      -9.01552141e-002 -2.27208748e-001 -1.01708628e-001 2.31688425e-001
      -1.27591789e-001 -1.88572079e-001 4.72134873e-002 -9.95156541e-002
      -1.96728855e-001 -7.38221705e-002 6.76984861e-002 2.34785169e-001
      3.83974671e-001 1.74186289e-001 2.72367507e-001 2.50112303e-002
      3.18821251e-001 -3.56666110e-002 -2.45707422e-001 5.76356910e-002
      3.87277342e-002 -9.87644345e-002 -4.65953499e-002 2.85737915e-004
      -2.08540678e-001 -2.30417177e-002 1.49731971e-002 8.44276547e-002
      -2.71254390e-001 -5.92594109e-002 3.02530103e-003 -5.15914820e-002
      2.25874744e-002 -1.91380650e-001 -9.87417251e-002 5.83952740e-002
      -2.02084601e-001 -1.67610757e-002 -8.30355808e-002 6.76795561e-003
      -1.53891534e-001 7.88053945e-002 -4.27949540e-002 1.57356784e-001
      5.06768264e-002 -2.18394324e-001 -2.60477245e-001 -1.77355155e-001
      6.81347549e-002 1.61449127e-002 -1.21497829e-002 -2.55272035e-002
      1.97355449e-001 -2.18568705e-002 -1.48295864e-001 -1.62731484e-001
      7.18082413e-002 4.24181670e-002 -9.39263925e-002 -1.05528161e-001
      2.34324887e-001 3.35195363e-002 -1.12265892e-001 -1.93209708e-001
      -1.06827654e-001 -5.34454547e-002 1.62818506e-001 -8.88511837e-002
      7.75788054e-002 4.64706942e-002 1.02539517e-001 -1.46677479e-001
      -7.41070509e-002 -1.69738829e-001 3.10116671e-002 1.08429737e-001
      -8.14373642e-002 -2.40021348e-001 1.89196080e-001 3.40640724e-001
      2.86796689e-001 1.66278780e-001 5.59021067e-003 1.52235419e-001
      1.27439320e-001 -8.24764837e-003 -7.74989650e-002 6.53665047e-003
      2.52766579e-001 1.00286089e-001 2.40132868e-001 2.22331747e-001
      -8.47006589e-002 -2.05900177e-001 -2.19072670e-001
      -2.11090147e-001 -3.83467853e-001 -6.48715049e-002
      -3.29877466e-001 5.66682778e-002 -1.12763807e-001 -3.19446772e-001
      -1.30144119e-001 -1.01605937e-001 -1.61886007e-001
      -2.00814784e-001 4.54427348e-003 1.75963148e-001 3.39350194e-001
      -1.68199480e-001 1.99821696e-001 1.94481611e-001 4.57912348e-002
      -2.92265266e-001 -1.22931145e-001 4.40840162e-002 -2.14032114e-001
      8.68705064e-002 1.26246333e-001 -2.65627921e-001 1.33147851e-001
      4.33880351e-002 8.34088176e-002 1.44162536e-001 4.46798980e-001
      1.48971990e-001 9.75364819e-002 -8.71311948e-002 2.54410535e-001
      -2.67615646e-001 -8.33913386e-002 -8.25722069e-002
      -5.13585471e-002 2.02253878e-001 3.69646698e-002 -2.75346100e-001
      -1.47599220e-001 -1.67466998e-001 -1.19824909e-001
      -1.76860169e-002 1.35663569e-001 -7.09153637e-002 -2.84847945e-001
      1.15506306e-001 2.14216962e-001 2.13369370e-001 -1.71018943e-001
      1.75749436e-002 1.53323049e-002 4.92267124e-002 6.15757592e-002
      1.18839204e-001 -2.17069816e-002 -4.79410812e-002 -1.55780837e-001
      -1.81440655e-002 8.42963606e-002 2.70683378e-001 3.37148577e-001
      -3.62419814e-001 -1.29859716e-001 5.99921448e-003 3.00785899e-002
      -3.16027492e-001 -1.35249376e-001 -1.05834752e-001 4.83505754e-003
      2.87046493e-003 -3.11346740e-001 -3.41474056e-001 -2.76659518e-001
      -3.35338771e-001 3.49640429e-001 1.89409271e-001 -3.17334741e-001
      4.74498374e-003 1.33234501e-001 1.14986070e-001 2.68621325e-001
      1.48966074e-001 -1.70505747e-001 8.12842697e-002 4.27080803e-002
      2.95067579e-001 2.07031891e-001 2.87127078e-001 -3.44501585e-001
      -2.28835866e-001 -3.31964731e-001 3.40413243e-001 2.09787980e-001
      3.37222219e-001 -2.14057267e-002 2.41282791e-001 -3.09531623e-003
      -1.33808017e-001 7.13501647e-002 3.17490511e-002 -1.92089900e-001
      2.82224249e-002 1.21039987e-001 -1.64112255e-001 -1.04824742e-002
      -1.42601565e-001 -3.54826629e-001 5.69131300e-002 -7.96014667e-002
      -2.95955420e-001 -1.56709209e-001 1.38157755e-001 5.35947131e-003
      -4.30536382e-002 7.29428679e-002 1.86170153e-002 1.63048938e-001
      1.88070670e-001 1.48555383e-001 4.45997603e-002 6.59756288e-002
      1.60887554e-001 -1.18528992e-001 -3.04892302e-001 -1.62222549e-001
      7.13104829e-002 -2.26894226e-002 -1.45295247e-001 -1.86226383e-001
      2.58557349e-001 2.04554543e-001 1.19683251e-001 3.13423015e-002
      1.75961465e-001 4.54057544e-001 3.42514187e-001 -9.43395942e-002
      -2.32231040e-002 9.09976810e-002 -1.07086757e-002 -8.39846209e-002
      -1.66737705e-001 -5.36263436e-002 1.64223120e-001 -2.19499003e-002
      1.03205256e-001 -2.88977116e-001 6.17844518e-003 -8.01774636e-002
      -1.90291166e-001 -2.44965225e-001 -1.30439848e-001 3.51394057e-001
      -5.65066524e-002 7.15041682e-002 4.24071364e-002 -1.03348233e-001
      -1.06267430e-001 1.05189811e-002 -1.64955929e-001 -3.40261996e-001
      -5.02841398e-002 -8.59618559e-002 9.32946578e-002 -1.56835109e-001
      -1.88983202e-001 -2.54054040e-001 7.85606578e-002 1.72373191e-001
      -1.43877603e-003 1.96889073e-001 -8.18211734e-002 9.84407961e-003
      1.13812491e-001 -2.88202256e-001 -7.79619515e-002 -2.89330687e-002
      -8.16805065e-002 -2.59528458e-002 6.19880706e-002 -2.39163026e-001
      5.50734960e-002 -1.89806428e-002 -4.21423048e-001 9.65036824e-002
      1.80792823e-001 -2.65181530e-002 -2.62346298e-001 -1.81025803e-001
      -2.47580051e-001 -2.22576666e-003 4.41762172e-002 -3.58855799e-002
      -7.06967711e-002 1.82838187e-001 -1.18401453e-001 -2.58926630e-001
      -2.77171843e-002 -2.37476781e-001 7.06778467e-002 2.76674479e-001
      -3.87829423e-001 1.32304177e-001 2.70956397e-001 2.64812499e-001
      -6.00852072e-002 2.19972298e-001 2.79487949e-002 1.42290801e-001
      3.12560767e-001 1.89017095e-002 4.42158431e-002 7.28004202e-002
      -2.24401310e-001 -1.55036509e-001 -3.70867290e-002
      -1.24514259e-001 -7.25980252e-002 -1.20296687e-001
      -7.14836270e-002 5.02093062e-002 -9.33628231e-002 -8.60549733e-002
      -5.30944802e-002 6.42844439e-002 6.24258108e-002 -1.71845574e-002
      -1.56872179e-002 -1.25647336e-001 -4.49117720e-002 9.96122658e-002
      1.73135817e-001 1.24612980e-001 3.33219409e-001 -4.99797612e-002
      -1.85928512e-002 3.60601023e-002 -1.35250494e-003 3.58343236e-002
      -5.56647368e-002 2.45228007e-001 3.21753919e-002 2.50872970e-001
      -8.06445703e-002 -4.36152034e-002 1.06977321e-001 6.14353195e-002
      2.25080047e-002 8.68685842e-002 1.73581131e-002 -1.08117253e-001
      -8.25521499e-002 -1.29661694e-001 -2.01542109e-001
      -8.72989818e-002 -1.27850056e-001 -1.99541636e-002
      -2.27604788e-002 8.46151337e-002 -2.41344385e-002 -1.14640944e-001
      -4.69535440e-002 1.61439955e-001 -2.96081096e-001 -1.49219364e-001
      1.99586246e-002 -2.22443014e-001 3.40803489e-002 -1.93421051e-001
      5.64707965e-002 -1.21680111e-001 -7.53251761e-002 2.07615808e-001
      1.33786261e-001 -4.99418043e-002 -2.52794534e-001 2.38576621e-001
      -2.87830625e-002 8.64189118e-003 -7.88441673e-002 7.26416707e-002
      2.34180972e-001 5.84949292e-002 8.30616057e-003 -3.57412808e-002
      -8.73425901e-002 -2.84584463e-001 1.60158262e-001 -7.49756694e-002
      -8.21783990e-002 -2.36876786e-001 -6.17225468e-002 2.04662800e-001
      8.67108181e-002 -2.46281326e-001 -9.95981574e-001 -6.70625642e-002
      3.45609114e-002 -1.17460370e-001 -2.59393334e-001 1.18237816e-001
      -1.42843589e-001 -3.23764347e-002 -4.11553457e-002
      -1.95227955e-002 1.34192958e-001 -1.94519117e-001 -1.64491609e-001
      -1.91521943e-001 -1.70621708e-001 2.52917796e-001 1.27098057e-002
      -3.46882269e-003 -4.79873806e-001 -3.31441574e-002
      -3.87885310e-002 3.56508121e-002 -1.00540876e-001 2.45704338e-001
      2.34680295e-001 1.22216478e-001 1.79171622e-001 6.49991930e-002
      -5.52508652e-001 -4.67592299e-001 7.92995542e-002 1.24638483e-001
      -2.71447562e-002 -1.98128089e-001 2.14972392e-001 2.12355498e-002
      -2.34698340e-001 -2.24102601e-001 1.03827663e-001 -3.49832118e-001
      -3.72206658e-001 -3.24699938e-001 -1.41773239e-001
      -1.02001891e-001 3.99749696e-001 2.11941019e-001 -3.06070805e-001
      -2.00680718e-001 6.75073639e-002 1.13554306e-001 1.84471369e-001
      -8.22239369e-002 1.17512876e-002 6.10170364e-002 -1.28520235e-001
      -3.18005234e-002 1.55203957e-002 9.29677952e-003 -2.31331512e-001
      -2.20207959e-001 7.00772852e-002 -1.06502160e-001 -2.78469026e-001
      -3.34191889e-001 -1.39305871e-002 9.77699757e-002 -2.18493506e-001
      -1.79710120e-001 -9.28903744e-002 1.13132201e-001 -1.25443682e-001
      -1.18486613e-001 -2.73936927e-001 1.35525793e-001 -3.69357155e-003
      -4.67659056e-001 -2.32034594e-001 5.04891537e-002 -8.45070630e-002
      -2.04435825e-001 -2.33074263e-001 -3.78021985e-001 2.55579501e-003
      2.84969747e-001 1.22814663e-001 -2.07316149e-002 -1.52834356e-001
      -4.71045561e-002 -1.13337059e-002 -9.29116905e-002 2.16219611e-002
      5.90680651e-002 2.24775430e-002 -4.98293601e-002 -1.24953426e-001
      -6.28626496e-002 -1.99134231e-001 -5.74651174e-002 1.07934855e-001
      -1.51246339e-001 -3.14399190e-002 -4.54827547e-002
      -4.13821012e-001 -9.09811184e-002 -1.17339075e-001
      -8.11064094e-002 -8.74679387e-002 6.73686266e-002 -1.61008053e-002
      1.58861890e-001 -9.49935764e-002 1.64154038e-001 -1.02080338e-001
      -1.55779809e-001 -2.34724492e-001 -4.31465879e-002 1.87914342e-001
      8.88366178e-002 -1.15630940e-001 -2.77559042e-001 -1.27588466e-001
      -8.22279379e-002 -1.64364517e-001 -1.94982842e-001 2.90866531e-002
      3.41498196e-001 1.00481302e-001 -2.19489664e-001 -1.45433277e-001
      2.96539783e-001 6.86020479e-002 -1.86250463e-001 2.04019874e-001
      -1.73839629e-001 -6.42335862e-002 -7.87020624e-002
      -1.52249068e-001 -2.86026120e-001 1.02898218e-001 -2.84936726e-001
      -3.59947056e-001 4.57101047e-001 2.45079659e-002 1.87540099e-001
      2.76185721e-002 -3.85505259e-002 5.33376113e-002 1.50190890e-001
      -9.40741450e-002 -1.10795852e-002 -2.23100677e-001
      -1.49200872e-001 -7.24148676e-002 3.34287845e-002 -1.80338249e-001
      -2.55072564e-001 5.75248711e-002 -1.88452631e-001 -1.69586226e-001
      -1.61984161e-001 -1.72088563e-001 -6.86847940e-002 1.14669695e-001
      3.81087810e-001 2.47027092e-002 6.52251542e-002 8.42850432e-002
      -3.75696048e-002 1.79177433e-001 -2.31240645e-001 2.23551877e-003
      1.52734369e-001 2.89053302e-002 -4.02395539e-002 5.41469157e-002
      -9.07702371e-002 -1.58023044e-001 1.41567409e-001 3.17767709e-002
      -9.85087231e-002 -1.37610123e-001 1.47033915e-001 -2.57716060e-001
      -1.38172358e-001 2.61530727e-001 6.15188070e-002 -6.86269999e-002
      -2.62020260e-001 -1.41584247e-001 1.64246321e-001 7.06701502e-002
      -2.09714264e-001 2.52405047e-001 1.68676987e-001 -2.40622107e-002
      2.59467289e-002 -5.96813448e-002 -1.63582563e-001 -2.23501742e-001
      -1.93917409e-001 -2.51292914e-001 6.85049593e-002 -1.86245412e-001
      -3.33827317e-001 4.09217142e-002 7.47369304e-002 -3.31596494e-001
      -2.86744922e-001 -1.19209573e-001 -3.81487548e-001
      -1.13400154e-001 2.61732973e-002 3.00362259e-001 -1.94690749e-001
      -2.57862717e-001 8.19010884e-002 -2.58500665e-001 1.96001470e-001
      -3.85984927e-002 4.87181656e-002 -3.14812288e-002 1.66706935e-001
      -8.54502022e-002 -2.50792522e-002 3.65651734e-002 -3.72452348e-001
      -2.50811964e-001 -2.60368079e-001 2.87739071e-003 -2.56954074e-001
      -1.34988874e-001 -2.20997646e-001 -8.51410180e-002 1.46344796e-001
      -2.23249301e-001 -9.22900066e-002 -1.12795442e-001
      -8.20459723e-002 -1.19428366e-001 -4.25984757e-003
      -1.16171904e-001 -6.32974952e-002 -4.34091389e-002 2.99984887e-002
      3.05691928e-001 -3.33951980e-001 -2.76997417e-001 -4.45409119e-001
      -2.98209757e-001 4.73926008e-001 9.60063562e-002 -2.51124710e-001
      -1.42314196e-001 -1.77064583e-001 -5.63865155e-002
      -1.86660394e-001 -1.33155316e-001 1.84126515e-002 5.08007780e-003
      1.21426433e-002 -1.07967213e-001 -1.87088162e-001 9.76599082e-002
      -1.21080475e-002 -1.51352540e-001 -3.73297036e-001
      -3.00661594e-001 4.47806150e-001 1.15497708e-001 -4.43938196e-001
      -4.37208861e-001 -2.29758233e-001 -6.26158267e-002 7.71491677e-002
      -1.61933064e-001 5.23720123e-002 -4.17093635e-001 -3.86147797e-001
      3.54959071e-001 1.62648797e-001 1.12384483e-001 -7.49746338e-002
      -2.67779082e-001 1.83392778e-001 1.58485591e-001 -2.26644680e-001
      -1.63821831e-001 1.34628505e-001 -2.10275412e-001 1.29688039e-001
      -2.84290135e-001 -4.39089030e-001 -3.48342091e-001
      -2.57765472e-001 -1.74812302e-001 4.76136133e-002 4.54864770e-001
      2.92658452e-002 2.00051188e-001 -1.27899975e-001 3.76101881e-002
      -2.06068218e-001 1.81484178e-001 -2.08251312e-001 -1.02185152e-001
      1.13001376e-001 -3.36797297e-001 1.28165826e-001 -2.35538036e-001
      -1.78297088e-002 -1.52578056e-001 9.51800942e-002 1.21546410e-001
      -9.45861414e-002 -1.49275362e-001 -5.72307445e-002
      -2.10346207e-001 2.08426356e-001 -7.81027926e-003 -1.58042297e-001
      -6.82224929e-002 -4.22514677e-002 1.60134971e-001 -1.83799848e-001
      -4.59085144e-002 -2.92868674e-001 6.45521581e-002 5.94640197e-003
      -2.82728877e-002 -6.29752055e-002 -1.17216460e-001 9.25368536e-003
      3.82789150e-002 -2.97129154e-001 -2.72330493e-001 -1.10937826e-001
      -4.26947605e-003 -8.73408243e-002 -2.70308673e-001
      -2.74861842e-001 -6.44486398e-002 -7.55996257e-002
      -3.17104548e-001 -1.77863538e-001 3.51398662e-002 3.18525881e-001
      -7.83837587e-003 -1.54323086e-001 -1.98735878e-001
      -2.11615395e-002 -2.29234368e-001 -1.28236338e-001
      -1.44255608e-001 -1.94740444e-001 -1.72564834e-001
      -4.65686582e-002 6.77993596e-002 -2.90149078e-002 1.28185749e-001
      -4.74752225e-002 -1.12910546e-001 -4.90196384e-002
      -1.86453611e-001 2.61855990e-001 1.28859565e-001 6.82121292e-002
      -3.00925493e-001 -3.29907030e-001 -9.87030715e-002
      -2.01427918e-002 -6.45986246e-003 1.72790475e-002 -4.76036556e-002
      -1.35510549e-001 -1.69437289e-001 -3.43978345e-001 4.40299474e-002
      -1.22467563e-001 6.83903992e-002 -5.29349335e-002 -4.71800752e-002
      -5.09811565e-002 -4.90701914e-001 -1.90931663e-001
      -4.57480699e-002 -1.68440677e-002 5.51087502e-003 -6.89076632e-002
      -1.72432095e-001 -1.73495933e-002 -1.63172488e-003 8.59952196e-002
      -4.48539183e-002 -8.63328651e-002 -2.21168324e-001
      -1.41411088e-002 -1.34452298e-001 -1.05084293e-001 1.94408596e-001
      -2.31260747e-001 3.94030064e-002 -1.03089094e-001 -1.89464465e-001
      -9.07851160e-002 -6.94606006e-002 3.42425629e-002 1.57657657e-002
      3.32396738e-002 -2.36475328e-003 -5.59372127e-001 -2.48718113e-001
      -5.00392243e-002 -2.39966922e-002 1.09703027e-001 -2.14467749e-001
      -1.12423105e-002 -2.40859970e-001 -2.72781640e-001
      -1.05754025e-001 -2.32078373e-001 3.71411256e-002 -4.53755528e-001
      1.04056820e-001 1.68561280e-001 -1.59048051e-001 8.28059763e-002
      -1.26373097e-001 7.54067376e-002 -2.52026290e-001 -6.19678311e-002
      -1.95541531e-001 -4.50221598e-002 -7.23667368e-002
      -2.58071511e-003 6.17914088e-002 -4.08848515e-003 -4.12638411e-002
      -2.91502357e-001 -2.70950317e-001 -1.46262407e-001 2.54836857e-001
      5.79024479e-002 -4.47453558e-002 -3.07829350e-001 -7.40821436e-002
      5.39624542e-002 -1.76708430e-001 6.86616357e-003 -2.49112219e-001
      8.26545581e-002 2.17206478e-002 2.10157499e-001 -1.75645694e-001
      -2.88591031e-002 2.10401684e-001 3.07399128e-003 -3.69503230e-001
      -4.41622376e-001 -1.27551585e-001 -2.09661141e-001
      -1.25861511e-001 -1.53705627e-001 -9.73045975e-002
      -2.51148213e-002 -2.48352125e-001 -8.96908194e-002 1.52631164e-001
      2.17392161e-001 1.15086980e-001 7.62084648e-002 1.40933171e-001
      -7.55614564e-002 2.59218723e-001 1.58676520e-001 -6.85020238e-002
      -3.20132285e-001 9.03642178e-002 1.70834348e-001 3.30093175e-001
      -3.31058294e-001 -3.27222705e-001 -1.01173356e-001 6.70296028e-002
      8.42195377e-002 -1.21370643e-001 1.12694822e-001 1.02721661e-001
      -5.07910550e-002 -5.07353663e-001 -3.65443885e-001 2.61354446e-001
      1.17673978e-001 9.45639461e-002 -1.08404481e-003 -3.25374037e-001
      -1.18187226e-001 -4.96082045e-002 2.07063034e-002 -1.86692804e-001
      -8.09556842e-002 -9.21848416e-002 3.56827915e-001 -2.34411489e-002
      -5.44800580e-001 -3.13436478e-001 -9.45217758e-002 2.16211915e-001
      1.27370387e-001 2.15125158e-002 1.54873833e-001 -1.11791395e-001
      -3.88551474e-001 -3.31611276e-001 -2.39080831e-001
      -1.61730230e-001 -1.85157850e-001 -2.63839871e-001
      -1.16453141e-001 -4.00994897e-001 1.61006689e-001 3.36935744e-002
      -6.52659178e-001 2.20558286e-001 2.04025164e-001 1.21399276e-001
      -7.99746662e-002 -4.75866012e-002 -4.03996408e-002</_>
    <_>
      -1.20546319e-001 6.61946228e-003 -4.45000306e-002 2.29109615e-001
      -2.26734996e-001 9.02379751e-002 1.33126555e-002 5.29231727e-002
      -1.77937031e-001 -2.70599812e-001 6.66825101e-002 2.58160271e-002
      1.65558651e-001 4.51676808e-002 1.31386295e-001 -1.18252270e-001
      -1.35378525e-001 -4.99782525e-002 1.05876923e-001 2.31535196e-001
      -7.67885568e-003 -7.66993836e-002 -8.16796944e-002 7.78136682e-003
      3.27706039e-002 7.50073865e-002 1.84197668e-002 1.08686145e-002
      4.29028384e-002 -7.57250711e-002 1.32699229e-003 8.04688558e-002
      1.89804062e-002 -2.93727797e-002 -7.64726335e-003 -6.72665685e-002
      -1.63917229e-001 -1.31143734e-001 -5.49441241e-002
      -1.17330831e-002 -1.14234664e-001 1.59757733e-001 6.52020052e-002
      -8.69989917e-002 -4.32051569e-002 -3.00845206e-002
      -5.53951925e-003 7.84272254e-002 1.58311725e-001 1.11636236e-001
      2.45073233e-002 7.78146833e-002 -1.46147773e-001 -1.74236238e-001
      8.52537081e-002 1.57277822e-001 -1.88631155e-002 -5.81919141e-002
      2.22007614e-002 -1.47110941e-002 -1.47285715e-001 -6.87153712e-002
      -7.42144883e-003 -4.99693910e-003 9.03514549e-002 1.45938918e-001
      7.30849132e-002 1.74778625e-001 -1.29665891e-002 1.09715499e-001
      -2.59058159e-002 3.44195589e-002 4.93268557e-002 -2.76207685e-001
      -5.23626655e-002 -6.36097267e-002 -1.21094435e-002
      -1.02802724e-001 7.62369335e-002 -1.24110468e-001 -4.27994542e-002
      1.14606231e-001 -1.47505701e-001 1.32968863e-002 2.57847202e-003
      -1.37427794e-002 -1.07035331e-001 -2.00105205e-001
      -9.72479731e-002 -6.14268426e-003 -2.38907173e-001
      -1.00020111e-001 -7.62746762e-003 5.02272062e-002 2.74603933e-001
      7.14785233e-002 8.60042721e-002 -1.24290399e-001 -3.98076959e-002
      1.80735707e-001 2.86587149e-001 9.24994573e-002 1.16963185e-001
      3.28237593e-001 1.85735554e-001 1.43991232e-001 2.07592085e-001
      1.10822462e-001 -1.16941817e-001 -1.39417678e-001 -2.07491070e-001
      -3.40893976e-002 6.62807822e-002 4.01016437e-002 -6.74954653e-002
      -1.21208780e-001 -1.94054246e-001 -2.02491403e-001
      -1.14593655e-001 -8.16223025e-002 1.03845790e-001 -1.17925592e-001
      -5.90064861e-002 -1.52263567e-001 -2.58947819e-001
      -2.13458881e-001 4.41294797e-002 1.65533900e-001 1.05546460e-001
      1.91909522e-001 3.04301053e-001 2.54101545e-001 2.04731598e-001
      2.12865561e-001 -1.91763550e-001 2.45817855e-001 2.12158442e-001
      1.68758318e-001 1.67233586e-001 2.17291579e-001 1.88482940e-001
      2.38803923e-001 1.67514026e-001 6.97829053e-002 1.86486155e-001
      -7.14378580e-002 1.27000004e-001 1.05568923e-001 -4.50023264e-002
      5.78676164e-002 2.46067736e-002 -2.21373409e-001 -2.53322363e-001
      -1.21896580e-001 -1.14059873e-001 1.26311019e-001 -4.55333292e-002
      -5.44365704e-001 -2.21403331e-001 -9.95257348e-002
      -5.36929965e-001 -1.47641882e-001 2.35482335e-001 1.33999228e-001
      8.49452838e-002 1.20511316e-001 1.46387354e-001 1.74471051e-001
      1.52900204e-001 1.50795087e-001 2.84288108e-001 -9.21487659e-002
      -9.94110256e-002 1.19491652e-001 1.24570087e-001 -3.59536745e-002
      -1.90560613e-003 1.00317031e-001 1.38682202e-001 1.63804278e-001
      7.81140774e-002 -3.93339805e-002 1.47299603e-001 -2.29126990e-001
