<?xml version="1.0"?>
<opencv_storage>
<opencv_ml_svm>
  <format>3</format>
  <svmType>C_SVC</svmType>
  <kernel>
    <type>LINEAR</type></kernel>
  <C>1.</C>
  <term_criteria><epsilon>1.1920928955078125e-007</epsilon></term_criteria>
  <var_count>1764</var_count>
  <class_count>2</class_count>
  <class_labels type_id="opencv-matrix">
    <rows>2</rows>
    <cols>1</cols>
    <dt>i</dt>
    <data>
      -1 1</data></class_labels>
  <sv_total>1</sv_total>
  <support_vectors>
    <_>
      1.55794635e-001 2.99147069e-001 1.55436397e-001 4.22235280e-001
      3.40168089e-001 2.25104257e-001 5.17076291e-002 9.52596664e-002
      -5.00280336e-002 7.60961771e-002 6.97372556e-002 -2.47089624e-001
      -8.33988786e-002 -1.77998934e-002 1.76192895e-001 1.43300131e-001
      4.36714776e-002 -4.88514155e-002 2.07271084e-001 2.64783502e-001
      6.63602501e-002 1.97221845e-001 6.97475672e-002 2.52156645e-001
      1.30742058e-001 2.94648372e-002 7.36241341e-002 -1.42554238e-001
      -1.45674467e-001 -2.84021646e-001 -2.15003356e-001
      -2.93655217e-001 -1.29936442e-001 -2.69400656e-001
      -2.09557727e-001 -3.07933033e-001 1.82992101e-001 1.43181682e-001
      6.58289865e-002 1.70827851e-001 3.97812389e-002 2.28067338e-001
      3.81814271e-001 1.73715502e-001 2.17072964e-001 -1.64327830e-001
      5.46734966e-002 2.92676874e-002 1.90796852e-001 -7.21875206e-002
      -6.63317516e-002 -3.66573734e-003 4.55040000e-002 -6.36335909e-002
      5.03411591e-002 9.00337845e-002 3.83822285e-002 3.12268157e-002
      -1.86403096e-002 1.13400361e-002 -1.58101425e-001 -9.05974582e-002
      -1.65853485e-001 -6.62129745e-002 1.54500706e-002 -1.10051282e-001
      -8.44717696e-002 -1.68760508e-001 -1.55712306e-001
      -1.69271573e-001 -1.13804974e-001 -1.45389140e-001
      -5.98600544e-002 1.97433442e-001 1.83118135e-001 4.03913498e-001
      1.08061088e-002 -6.91542476e-002 -3.53582278e-002 1.39443889e-001
      -1.48864314e-001 -1.13055281e-001 1.64774343e-001 7.14338496e-002
      1.89709619e-001 -1.01788186e-001 -9.20804590e-002 -1.18349366e-001
      -7.93706067e-003 -2.70543218e-001 1.90540422e-002 2.08088011e-002
      -2.32966319e-002 1.15366839e-001 -5.36353178e-002 2.61341874e-002
      -7.76128545e-002 -2.04757433e-002 -1.81226507e-001 2.01076474e-002
      -5.82730584e-002 -1.38783939e-002 5.64211719e-002 -1.80440396e-001
      -1.06633388e-001 2.14851294e-002 -1.36659980e-001 -1.19043268e-001
      -2.25410443e-002 1.58437401e-001 4.89744842e-002 6.56453446e-002
      -3.73003483e-001 -7.24118054e-002 -6.16740994e-002 1.58432111e-001
      4.69018668e-002 9.50860307e-002 6.07668981e-002 -1.26722649e-001
      1.82750881e-001 -2.19385684e-001 4.31034248e-003 2.17905506e-001
      1.05761491e-001 5.47985472e-002 1.68698728e-002 -9.40599814e-002
      -3.39750051e-002 1.39649272e-001 -3.69452685e-001 -1.18315309e-001
      -2.06372291e-001 -2.11531937e-001 -8.22359473e-002
      -9.93259847e-002 -2.16673553e-001 -1.23163514e-001 1.58287466e-001
      -1.75599933e-001 1.62913240e-002 -8.14895183e-002 -7.37804100e-002
      -8.22069347e-002 -1.20185800e-001 -2.41479184e-002
      -2.12826759e-001 1.23891644e-001 -2.43097916e-001 1.02002077e-001
      3.81291993e-002 3.36429030e-002 -7.22449869e-002 4.44781072e-002
      -1.70202162e-002 -2.78034783e-003 2.61690110e-001 -1.65892601e-001
      1.00969777e-001 1.99227538e-002 1.28686532e-001 1.26247779e-001
      -2.29599714e-001 -2.69918531e-001 -2.21720979e-001 4.20995839e-002
      -1.29385933e-001 7.37410784e-002 -4.20055017e-002 -6.42315764e-003
      -1.55108213e-001 -1.17063625e-002 -8.95540323e-003 9.27024260e-002
      2.34742850e-001 -5.17618023e-002 -6.68042600e-002 -4.52060485e-003
      -6.81286380e-002 1.82372518e-002 7.73257250e-003 8.92486516e-003
      1.06268367e-002 1.06508508e-001 -4.05892581e-001 -1.43386662e-001
      -6.29369467e-002 -2.11016368e-002 -7.86194131e-002
      -8.69592652e-002 9.38832015e-002 1.78358853e-001 1.52417198e-001
      -2.79776305e-001 9.27613676e-003 -7.90428817e-002 -1.42372981e-001
      -2.29942530e-001 -8.82977806e-003 -1.01983584e-002 1.35032102e-001
      1.00556239e-001 -3.28691065e-001 -1.43546939e-001 -7.79662058e-002
      -6.29001707e-002 -7.96543583e-002 -4.73249629e-002 8.31553712e-002
      1.85463294e-001 1.67523056e-001 -1.72371045e-001 2.41138846e-001
      2.62484938e-001 5.23059666e-002 -4.33135107e-002 -7.79178217e-002
      9.13314223e-002 1.36294318e-002 -7.74463639e-002 -3.18318516e-001
      -2.53122061e-001 -1.54961646e-001 -1.36780828e-001
      -1.79431409e-001 2.56600857e-001 9.58831459e-002 5.31791262e-002
      9.99170020e-002 6.46799337e-003 9.59362015e-002 1.99944084e-003
      8.61126184e-002 1.69920459e-001 -1.01029411e-001 -9.17797685e-002
      1.46320295e-002 2.28395257e-002 -1.88195422e-001 -8.95755440e-002
      -3.55145521e-002 -7.50563294e-002 -1.52298674e-001 7.79130161e-002
      9.22003314e-002 1.89875901e-001 1.63904235e-001 -1.29706949e-001
      -1.07493503e-002 -6.91932663e-002 7.16793537e-002 1.81778371e-002
      1.34577677e-001 2.25470573e-001 8.77323598e-002 2.63291031e-001
      2.47105494e-001 3.52479964e-001 3.18810463e-001 2.02499837e-001
      8.03228915e-002 4.51056100e-002 6.25729784e-002 -9.66252685e-002
      -8.03463385e-002 -1.49391577e-001 1.44940794e-001 -3.34893428e-002
      2.70266775e-002 -1.01793110e-001 -9.22379196e-002 1.94095269e-001
      1.67566419e-001 1.33837968e-001 3.89495268e-002 1.82046071e-001
      1.50161227e-002 -9.39951986e-002 -1.67396531e-001 -6.96355328e-002
      -8.09889883e-002 -2.52474010e-001 -1.03484280e-001
      -1.77274019e-001 7.20997676e-002 3.45836245e-002 -1.47508189e-001
      -1.62764072e-001 7.47425258e-002 1.65594175e-001 1.04937308e-001
      9.44831371e-002 -4.05149534e-002 2.56585002e-001 7.76660815e-002
      7.99590275e-002 3.00364699e-002 -5.37900552e-002 1.58449486e-001
      8.27167034e-002 8.27905908e-002 -1.45836800e-001 5.47676086e-002
      1.17541507e-001 6.75917044e-002 -6.68052062e-002 6.55322000e-002
      3.11650764e-002 -1.06262371e-001 2.87252460e-002 -1.70025546e-002
      2.43704453e-001 2.37000152e-001 1.29255220e-001 1.23884328e-001
      -2.66662873e-002 -1.45007357e-001 -1.43587127e-001
      -2.81261336e-002 -6.60973191e-002 1.43737495e-001 2.50474662e-001
      -6.48026762e-004 2.47547701e-002 -8.05593580e-002 -3.38210128e-002
      4.58518714e-002 2.28180569e-002 -3.50931170e-003 1.71308666e-002
      7.40824565e-002 -3.29693779e-002 -8.73293802e-002 -2.09482804e-001
      -4.97928150e-002 1.08119085e-001 2.33453475e-002 -6.63133264e-002
      4.14635725e-002 -4.83588204e-002 -2.46637166e-002 -1.80150911e-001
      -5.40743843e-002 -1.17826447e-001 2.63017509e-002 5.30552231e-002
      1.23993205e-002 1.47694554e-002 1.61916792e-001 4.53372598e-002
      -7.22248629e-002 -1.16877005e-001 -1.23438597e-001
      -5.97598813e-002 2.58255098e-002 -1.16025671e-001 1.24040954e-001
      1.10602081e-001 5.86681552e-002 -5.68583049e-002 -1.54722288e-001
      -8.05792883e-002 -1.01572201e-001 1.57047287e-001 -4.97471802e-002
      4.62675281e-002 -5.80327362e-002 -8.66360441e-002 -6.83764890e-002
      -1.68870255e-001 -1.50367901e-001 -8.29548240e-002 1.02059938e-001
      5.23713678e-002 3.41168791e-002 -2.54765842e-002 -2.54255235e-001
      -1.04939930e-001 4.80173342e-002 -1.27030844e-002 -1.16124488e-001
      4.72175255e-002 3.62075642e-002 6.22816943e-002 4.34834883e-003
      -9.11709946e-003 4.88846675e-002 -7.99073651e-003 -4.02576700e-002
      1.56838894e-002 1.28887281e-001 7.95339197e-002 1.00871306e-002
      -1.10040471e-001 -1.45446211e-001 -8.46508592e-002
      -2.05476820e-001 -8.47419947e-002 -4.03465442e-002
      -4.23539989e-002 6.04054378e-003 -5.86036183e-002 -1.23403780e-001
      -1.43947363e-001 1.42603358e-002 1.02399059e-001 1.54846087e-001
      1.09335646e-001 1.13150060e-001 4.16095704e-002 -4.65906560e-002
      -6.62527382e-002 -5.73309213e-002 1.58432901e-001 -9.06424224e-002
      2.56834365e-002 1.10026645e-002 5.85478451e-003 -3.47001925e-002
      2.22985186e-002 -1.59256145e-001 -1.52370572e-001 -1.16542034e-001
      9.87824500e-002 7.88645372e-002 3.83832082e-002 1.00430354e-001
      4.31115460e-003 -2.01860353e-001 -4.82484186e-003 -3.09697073e-002
      8.21173862e-002 6.93179518e-002 -6.64424524e-002 -5.22404909e-002
      -1.49087515e-002 -2.30578825e-001 -1.61379516e-001
      -3.95078287e-002 -1.21454336e-001 9.33871120e-002 -2.31180508e-002
      -1.12245921e-002 -4.54689451e-002 4.54356708e-002 -1.52916744e-001
      2.55391806e-001 3.19285512e-001 9.47927088e-002 6.53877109e-002
      -1.08686455e-001 -2.09305674e-001 -2.43502095e-001
      -1.27790511e-001 -3.67980301e-001 -1.57285452e-001
      -9.06044319e-002 -1.75431550e-001 4.33542281e-002 -5.36877997e-002
      3.81893199e-003 -2.44808178e-002 -3.01782396e-002 -1.18650757e-001
      2.32286051e-001 2.56997585e-001 1.42588913e-001 -3.59682366e-002
      -1.10917680e-001 5.46324886e-002 2.26210020e-002 4.78336439e-002
      -2.62130320e-001 -6.50361553e-003 8.21188316e-002 5.00827730e-002
      -4.91959266e-002 9.44152251e-002 3.12034696e-001 1.68779925e-001
      1.30852416e-001 -1.14022478e-001 4.20302302e-002 -1.80398241e-001
      -1.59403253e-002 -3.32307369e-002 -2.21428037e-001 5.09212986e-002
      -6.28251806e-002 -3.81708890e-002 -1.29952416e-001
      -1.25798643e-001 -4.32197563e-002 -1.81070149e-001
      -2.05278739e-001 9.43668559e-003 8.14717188e-002 1.13628060e-002
      1.45923883e-001 3.00985239e-002 -3.54665890e-002 -1.31134421e-001
      -4.71501611e-002 -6.37078434e-002 6.86340556e-002 3.40019822e-001
      2.34392479e-001 2.49634683e-001 2.36266274e-002 1.32380739e-001
      4.90708873e-002 4.65709008e-002 -3.99821028e-002 5.29087149e-002
      1.13303989e-001 -1.44661620e-001 -8.31142664e-002 -2.13581085e-001
      -7.36867562e-002 2.94204932e-002 -7.23233670e-002 -8.02025050e-002
      6.30189702e-002 2.44585499e-001 2.43356630e-001 4.27349687e-001
      1.93210244e-002 1.77507252e-001 2.74156541e-001 1.86587200e-001
      1.86415955e-001 3.52807567e-002 -9.33208130e-003 -6.26280084e-002
      -9.48053449e-002 -9.56824571e-002 -8.99867862e-002
      -9.17347148e-002 1.84802096e-002 1.50283743e-002 1.04470901e-001
      1.27749979e-001 5.43573350e-002 -4.53630835e-002 -1.44959420e-001
      1.03006922e-001 1.33836508e-001 -4.88873087e-002 1.04876570e-001
      -3.53190377e-002 -1.20555803e-001 3.57612297e-002 1.21177301e-001
      -2.15578750e-002 1.35463998e-001 6.08162954e-002 -9.23612565e-002
      -9.02578682e-002 9.12648812e-002 6.40015602e-002 1.28507346e-001
      3.86243202e-002 -1.01081200e-001 1.80618644e-001 5.17209657e-002
      -5.39924391e-002 -3.97303067e-002 -1.10509649e-001
      -1.29443944e-001 1.04608059e-001 4.30691335e-003 -6.47654310e-002
      7.66342804e-002 1.15516007e-001 -8.90732035e-002 -2.96045989e-001
      -7.55797550e-002 -1.27366781e-001 -1.30638763e-001 1.34846300e-001
      1.15595190e-002 1.64219558e-001 3.50061357e-002 -6.27065822e-002
      -1.53978422e-001 -7.32221156e-002 -1.67386904e-001
      -1.71821669e-001 -9.57250521e-002 -1.32762074e-001 4.49605286e-002
      1.30139455e-001 7.07719103e-002 -7.35069662e-002 -1.35801002e-001
      -3.63765657e-002 -9.44187567e-002 -6.39182469e-003 6.75560310e-002
      8.07836205e-002 -5.84956398e-003 -8.07805210e-002 -2.26687118e-001
      -6.84892684e-002 -6.20837547e-002 -1.37231156e-001
      -8.86243731e-002 -3.96999158e-002 -7.26127177e-002 2.74188109e-002
      -1.10535137e-002 -7.65417889e-002 -8.24582204e-002
      -4.04881462e-002 -1.23501398e-001 -1.13232210e-001
      -1.43676117e-001 -5.48421107e-002 3.43280993e-002 -5.74392229e-002
      -7.40212351e-002 -5.31849563e-002 1.62276208e-001 1.12173475e-001
      1.20915212e-001 1.10967178e-002 -7.91199207e-002 -3.38807935e-003
      -1.36073291e-001 -1.25710398e-001 -9.53417048e-002
      -3.69350077e-003 -8.11137538e-003 -9.64813754e-002
      -1.60857644e-002 -9.04615521e-002 9.12745446e-002 -4.17402945e-003
      -1.35163322e-001 -1.29975960e-001 2.77064703e-002 7.58718327e-002
      1.04143463e-001 2.54997034e-002 -5.07918410e-002 1.26207933e-001
      -1.02964705e-002 -6.82597458e-002 -1.71533361e-001 2.38516927e-002
      9.76566896e-002 1.60042092e-001 6.04005903e-002 -5.81685454e-002
      -1.74843743e-001 -2.25390196e-001 -1.86259285e-001
      -2.42389198e-002 2.43100319e-002 6.08573817e-002 1.64426360e-002
      7.06000775e-002 -1.85695440e-001 -1.04707114e-001 -9.34942514e-002
      -9.16446149e-002 -5.91954887e-002 -1.05511487e-001 7.23143816e-002
      8.37904364e-002 4.43197824e-002 -6.16522618e-002 -1.97062083e-003
      -9.34244916e-002 -1.19745433e-002 3.54631469e-002 -6.62899613e-002
      -3.19008939e-002 4.59424555e-002 7.31134489e-002 -6.50554001e-002
      -2.01690290e-002 -1.25030756e-001 -2.31830273e-002
      -4.46115360e-002 -6.75114840e-002 -8.32944512e-002
      -1.11122184e-001 -1.80525497e-001 -1.21169843e-001
      -6.53679073e-002 -3.01106423e-002 -7.49406696e-004
      -3.45230987e-003 1.81633309e-001 4.66037728e-002 1.15100071e-002
      -9.55488905e-002 -3.16912048e-002 4.63437252e-002 1.10916913e-001
      -5.18033616e-002 -1.62604470e-002 -4.78359796e-002
      -7.68745765e-002 2.54758839e-002 -9.52804089e-002 -2.95569729e-002
      -2.09821880e-001 -2.33642340e-001 -1.10072255e-001
      -9.80803836e-003 7.92841688e-002 1.51763216e-001 9.81062502e-002
      -9.48041081e-002 -5.31300940e-002 -8.87875706e-002
      -1.44692108e-001 -1.00132532e-001 -1.05571546e-001 6.08745106e-002
      -3.94321643e-002 9.00492165e-003 -2.02480257e-001 -1.68753445e-001
      -3.51172127e-002 -5.35398312e-002 -1.02281272e-001 3.97728123e-002
      1.45011274e-002 -6.19275533e-002 2.93093413e-001 9.92094129e-002
      -1.28629178e-001 1.65035695e-001 2.27586448e-001 1.66306421e-001
      -1.47095442e-001 -8.03953707e-002 -5.02904840e-002
      -2.67519616e-002 -2.40734607e-001 -1.56986102e-001
      -1.24491230e-001 -1.68013394e-001 -2.38541305e-001 1.03806704e-001
      -2.81167794e-002 -1.87304705e-001 1.21668547e-001 -2.15321228e-001
      -3.60575803e-002 1.17286764e-001 1.10892486e-002 4.36643185e-003
      -8.58275369e-002 1.27426997e-001 2.17216611e-001 3.16160470e-001
      8.93650670e-003 1.86180472e-001 1.21843286e-001 1.77870080e-001
      2.04564650e-002 -6.53505474e-002 -2.26520319e-002 -1.49503965e-002
      -4.34169583e-002 -7.60549307e-003 3.42767537e-002 -8.57706442e-002
      -7.80627280e-002 -1.35830104e-001 -1.43155187e-001 5.73406555e-002
      6.54985011e-002 9.69331115e-002 -3.03244665e-002 1.94224402e-001
      1.57207623e-001 1.66229680e-001 6.91481531e-002 -3.22336555e-002
      8.16229582e-002 -1.99675653e-002 -1.58556387e-001 -7.03130141e-002
      -1.37864009e-001 -9.80410576e-002 -2.53972020e-002
      -2.20737066e-002 3.17515433e-002 6.20071292e-002 -4.65447456e-002
      4.85014506e-002 -9.05180722e-002 1.88262895e-001 8.93309154e-003
      -3.67786214e-002 -1.03258155e-001 -8.29966217e-002 1.52752083e-003
      1.31337093e-002 -6.79275841e-002 -3.26737016e-002 1.76113658e-002
      1.37095693e-002 1.26895327e-002 -2.45161563e-001 1.44484090e-002
      2.22148914e-002 5.37892710e-003 4.81969789e-002 -3.83949792e-003
      2.81887762e-002 -1.10560115e-002 8.29869583e-002 -3.84650147e-003
      -1.26708865e-001 -1.23221532e-001 2.18694117e-002 -4.79725190e-002
      -7.99660534e-002 6.98998347e-002 7.76284859e-002 -1.11818805e-001
      -1.41981632e-001 -1.33000359e-001 4.32443134e-002 -4.77027670e-002
      -1.12929657e-001 -6.73888475e-002 -8.85317847e-002
      -9.02085230e-002 -8.83408561e-002 -8.62647519e-002
      -1.81347877e-002 1.17690377e-001 2.57261712e-002 -1.45349130e-001
      -6.67533427e-002 -7.92507827e-002 -1.56532735e-001
      -5.73645122e-002 -3.25315520e-002 -7.67392069e-002
      -6.71367422e-002 -7.21882880e-002 -7.52926171e-002
      -1.54597491e-001 -3.91559564e-002 -3.08809932e-002
      -1.98100746e-001 -4.02162187e-002 4.43917438e-002 -7.75632495e-003
      1.02619259e-002 -7.19136074e-002 -7.20958039e-002 4.49194387e-003
      -2.78718844e-002 6.44867122e-002 1.23843998e-001 -1.23940401e-001
      -1.21613650e-003 -2.38238778e-002 -7.98612535e-002
      -1.16708707e-002 -3.34441401e-002 -1.72063019e-002
      -1.03086177e-002 -1.86884046e-001 -7.52390251e-002
      -1.55047467e-002 3.06318402e-002 -2.26757936e-002 -7.03682192e-003
      -1.97333540e-003 4.07177620e-002 6.36166483e-002 -1.48509666e-001
      1.69382002e-002 9.62550789e-002 6.33175075e-002 -7.71797225e-002
      4.34778482e-002 1.33663148e-001 1.49078881e-002 1.42772406e-001
      8.92840251e-002 2.98805442e-002 1.28348857e-001 1.44555718e-001
      7.17069730e-002 5.25415167e-002 2.84404345e-002 7.68803209e-002
      2.40669727e-001 5.36216758e-002 -5.20833135e-002 -1.69002071e-001
      -1.27405494e-001 -1.14444569e-001 -6.19782917e-002
      -9.53373313e-002 -7.03240037e-002 -5.69829643e-002
      -5.49341217e-002 -1.02491349e-001 -1.06970012e-001
      -2.19346613e-001 -1.53832763e-001 -2.00258359e-001
      -2.31801979e-002 2.39266399e-002 5.76536264e-003 -1.16917856e-001
      -5.47827445e-002 2.42958069e-002 4.21453686e-003 -6.37361184e-002
      -8.08833092e-002 -8.25190321e-002 -1.30786076e-001 1.32678086e-002
      4.28457838e-003 -1.59954548e-001 1.63451433e-002 -1.82751298e-001
      -1.02672920e-001 -1.20995745e-001 2.95534655e-002 -1.62280887e-001
      -9.86977816e-002 -6.12332821e-002 -2.37089083e-001
      -2.11435080e-001 -2.31056124e-001 -5.29982522e-002
      -1.47254720e-001 4.91624922e-002 -8.58180001e-002 -6.66332245e-002
      -2.28807211e-001 -1.78294897e-001 -1.08930349e-001 1.14594204e-002
      7.51222149e-002 -1.86610110e-002 -7.24717304e-002 -1.22502401e-001
      -1.52508155e-001 -8.48000944e-002 -1.97221026e-001
      -4.00022939e-002 -1.93542898e-001 -6.87330142e-002
      -1.21095099e-001 1.55694634e-001 8.22640657e-002 6.12351745e-002
      -5.60809411e-002 -1.04183525e-001 -2.11756378e-002
      -1.93036851e-002 1.61596723e-002 2.94065755e-002 3.02229561e-002
      -3.02497149e-002 -7.23649003e-003 2.89336010e-003 -6.42061830e-002
      -2.12695733e-001 -7.79453963e-002 -5.11567853e-002
      -1.70616552e-001 -1.20074032e-002 -1.35293543e-001
      -2.34279960e-001 -7.86746889e-002 1.50693744e-001 1.56536177e-002
      -7.21390173e-002 5.53847924e-002 -1.63396433e-001 1.09873258e-001
      -1.73189603e-002 -8.46579149e-002 -7.30942860e-002 1.16309807e-001
      -6.71620592e-002 -1.67841271e-001 -1.68847099e-001
      -1.55132040e-001 -1.04696251e-001 -1.62569165e-001
      -1.54028192e-001 1.19677313e-001 3.28368962e-001 2.55259752e-001
      2.50726759e-001 -7.28384778e-002 -3.97284143e-002 6.18339442e-002
      -8.00893269e-003 2.40297820e-002 1.58828869e-001 -6.22178428e-002
      6.78897277e-002 -1.01795262e-002 6.64627701e-002 -5.07602468e-002
      2.20967531e-001 1.84644401e-001 6.88947290e-002 1.63026825e-001
      5.16839735e-002 -5.77952154e-002 -7.97819495e-002 -4.54304293e-002
      5.80201857e-002 -1.22719087e-001 6.17723819e-003 -6.55715987e-002
      5.30755818e-002 -1.01540670e-001 -1.29283920e-001 -5.39270528e-002
      1.03821449e-001 1.13519035e-001 1.79681942e-001 1.24840036e-001
      1.11751603e-002 1.48959011e-001 5.60054518e-002 -8.47267285e-002
      -7.25030527e-002 5.10093942e-002 -1.03807867e-001 -1.76738739e-001
      9.60152671e-002 -4.15789858e-002 8.55705440e-002 1.47704437e-001
      9.57452282e-002 4.39864844e-002 1.40452668e-001 4.18241657e-002
      -1.03405282e-001 -6.71049803e-002 -4.75901663e-002 1.38900746e-002
      -4.22797576e-002 -1.70161072e-002 -9.73420069e-002 5.33856302e-002
      -3.06248642e-003 -5.50003648e-002 -1.32162019e-003
      -1.17880523e-001 -6.23112395e-002 1.42193630e-001 1.95345312e-001
      2.06374496e-001 3.15386951e-001 -4.79101762e-003 -9.03046876e-002
      6.16862364e-002 3.99367660e-002 3.71210128e-002 9.58180875e-002
      8.95105451e-002 4.41221856e-002 1.09129511e-001 -6.87698722e-002
      -1.51856482e-001 -9.02782753e-003 -7.03262091e-002
      -8.39799345e-002 -3.77118625e-002 2.01866794e-002 -1.51747704e-001
      -1.60393417e-002 -5.42170294e-002 -1.61015652e-002
      -3.08434442e-002 -1.50839835e-001 1.99107789e-002 -4.74781021e-002
      -1.64520759e-002 -1.22019738e-001 -7.52958879e-002 3.08534806e-003
      1.49820477e-001 -3.42298858e-002 7.72571564e-002 3.81404757e-002
      -1.29646808e-001 2.40668887e-003 -1.29026458e-001 4.81914766e-002
      1.90664399e-002 -1.57191828e-002 8.44473541e-002 -2.28612106e-002
      -6.85825646e-002 -7.20077455e-002 -5.13854995e-002
      -7.58034140e-002 -3.89228277e-002 1.49902508e-001 8.29197392e-002
      -5.95602132e-002 7.69076571e-002 5.77729307e-002 -4.40142192e-002
      9.52985883e-003 -4.49444633e-003 -5.18326350e-002 1.16838731e-001
      1.02830224e-001 -1.06128156e-001 -1.40705332e-002 -5.85857853e-002
      -4.87444289e-002 1.92233995e-001 2.53314346e-001 -4.28799056e-002
      -7.19310995e-003 -1.08085394e-001 -6.69501126e-002
      -1.06984396e-002 -3.89832743e-002 2.28792891e-001 -9.30435210e-003
      -6.50975928e-002 -1.56094521e-001 1.23349100e-001 3.53998095e-002
      -9.64386091e-002 -3.81335989e-002 1.49789289e-001 1.65155008e-001
      7.74987638e-002 -4.55792882e-002 -1.95732653e-001 -4.25644889e-002
      -1.15986951e-001 7.24046528e-002 6.07102923e-002 1.43948287e-001
      -1.15668766e-001 -4.81631942e-002 1.87250897e-002 -1.37292027e-001
      -1.24627486e-001 -1.64933026e-001 -1.34860277e-001 3.76677513e-002
      -7.91491196e-002 -6.07780330e-002 -1.17781181e-002
      -1.72091737e-001 -1.44493043e-001 -4.81580347e-002 1.02702379e-001
      -8.38619098e-002 -1.20747037e-001 -6.35515451e-002 5.49691841e-002
      -1.09439626e-001 -1.63870007e-001 -1.58967435e-001
      -8.80580619e-002 -2.97997743e-002 4.88848202e-002 4.22636382e-002
      -3.70458961e-002 5.24529396e-003 -3.38746458e-002 -2.69215042e-003
      -1.56358611e-002 2.17582677e-002 1.30461380e-001 7.53114671e-002
      5.11883534e-002 3.72712431e-003 -7.17793331e-002 -1.98891088e-002
      -2.98167467e-001 -1.93417192e-001 -1.98377535e-001 6.30311444e-002
      5.23786284e-002 5.24760364e-003 -4.89509515e-002 -9.86038446e-002
      -2.90968250e-002 -1.76232740e-001 -1.20325238e-001 4.97913510e-002
      4.45529930e-002 9.99694876e-003 1.32538565e-002 5.07848226e-002
      -1.63311306e-002 1.10718839e-001 -4.54544537e-002 9.62542966e-002
      -9.10131261e-002 5.11489250e-003 4.28573564e-002 5.19807683e-003
      4.37869467e-002 -1.58849359e-002 -8.38787332e-002 -3.67994979e-002
      9.03071612e-002 -2.12960374e-002 -9.92553681e-003 3.08068674e-002
      -3.51633057e-002 6.60028085e-002 2.55325492e-002 -2.41250843e-002
      -9.03736800e-002 -1.72221109e-001 -1.71559080e-001
      -3.78089659e-002 -1.26597092e-001 -2.24186867e-001 6.02049232e-002
      3.23936671e-001 2.42186174e-001 2.36239284e-001 -1.40704721e-001
      -1.98593527e-001 -1.89502146e-002 -3.77259851e-002
      -9.50447023e-002 2.23426387e-001 -9.96565223e-002 -5.05552106e-002
      -7.68792331e-002 -7.57262930e-002 -2.80920833e-001
      -7.32413754e-002 -1.64317563e-001 -1.21465206e-001 1.84836853e-002
      2.92550236e-001 2.56615788e-001 1.10042743e-001 -1.50909126e-001
      -3.79382893e-002 6.70685545e-002 -5.92517816e-002 -1.10557824e-001
      2.47032478e-001 -2.12412775e-001 -2.20944807e-001 2.43984573e-002
      1.08401999e-001 2.34929696e-002 -4.55860458e-002 8.81058946e-002
      -4.93861362e-002 7.44806454e-002 -1.19246490e-001 -1.67578682e-001
      -1.26349647e-002 1.26575261e-001 -1.61471263e-001 -1.75327897e-001
      1.25955850e-001 -1.76618859e-001 -8.99104252e-002 -7.30800927e-002
      -1.34940624e-001 1.65348038e-001 2.31031746e-001 9.26301554e-002
      2.56882042e-001 2.53398716e-001 1.74063712e-001 1.76120803e-001
      3.85666527e-002 3.43598910e-002 7.56238922e-002 1.05319388e-001
      -1.41735747e-001 -1.25487760e-001 -8.48419294e-002
      -2.99196821e-002 4.22165208e-002 -7.19731003e-002 -1.55116330e-004
      1.94314227e-001 2.60939300e-001 -1.05403595e-001 -8.80592838e-002
      1.55593172e-001 -1.72786653e-001 -7.05437437e-002 -9.44966227e-002
      -1.48185119e-001 1.55172711e-002 8.40368867e-002 1.02556057e-001
      1.05472915e-002 3.94050479e-002 -5.43026477e-002 -1.61045715e-001
      6.39820918e-002 1.10173702e-001 8.05467144e-002 1.09233238e-001
      -1.21285811e-001 4.79092561e-002 1.51644442e-002 -7.69204125e-002
      5.79792401e-003 2.74092555e-002 3.39044034e-002 -8.96443725e-002
      -3.07910461e-002 -1.40915498e-001 1.18480444e-001 2.30900764e-001
      1.23998746e-001 2.34582666e-002 -3.37550282e-001 -1.29668295e-001
      -9.06800330e-002 9.09115821e-002 1.28411308e-001 5.74271753e-002
      -4.22524624e-002 3.09865456e-002 -8.45065266e-002 -1.60271078e-001
      -5.21017946e-002 4.10555340e-002 5.17991558e-002 6.75821826e-002
      -8.80843475e-002 -5.95360361e-002 8.83733332e-002 -1.03186056e-001
      -6.63506165e-002 -1.98166575e-002 -7.05508366e-002 2.61724070e-002
      -1.90042898e-001 1.79313406e-001 -5.08497003e-003 1.50728077e-001
      -2.87673296e-003 3.24765854e-002 1.97323691e-002 2.32999343e-002
      1.09899655e-001 -8.35299641e-002 1.17554329e-002 -1.84736237e-001
      2.54796911e-003 5.93514647e-003 6.42023012e-002 1.33738690e-003
      -4.73976284e-002 -5.24904653e-002 5.03999479e-002 -1.07533686e-001
      -9.54218954e-003 6.54822364e-002 7.44587788e-003 4.15025651e-002
      1.38108507e-002 -1.93829641e-001 -7.87923932e-002 -6.83434829e-002
      -3.95179503e-002 3.38313612e-003 1.78701542e-002 -2.27669161e-002
      1.52871266e-001 -1.15601569e-002 -5.04939854e-002 -1.85505245e-002
      -1.73415057e-002 -5.38838096e-004 -4.97228093e-002 3.50112282e-002
      -7.69039318e-002 1.93583295e-001 -3.21341045e-002 -2.38032807e-002
      6.03559874e-002 5.42511307e-002 -8.25871006e-002 9.86067653e-002
      -6.26878589e-002 1.45609200e-001 -1.59418002e-001 -8.25371146e-002
      -2.95012504e-001 -5.91665953e-002 2.18630694e-002 4.10561189e-002
      -2.03766972e-002 4.83871484e-003 -1.53505772e-001 -2.32691132e-002
      1.00516491e-001 -7.32642561e-002 -9.30618793e-002 6.51267096e-002
      1.40543550e-001 -2.85584503e-003 6.25904277e-002 -1.62933722e-001
      7.17707798e-002 -5.38640022e-002 -3.34160060e-001 -1.21870220e-001
      2.30473634e-002 1.24047183e-001 1.08966883e-002 8.01814422e-002
      -2.83832420e-002 7.54977018e-002 1.77123100e-001 -1.10515900e-001
      -6.45478219e-002 -6.34925887e-002 2.91292250e-001 9.08971205e-002
      1.26275778e-001 -1.42684892e-001 -3.37233208e-002 2.10156128e-001
      -4.51132022e-002 3.50473300e-002 -1.39054850e-001 -8.83755907e-002
      -1.32957205e-001 -4.19691615e-002 -8.59167278e-002
      -5.69010451e-002 3.61140706e-002 1.01151146e-001 1.32500798e-001
      -1.15645684e-001 1.82871837e-002 -3.02068386e-002 4.85037491e-002
      -3.84599864e-002 -9.70231220e-002 7.71735311e-002 3.61776054e-002
      -4.51849289e-002 -1.00035861e-001 -2.56794859e-002 4.64313142e-002
      1.26963910e-002 -4.15505581e-002 -3.56215090e-002 -3.32598574e-002
      6.35410324e-002 3.69637124e-002 2.49616653e-002 -7.36719593e-002
      1.05772711e-001 5.93512505e-002 2.10629515e-002 -2.47686766e-002
      -3.77314724e-002 -1.26640156e-001 -2.19075516e-001
      -2.29736939e-001 -1.31522551e-001 -4.65562716e-002 2.48112925e-003
      -6.86587542e-002 1.96911886e-001 2.04605713e-001 1.74540758e-001
      -4.85637709e-002 -1.16576225e-001 -2.13774517e-001
      -1.48980245e-001 -1.55549243e-001 3.03125363e-002 6.22187480e-002
      3.53111029e-002 2.08222680e-002 -2.55871215e-003 2.43484061e-002
      -2.35752508e-001 -3.60853113e-002 -9.89897996e-002
      -9.11941528e-002 2.21924081e-001 2.39706755e-001 5.36897704e-002
      -1.55494183e-001 -4.11761217e-002 -6.47517527e-003 2.76538171e-002
      9.57127437e-002 1.89762145e-001 -1.44185618e-001 -1.63516238e-001
      -7.18911439e-002 -8.53079334e-002 -3.67431827e-002 1.75560966e-001
      1.08205907e-001 1.88802987e-001 1.00705691e-001 -2.49180079e-001
      -1.09538592e-001 -2.99993027e-002 1.16005270e-002 -2.21908256e-001
      -2.03184634e-001 -2.25009680e-001 -3.56787629e-002
      -2.70162728e-002 -6.53685406e-002 5.90926148e-002 1.19575784e-001
      2.15432480e-001 1.99591488e-001 2.08373636e-001 2.35627219e-001
      2.73269296e-001 1.37638107e-001 -2.56424427e-001 -3.71290706e-002
      -5.04730381e-002 1.29224166e-001 -3.00711114e-002 -5.57215931e-003
      -2.03025471e-002 9.00780130e-003 -8.60081688e-002 -3.69943939e-002
      8.97136480e-002 5.47727421e-002 8.23446736e-003 -2.33734157e-002
      3.54183465e-002 -1.14417188e-002 -7.69700706e-002 3.21911706e-004
      -8.09415057e-002 -2.90813241e-002 -2.89787482e-002
      -2.95445081e-002 -7.34450668e-002 2.54443102e-002 9.12272483e-002
      -6.21835291e-002 -2.83503276e-003 -2.04277486e-001 1.32158548e-001
      1.43537939e-001 1.71979725e-001 1.22969806e-001 2.56806705e-002
      3.04895174e-002 2.32219766e-003 -1.02619946e-001 -3.11252624e-001
      -1.18460797e-001 4.99914475e-002 4.52355668e-002 1.95035804e-002
      -1.00603297e-001 -2.13118736e-002 1.61773905e-001 -1.24497518e-001
      -4.08313051e-002 -1.00959979e-001 -2.55720884e-001 9.18743573e-003
      -1.72130346e-001 -3.94742936e-002 -7.24430010e-002
      -1.49510503e-002 -1.94459017e-002 6.54727444e-002 -1.06616262e-002
      -2.27897108e-001 5.82996570e-002 -1.43742323e-001 -8.68909284e-002
      -1.76121056e-001 2.55407244e-002 -1.72674973e-002 -1.21263422e-001
      -1.81501493e-001 -9.26430076e-002 1.83801278e-001 5.51723614e-002
      -5.12141548e-002 6.69358373e-002 2.23301515e-001 1.28933161e-001
      2.91255210e-002 1.14393003e-001 -7.10267574e-002 2.77808040e-001
      7.60496259e-002 -6.49651811e-002 1.60682663e-001 1.83706775e-001
      1.37988314e-001 -5.97400852e-002 -1.16196774e-001 -1.54362589e-001
      1.06139615e-001 -9.82422382e-002 4.91620041e-002 2.61843149e-002
      9.51750726e-002 -8.61100107e-002 -1.48407780e-004 -1.25471115e-001
      -1.77343249e-001 -6.00284599e-002 1.59083642e-002 -3.73702571e-002
      6.07559748e-004 -1.23740137e-002 -3.20298001e-002 -4.65050116e-002
      8.86623189e-002 6.56488240e-002 2.73520738e-001 1.02552548e-001
      -4.79355641e-003 3.19444835e-001 2.32709289e-001 -3.05049606e-002
      1.05098700e-002 5.51340766e-002 -4.13969047e-002 1.11887790e-002
      -2.76887491e-002 1.57589465e-001 1.38779119e-001 1.15443341e-001
      -1.75719678e-001 3.01040933e-002 -1.10706829e-001 -2.63750255e-001
      -1.98228881e-001 -1.21251568e-001 1.73687469e-002 2.17268243e-003
      1.27373710e-001 3.73228565e-002 -7.31000751e-002 1.00097008e-001
      -1.23781808e-001 -8.32367167e-002 -1.21494271e-001 2.70548463e-001
      9.64120552e-002 1.80522501e-001 2.78387479e-002 -1.19154297e-001
      -3.05324309e-002 -4.30362485e-002 -1.34260967e-001
      -2.81518791e-002 3.48848291e-002 -8.51932764e-002 4.79631796e-002
      -1.66798353e-001 -1.26086310e-001 4.15101312e-002 1.15445331e-001
      8.27978700e-002 -8.36709812e-002 9.21983793e-002 -1.64422393e-002
      1.39815360e-001 -1.13171794e-001 -2.02226982e-001 -7.86742121e-002
      -1.00383371e-001 -5.67546599e-002 -2.40779901e-003 7.95562714e-002
      1.08792171e-001 7.84616619e-002 -2.33059414e-002 -5.39687164e-002
      -1.45854324e-001 -4.39685434e-002 -9.36473683e-002
      -4.18604398e-003 -5.38024530e-002 1.09247223e-001 1.26835510e-001
      -8.87866393e-002 -2.42160231e-001 -9.00274441e-002 1.02081157e-001
      5.26037998e-002 7.70852296e-003 7.62182549e-002 1.85231529e-002
      1.35545731e-001 -1.51226953e-001 -1.96563512e-001 -9.98587012e-002
      -1.87085047e-001 3.33779305e-002 6.04193285e-002 -6.23298660e-002
      -3.35356668e-002 -2.46921163e-002 -2.05044001e-001
      -2.79253665e-002 -1.16947718e-001 -8.09279382e-002
      -3.98609936e-002 -7.05548823e-002 -1.78142920e-001
      -9.19110775e-002 3.06983758e-002 -8.56520459e-002 4.12985049e-002
      4.39571915e-003 -1.82234734e-001 -2.41804972e-001 6.63682297e-002
      3.29080075e-001 1.41306728e-001 1.84503078e-001 7.63646066e-002
      -2.44159475e-001 -2.01371878e-001 -1.74883232e-001
      -4.53431830e-002 -1.70087472e-001 -9.69043374e-002
      -1.11645527e-001 -2.03772247e-001 -1.59812912e-001 7.73819610e-002
      -1.39653400e-001 -1.00960404e-001 -1.85551509e-001 1.75637990e-001
      1.42155737e-001 -5.22307158e-002 5.90423867e-002 2.10870951e-001</_></support_vectors>
  <decision_functions>
    <_>
      <sv_count>1</sv_count>
      <rho>-3.8686677593135026e+000</rho>
      <alpha>
        1.</alpha></_></decision_functions></opencv_ml_svm>
</opencv_storage>
